tree
version=v4
num_class=1
num_tree_per_iteration=1
label_index=0
max_feature_idx=11
objective=regression
feature_names=pm2_5 pm10 nitrogen_dioxide carbon_monoxide dust temperature_2m wind_speed_10m boundary_layer_height relative_humidity_2m surface_pressure doy_sin doy_cos
feature_infos=[4.5:52.983333333333327] [5.4125000000000005:112.08750000000001] [3.8041666666666663:66.729166666666671] [146.875:858.33333333333337] [0:142.41666666666666] [-13.5375:36.320833333333333] [1.6958333333333335:18.158333333333335] [16.875:1483.125] [13.833333333333334:98.708333333333314] [948.19583333333321:986.38333333333321] [-0.99999073973619013:0.99999073973619013] [-0.99996295911626554:1]
tree_sizes=2564 2596 2759 2679 2778 2681 2768 2772 2775 2776 2779 2781 2787 2786 2611 2796 2786 2786 2796 2795 2793 2798 2807 2795 2801 2796 2813 2801 2816 2807 2811 2806 2801 2802 2806 2809 2810 2807 2819 2806 2804 2816 2808 2829 2817 2825 2823 2820 2819 2832 2830 2827 2826 2831 2838 2836 2832 2844 2845 2811 2829 2821 2841 2829 2844 2825 2842 2836 2844 2835 2829 2830 2834 2829 2839 2825 2836 2840 2836 2839 2846 2848 2843 2851 2842 2840 2843 2857 2841 2840 2847 2834 2851 2852 2857 2863 2851 2864 2867 2858 2867 2858 2844 2860 2876 2875 2861 2868 2858 2851 2871 2865 2856 2856 2879 2860 2867 2871 2876 2865 2873 2867 2858 2868 2862 2874 2875 2870 2880 2866 2871 2874 2877 2873 2874 2879 2890 2883 2888 2881 2882 2884 2890 2891 2892 2891 2896 2866 2879 2887 2888 2891 2886 2890 2897 2902 2886 2895 2886 2866 2881 2893 2894 2899 2885 2880 2874 2888 2881 2881 2865 2880 2891 2892 2876 2898 2906 2879 2905 2903 2889 2898 2897 2896 2892 2898 2896 2884 2877 2885 2887 2888 2890 2887 2892 2887 2891 2886 2884 2896 2891 2900 2887 2902 2909 2903 2888 2888 2896 2900 2904 2905 2889 2886 2891 2903 2894 2900 2891 2901 2892 2902 2905 2874 2884 2894 2892 2907 2885 2909 2911 2902 2898 2880 2891 2899 2908 2915 2893 2896 2908 2899 2898 2896 2895 2897 2905 2884 2903 2914 2899 2907 2896 2913 2909 2898 2901 2905 2913 2912 2900 2917 2898 2869 2906 2913 2913 2913 2915 2910 2894 2907 2894 2906 2910 2913 2916 2904 2913 2918 2909 2909 2889 2916 2903 2899 2905 2922 2900 2911 2920 2933 2900 2907 2894 2903 2916 2908 2910 2916 2916 2914 2920 2911 2916 2902 2932 2916 2924 2931 2913 2908 2907 2921 2920 2901 2913 2915 2929 2925 2903 2913 2900 2904 2928 2924 2913 2905 2906 2907 2925 2921 2930 2918 2910 2933 2930 2930 2930 2902 2902 2946 2901 2915 2944 2914 2906 2907 2921 2925 2909 2916 2923 2938 2913 2920 2927 2927 2919 2922 2933 2922 2908 2920 2928 2930 2918 2910 2921 2914 2930 2933 2919 2926 2924 2908 2832 2930 2912 2936 2930 2929 2908 2935 2926 2900 2911 2941 2928 2911 2937 2917 2934 2924 2922 2921 2921 2937 2918 2904 2919 2926 2926 2928 2916 2920 2929 2922 2923 2920 2929 2900 2923 2908 2908 2924 2930 2927 2940 2928 2922 2924 2921 2919 2937 2936 2928 2921 2928 2934 2934 2938 2936 2936 2928 2928 2927 2938 2934 2932 2917 2935 2931 2930 2941 2925 2922 2940 2920 2931 2940 2910 2946 2935 2912 2913 2926 2933 2929 2931 2930 2938 2942 2931 2945 2927 2911 2932 2934 2942 2920 2915 2926 2927 2935 2933 2929 2929 2946 2940 2938 2920 2936 2936 2932 2932 2940 2941 2919 2938 2936 2936 2932 2950 2911 2954 2933 2931 2951 2919 2944 2915 2947 2931 2931 2931 2938 2936 2937 2925 2927 2933 2931 2944 2925 2945 2927 2918 2941 2926 2923 2930 2944 2933 2927 2924 2938 2890 2933 2934 2950 2921 2926 2926 2942 2933 2946 2941 2942 2935 2946 2910 2939 2933 2941 2922 2930 2949 2942 2924 2930 2918 2937 2931 2940 2921 2936 2935 2928 2931 2940 2931 2932 2944 2913 2936 2923 2948 2942 2924 2933 2934 2911 2930 2926 2943 2942 2939 2934 2929 2931 2936 2936 2924 2933 2932 2934 2944 2931 2947 2929 2928 2951 2941 2927 2932 2947 2932 2927 2948

Tree=0
num_leaves=31
num_cat=0
split_feature=3 0 11 0 2 8 4 0 3 0 6 8 10 7 6 8 2 0 0 4 0 3 10 0 3 2 9 7 6 6
split_gain=103.351 19.6867 17.3402 4.21529 3.26841 2.82783 2.69384 3.0332 2.49982 1.94398 1.76897 1.70953 1.38197 1.19816 1.03052 0.892475 0.769649 0.714469 0.613329 0.984955 0.606633 0.459136 0.370405 0.298227 0.289746 0.252362 0.220615 0.215402 0.212186 0.18352
threshold=299.54166666666674 21.000000000000004 -0.36572252349726903 12.064583333333335 8.533333333333335 84.770833333333357 24.354166666666668 21.000000000000004 421.00000000000006 31.758333333333336 5.8416666666666677 68.583333333333357 0.98521098335796142 665.37348418549959 8.2000000000000011 64.687500000000014 26.320833333333336 10.489583333333336 16.239583333333339 8.5208333333333339 12.956250000000002 251.27083333333334 -0.90149333598846371 12.531250000000002 450.52083333333337 6.8833333333333337 956.84375000000011 839.79166666666674 7.366666666666668 8.5166666666666693
decision_type=2 2 2 2 2 2 2 2 2 2 2 2 2 2 2 2 2 2 2 2 2 2 2 2 2 2 2 2 2 2
left_child=2 8 4 14 17 9 7 12 10 15 -2 -10 18 21 -4 -3 -12 25 22 -20 26 23 -5 -6 -17 -1 -15 -19 -22 -28
right_child=1 5 3 6 13 -7 -8 -9 11 -11 16 -13 -14 20 -16 24 -18 27 19 -21 28 -23 -24 -25 -26 -27 29 -29 -30 -31
leaf_value=3.112505317775812 3.1436838655662176 3.1474702938630243 3.1286680810639296 3.135907830273057 3.1234221968651519 3.1663255207849974 3.1267052753685634 3.1449551473259896 3.1402668005803491 3.161713912321487 3.137295132409017 3.1525221924913041 3.1280034925988405 3.1224951886799124 3.1205893396867617 3.1523853663224428 3.1299582212073345 3.1214784556223822 3.1424809574853008 3.1338786271656525 3.1270290017716911 3.130257048346194 3.1310249896143674 3.1276903945735497 3.1570974075558258 3.1167989760534365 3.1207718688809654 3.1180883071864214 3.1231935870400509 3.1172050199309957
leaf_weight=22 27 22 30 27 34 26 36 27 20 29 31 21 28 37 27 23 22 31 23 25 21 23 29 26 24 28 37 37 34 20
leaf_count=22 27 22 30 27 34 26 36 27 20 29 31 21 28 37 27 23 22 31 23 25 21 23 29 26 24 28 37 37 34 20
internal_value=3.1327 3.14913 3.12602 3.13202 3.1217 3.15753 3.13412 3.13579 3.14052 3.1552 3.13743 3.14654 3.13392 3.12376 3.12484 3.15246 3.13425 3.11763 3.13551 3.138 3.12216 3.12665 3.13338 3.12527 3.15479 3.11491 3.12069 3.11963 3.12466 3.11952
internal_weight=847 245 602 252 350 124 195 159 121 98 80 41 132 232 57 69 53 118 104 48 149 83 56 60 47 50 94 68 55 57
internal_count=847 245 602 252 350 124 195 159 121 98 80 41 132 232 57 69 53 118 104 48 149 83 56 60 47 50 94 68 55 57
is_linear=0
shrinkage=1


Tree=1
num_leaves=29
num_cat=0
split_feature=3 0 11 0 2 3 4 0 0 8 10 6 9 7 6 0 4 0 7 0 3 0 2 9 9 7 6 6
split_gain=97.2426 18.5232 16.3153 3.96616 3.07524 2.66379 2.53463 2.85394 2.41766 1.70925 1.3003 1.28063 1.27492 1.12735 0.969613 0.857805 0.719416 0.672244 0.593106 0.570781 0.432001 0.280602 0.237447 0.22788 0.207577 0.202672 0.199646 0.172674
threshold=299.54166666666674 21.000000000000004 -0.36572252349726903 12.064583333333335 8.533333333333335 403.22916666666669 24.354166666666668 21.000000000000004 18.652083333333337 81.250000000000014 0.98521098335796142 5.0437500000000011 967.93333333333339 665.37348418549959 8.2000000000000011 14.737500000000002 2.6458333333333335 10.489583333333336 254.79166666666671 12.956250000000002 251.27083333333334 12.531250000000002 6.8833333333333337 964.37708333333342 956.84375000000011 839.79166666666674 7.366666666666668 8.5166666666666693
decision_type=2 2 2 2 2 2 2 2 2 2 2 2 2 2 2 2 2 2 2 2 2 2 2 2 2 2 2 2
left_child=2 8 4 14 17 -3 7 10 11 12 18 -2 -7 20 -4 -13 -14 22 -5 24 21 -6 -1 -20 -15 -19 -21 -26
right_child=1 5 3 6 13 9 -8 -9 -10 -11 -12 15 16 19 -16 -17 -18 25 23 26 -22 -23 -24 -25 27 -27 -28 -29
leaf_value=-0.019591456760059703 0.011048612719002579 0.015940704904496669 -0.0039135766625404359 0.0057109053962324796 -0.0090020843419958557 0.017481723214898791 -0.0058174983179196714 0.011884877503746085 0.01373234517012651 0.031862723266377173 -0.0045582271841288144 -0.0019580269861035047 0.022499510943889616 -0.0099012818006244865 -0.011749955490231513 0.0053243618875087511 0.030449723516191754 -0.010887513254739105 0.0026651238128542897 -0.0055034835849489478 -0.0023722785496679338 -0.0048619326504054832 -0.015426608528941869 -0.00086696227372158314 -0.011572902165605007 -0.014175957007887395 -0.0092238358473953064 -0.015032745826989411
leaf_weight=22 21 28 30 38 34 21 36 27 39 34 28 24 20 37 27 37 21 31 35 21 23 26 28 31 37 37 34 20
leaf_count=22 21 28 30 38 34 21 36 27 39 34 28 24 20 37 27 37 21 31 35 21 23 26 28 31 37 37 34 20
internal_value=-3.17105e-11 0.0159339 -0.00648474 -0.000664313 -0.0106754 0.0240824 0.00137051 0.00299798 0.0075834 0.0264571 0.00118021 0.0046589 0.0234928 -0.00866994 -0.00762555 0.00245916 0.0265716 -0.0146185 0.00272517 -0.0102308 -0.00586799 -0.00720802 -0.0172591 0.00100611 -0.0116511 -0.0126768 -0.00780334 -0.0127869
internal_weight=847 245 602 252 350 124 195 159 121 96 132 82 62 232 57 61 41 118 104 149 83 60 50 66 94 68 55 57
internal_count=847 245 602 252 350 124 195 159 121 96 132 82 62 232 57 61 41 118 104 149 83 60 50 66 94 68 55 57
is_linear=0
shrinkage=0.03


Tree=2
num_leaves=31
num_cat=0
split_feature=3 0 11 0 2 8 4 0 3 9 8 6 1 10 7 3 5 0 0 4 0 11 3 10 0 2 9 7 6 6
split_gain=91.4956 17.4285 15.3511 3.73176 2.8935 2.52828 2.38483 2.68527 2.30433 1.77824 1.599 1.59635 1.41146 1.22345 1.06072 0.932021 0.726051 0.632514 0.568793 0.920774 0.537048 0.504283 0.406469 0.352104 0.264441 0.223414 0.195309 0.190694 0.187847 0.162469
threshold=299.54166666666674 21.000000000000004 -0.36572252349726903 12.064583333333335 8.533333333333335 84.770833333333357 24.354166666666668 21.000000000000004 421.00000000000006 965.95833333333337 68.583333333333357 5.8416666666666677 31.422916666666669 0.98521098335796142 665.37348418549959 234.77083333333334 9.9791666666666696 10.489583333333336 16.239583333333339 8.5208333333333339 12.956250000000002 0.80898702767051955 251.27083333333334 -0.90149333598846371 12.445833333333335 6.8833333333333337 956.84375000000011 839.79166666666674 7.366666666666668 8.5166666666666693
decision_type=2 2 2 2 2 2 2 2 2 2 2 2 2 2 2 2 2 2 2 2 2 2 2 2 2 2 2 2 2 2
left_child=2 8 4 15 17 9 7 13 11 -3 -10 -2 -11 18 22 -4 -13 25 23 -20 26 -14 24 -5 -6 -1 -16 -19 -22 -28
right_child=1 5 3 6 14 -7 -8 -9 10 12 -12 16 21 -15 20 -17 -18 27 19 -21 28 -23 -24 -25 -26 -27 29 -29 -30 -31
leaf_value=-0.019003713239323008 0.01032949537038803 0.013642487393861466 -0.012614519735332577 0.0030547349155919312 -0.0088547844404820355 0.031676631111365094 -0.0056429732187340655 0.011528331573224729 0.0070680818818509581 0.016711379747305598 0.018920642605849674 -0.0017070773635059595 0.022589237410575152 -0.0044214807695243507 -0.0096042438329675718 -0.0045763791878581849 0.0053775715882226861 -0.010560887645809881 0.0093717421656069541 0.0010544031411409377 -0.005338379070162773 0.028381564799816378 -0.0023011101628451244 -0.0017059523316806759 -0.0048626278634349412 -0.01496380985581449 -0.011225715232761325 -0.013750678458930672 -0.0089471206003252195 -0.014581763215363024
leaf_weight=22 27 22 20 27 32 26 36 27 20 21 21 30 24 28 37 37 23 31 23 25 21 31 23 29 28 28 37 37 34 20
leaf_count=22 27 22 20 27 32 26 36 27 20 21 21 30 24 28 37 37 23 31 23 25 21 31 23 29 28 28 37 37 34 20
internal_value=4.23322e-11 0.0154559 -0.0062902 -0.000644383 -0.0103552 0.02336 0.00132939 0.00290804 0.0073559 0.0211535 0.0131389 0.0043921 0.0233278 0.0011448 -0.00840984 -0.00739678 0.00136739 -0.0141799 0.00264342 0.00503979 -0.00992384 0.025854 -0.00569195 0.000589379 -0.00699178 -0.0167414 -0.0113015 -0.0122965 -0.00756924 -0.0124033
internal_weight=847 245 602 252 350 124 195 159 121 98 41 80 76 132 232 57 53 118 104 48 149 55 83 56 60 50 94 68 55 57
internal_count=847 245 602 252 350 124 195 159 121 98 41 80 76 132 232 57 53 118 104 48 149 55 83 56 60 50 94 68 55 57
is_linear=0
shrinkage=0.03


Tree=3
num_leaves=30
num_cat=0
split_feature=3 0 11 0 2 3 4 0 0 8 8 10 9 7 6 6 4 0 7 0 3 0 2 2 2 7 6 9 9
split_gain=86.0882 16.3985 14.4439 3.51122 2.72249 2.41402 2.24389 2.52657 2.22488 1.51624 1.20093 1.15115 1.13241 0.998033 0.907702 0.893965 0.671399 0.595133 0.549525 0.505308 0.382447 0.249406 0.214506 0.21021 0.187015 0.179424 0.176745 0.156819 0.144519
threshold=299.54166666666674 21.000000000000004 -0.36572252349726903 12.064583333333335 8.533333333333335 403.22916666666669 24.354166666666668 21.000000000000004 18.652083333333337 81.250000000000014 63.895833333333336 0.98521098335796142 967.93333333333339 665.37348418549959 6.447916666666667 8.2000000000000011 2.6458333333333335 10.489583333333336 254.79166666666671 12.956250000000002 251.27083333333334 12.531250000000002 15.172916666666671 6.8833333333333337 10.756250000000003 839.79166666666674 7.366666666666668 964.37708333333342 957.68541666666681
decision_type=2 2 2 2 2 2 2 2 2 2 2 2 2 2 2 2 2 2 2 2 2 2 2 2 2 2 2 2 2
left_child=2 8 4 15 17 -3 7 11 10 12 -2 18 -7 20 -12 -4 -14 23 -5 24 21 -6 27 -1 28 -19 -21 -20 -15
right_child=1 5 3 6 13 9 -8 -9 -10 -11 14 -13 16 19 -16 -17 -18 25 22 26 -22 -23 -24 -25 -26 -27 -28 -29 -30
leaf_value=-0.018433602398092098 1.5991622691645341e-05 0.014908527456490055 -0.00361064915265888 0.0054380593782192774 -0.0084734231869087497 0.016462664284876416 -0.00547368406628569 0.011182481507874197 0.013033914442818898 0.030011048452819093 0.011342314745485782 -0.0042888360093015117 0.021095615426078438 -0.010744928664062172 0.0030842256193737622 -0.011135127792755764 0.028775930276938845 -0.010244061342410503 0.0035734263076805154 -0.0051782275736331936 -0.002232076786458492 -0.0045701958647427652 -0.0016843594294041395 -0.014514895677566527 -0.0093380646562007692 -0.013338158272011709 -0.0086787071057102261 3.9987706812098618e-05 -0.013824552921578286
leaf_weight=22 34 28 30 38 34 21 36 27 39 34 25 28 20 32 23 27 21 31 26 21 23 26 20 28 38 37 34 20 24
leaf_count=22 34 28 30 38 34 21 36 27 39 34 25 28 20 32 23 27 21 31 26 21 23 26 20 28 38 37 34 20 24
internal_value=-8.80331e-12 0.0149922 -0.00610149 -0.000625052 -0.0100445 0.0226592 0.00128951 0.0028208 0.00713522 0.0249198 0.00432974 0.00111046 0.0221278 -0.00815755 0.00738531 -0.00717488 0.0250294 -0.0137545 0.00256411 -0.00962612 -0.0055212 -0.00678202 0.000909419 -0.0162391 -0.0109625 -0.0119276 -0.00734216 0.00203715 -0.0120648
internal_weight=847 245 602 252 350 124 195 159 121 96 82 132 62 232 48 57 41 118 104 149 83 60 66 50 94 68 55 46 56
internal_count=847 245 602 252 350 124 195 159 121 96 82 132 62 232 48 57 41 118 104 149 83 60 66 50 94 68 55 46 56
is_linear=0
shrinkage=0.03


Tree=4
num_leaves=31
num_cat=0
split_feature=7 0 11 3 0 2 0 0 4 8 8 6 4 9 7 6 10 4 6 0 0 10 0 3 7 0 2 9 9 3
split_gain=81.1373 18.3552 9.20014 4.88463 3.14667 2.56241 2.36594 1.86933 1.53142 1.43917 1.25509 1.25022 1.1115 1.10747 0.954979 0.876086 0.833585 0.599349 0.547628 0.537899 0.470718 0.460828 0.410341 0.364497 0.226867 0.225921 0.197787 0.184635 0.165015 0.160569
threshold=260.31250000000006 20.793750000000006 -0.36572252349726903 403.22916666666669 11.977083333333335 8.4375000000000018 16.181250000000002 21.508333333333336 2.1041666666666674 81.250000000000014 76.520833333333357 6.5937500000000009 23.250000000000004 967.93333333333339 665.37348418549959 7.5979166666666673 -0.29259762607704992 2.6458333333333335 8.5520833333333339 10.489583333333336 12.956250000000002 0.95495791161117582 15.379166666666668 251.27083333333334 178.45316770461429 12.445833333333335 6.8833333333333337 956.84375000000011 960.1854166666667 197.81250000000003
decision_type=2 2 2 2 2 2 2 2 2 2 2 2 2 2 2 2 2 2 2 2 2 2 2 2 2 2 2 2 2 2
left_child=1 6 5 -3 18 19 11 12 -8 13 16 -1 15 -5 23 22 -10 -15 -4 26 27 -17 -6 25 -13 -7 -2 -16 -22 -21
right_child=2 3 4 9 7 14 8 -9 10 -11 -12 24 -14 17 20 21 -18 -19 -20 29 28 -23 -24 -25 -26 -27 -28 -29 -30 -31
leaf_value=0.0067779671690530244 -0.017880593646656381 0.011669421313473812 -0.0055743522447748821 0.015882545507379942 -0.00077142454124987125 -0.0083349381806328889 0.015479989107698202 0.0067126185072331939 0.0078357840023402653 0.029095694175788334 0.012740312375128269 0.00051751625239849087 -0.0076169776683673255 0.020827087888663463 -0.0090040349542490523 -0.00045009367271429962 -0.00061703233713550224 0.027912652364798955 -0.012087883970567157 -0.012993563954319273 -0.0086026007425971333 -0.0064582733991555867 0.0046743475713513115 -0.0021651145273252673 -0.0037692371048033239 -0.0046790686516835879 -0.014079448431730269 -0.011716257258607395 -0.0053118432266637677 -0.010002577031962572
leaf_weight=27 22 39 26 21 20 32 24 33 21 35 20 25 21 22 37 27 21 21 21 35 32 20 33 23 20 29 28 58 24 30
leaf_count=27 22 39 26 21 20 32 24 33 21 35 20 25 21 22 37 27 21 21 21 35 32 20 33 23 20 29 28 58 24 30
internal_value=1.99853e-11 0.0126683 -0.0068055 0.020662 -0.00169011 -0.00974319 0.00568657 0.000383551 0.00904558 0.0242045 0.00655484 0.00167442 -0.00134256 0.0215296 -0.00794752 -2.49302e-05 0.00360938 0.0242875 -0.00848465 -0.0134126 -0.00937391 -0.00300677 0.00261934 -0.00538344 -0.00138771 -0.0065969 -0.015752 -0.0106599 -0.00719228 -0.0116131
internal_weight=847 296 551 138 201 350 158 154 86 99 62 72 121 64 235 100 42 43 47 115 151 47 53 84 45 61 50 95 56 65
internal_count=847 296 551 138 201 350 158 154 86 99 62 72 121 64 235 100 42 43 47 115 151 47 53 84 45 61 50 95 56 65
is_linear=0
shrinkage=0.03


Tree=5
num_leaves=30
num_cat=0
split_feature=3 0 11 0 2 9 4 0 3 8 6 1 10 7 3 2 3 1 0 7 0 3 0 9 2 2 7 6 9
split_gain=76.3557 14.5688 12.7501 3.09572 2.41262 2.14054 2.05758 2.27095 2.05271 1.45617 1.40868 1.3402 1.04045 0.883693 0.832029 0.713978 0.692244 0.958123 0.526077 0.483352 0.44758 0.338339 0.222044 0.204693 0.186097 0.178823 0.167642 0.164194 0.129574
threshold=299.54166666666674 21.000000000000004 -0.36572252349726903 12.064583333333335 8.533333333333335 965.95833333333337 24.354166666666668 21.000000000000004 421.00000000000006 68.583333333333357 5.8416666666666677 31.908333333333339 0.98521098335796142 665.37348418549959 234.77083333333334 26.762500000000006 471.31250000000006 43.693750000000001 10.489583333333336 254.79166666666671 12.956250000000002 251.27083333333334 12.531250000000002 964.37708333333342 6.8833333333333337 10.756250000000003 839.79166666666674 7.366666666666668 957.68541666666681
decision_type=2 2 2 2 2 2 2 2 2 2 2 2 2 2 2 2 2 2 2 2 2 2 2 2 2 2 2 2 2
left_child=2 8 4 14 18 -3 7 12 10 -10 -2 -7 19 21 -4 -12 -13 -18 24 -5 25 22 -6 -21 -1 28 -20 -22 -15
right_child=1 5 3 6 13 11 -8 -9 9 -11 15 16 -14 20 -16 -17 17 -19 26 23 27 -23 -24 -25 -26 -27 -28 -29 -30
leaf_value=-0.017344175333326512 0.009493831379546059 0.013086142859867084 -0.011680921554565429 0.0051189717973925564 -0.0079756239922169382 0.017201527605950832 -0.0052795384023799361 0.010590552972215745 0.0063784276815131305 0.017689276188611984 0.003785697767003016 0.021460166797041894 -0.0040915178567437187 -0.010142288461793214 -0.0040861983770957662 -0.0033976948410272597 0.030977853770766936 0.022380623124539853 -0.0095983960876061068 0.0024440849764006478 -0.0048212158999272753 -0.002100161053240299 -0.0042927178534535836 -0.00090348970212583094 -0.013657065687168922 -0.0087257059166011824 -0.012589179250738911 -0.0081951110459425863 -0.013058328421320766
leaf_weight=22 27 23 20 38 34 25 36 27 20 21 33 28 28 32 37 20 28 20 31 35 21 23 26 31 28 38 37 34 24
leaf_count=22 27 23 20 38 34 25 36 27 20 21 33 28 28 32 37 20 28 20 31 35 21 23 26 31 28 38 37 34 24
internal_value=4.94439e-12 0.0141194 -0.00574626 -0.000600925 -0.0094509 0.0213459 0.00119679 0.00266313 0.00671364 0.0121718 0.00391634 0.0232269 0.00104162 -0.00767455 -0.00675101 0.00107498 0.0252089 0.0273957 -0.0129434 0.00242361 -0.00905644 -0.0051938 -0.0063797 0.000871739 -0.0152794 -0.0103141 -0.0112257 -0.0069069 -0.011392
internal_weight=847 245 602 252 350 124 195 159 121 41 80 101 132 232 57 53 76 48 118 104 149 83 60 66 50 94 68 55 56
internal_count=847 245 602 252 350 124 195 159 121 41 80 101 132 232 57 53 76 48 118 104 149 83 60 66 50 94 68 55 56
is_linear=0
shrinkage=0.03


Tree=6
num_leaves=31
num_cat=0
split_feature=7 0 11 8 0 2 0 3 6 2 4 8 6 8 9 7 10 10 4 6 0 10 0 2 3 0 6 3 6 2
split_gain=72.0102 16.229 8.09766 4.4566 2.80768 2.27004 2.17437 1.71185 1.70502 1.55065 1.42197 1.15774 1.12384 0.956296 0.894558 0.831467 0.773982 0.682747 0.58323 0.499874 0.494985 0.473648 0.421128 0.332772 0.318343 0.209272 0.20699 0.176433 0.168853 0.166078
threshold=260.31250000000006 20.793750000000006 -0.36572252349726903 59.479166666666679 11.977083333333335 8.533333333333335 16.181250000000002 403.22916666666669 7.7187500000000009 17.725000000000005 2.1041666666666674 76.520833333333357 6.5937500000000009 85.375000000000014 967.72291666666683 665.37348418549959 -0.29259762607704992 0.98664879617890844 2.9791666666666674 8.5520833333333339 10.489583333333336 0.95236875646279973 12.956250000000002 13.212500000000004 251.27083333333334 12.445833333333335 8.0291666666666686 200.18750000000003 8.5166666666666693 10.756250000000003
decision_type=2 2 2 2 2 2 2 2 2 2 2 2 2 2 2 2 2 2 2 2 2 2 2 2 2 2 2 2 2 2
left_child=1 6 5 -3 19 20 12 -5 9 21 -8 16 -1 14 -9 24 -12 23 -16 -4 27 -6 28 -10 25 -7 -14 -2 29 -17
right_child=2 3 4 7 8 15 10 13 17 -11 11 -13 26 -15 18 22 -18 -19 -20 -21 -22 -23 -24 -25 -26 -27 -28 -29 -30 -31
leaf_value=0.00636204045265913 -0.016751840036848317 0.0070715163148600936 -0.0052498029691811932 0.015486529369292587 0.0028138785809278485 -0.0078456211870070545 0.014789977977052331 0.01675662003457546 0.00096313414565319647 0.008595954601562792 0.0074332530277648147 0.012130412623286246 0.00043991931080818175 0.029149556341378585 0.020625005520880223 -0.010574166869684572 -0.00071176458682332717 -0.0075747562306267878 0.027561607547104357 -0.011472862144666059 -0.010888961944181253 -0.0029783644853159786 -0.0066996896470134905 -0.0039298002874817361 -0.0020371562841793767 -0.0042942334934403846 -0.0036547317188233138 -0.013176232510142856 -0.011693795374046792 -0.007415718984758032
leaf_weight=27 23 22 26 29 27 32 24 20 29 31 21 20 25 23 20 31 21 21 24 21 68 24 55 22 23 28 20 27 34 29
leaf_count=27 23 22 26 29 27 32 24 20 29 31 21 20 25 23 20 31 21 21 24 21 68 24 55 22 23 28 20 27 34 29
internal_value=-1.17597e-11 0.0119346 -0.00641131 0.019451 -0.00161219 -0.00916737 0.0053696 0.0217988 0.000346584 0.00330449 0.00858976 0.00618967 0.00152331 0.0239029 0.0220174 -0.00744431 0.00336074 -0.00302215 0.0244086 -0.00803032 -0.0125551 8.81171e-05 -0.00878474 -0.00114754 -0.00503799 -0.00618831 -0.00137993 -0.014821 -0.0100047 -0.00904758
internal_weight=847 296 551 138 201 350 158 116 154 82 86 62 72 87 64 232 42 72 44 47 118 51 149 51 83 60 45 50 94 60
internal_count=847 296 551 138 201 350 158 116 154 82 86 62 72 87 64 232 42 72 44 47 118 51 149 51 83 60 45 50 94 60
is_linear=0
shrinkage=0.03


Tree=7
num_leaves=31
num_cat=0
split_feature=3 11 0 0 2 4 0 1 8 8 1 10 6 7 6 1 7 6 0 5 0 3 7 0 9 9 2 9 3 6
split_gain=67.8152 13.3006 11.914 3.0916 2.13644 2.09694 2.73144 1.72141 1.58961 1.33742 1.23422 1.08699 1.22319 1.09315 0.966577 0.917705 0.796302 0.699079 0.447389 0.427639 0.392519 0.303202 0.301989 0.189597 0.178199 0.172172 0.16761 0.152339 0.150413 0.138223
threshold=312.77083333333343 -0.36572252349726903 20.897916666666671 12.064583333333335 8.4375000000000018 20.979166666666668 20.793750000000006 26.608333333333334 84.770833333333357 68.583333333333357 31.422916666666669 0.53436760985011655 7.7187500000000009 220.72916666666671 8.2000000000000011 23.512500000000006 665.37348418549959 5.6062500000000011 10.489583333333336 0.27083333333333331 12.956250000000002 251.27083333333334 340.72916666666669 12.445833333333335 964.37708333333342 956.84375000000011 6.8833333333333337 960.1854166666667 197.81250000000003 8.5166666666666693
decision_type=2 2 2 2 2 2 2 2 2 2 2 2 2 2 2 2 2 2 2 2 2 2 2 2 2 2 2 2 2 2
left_child=1 4 7 14 18 6 11 9 10 -2 -4 13 15 -5 -3 -13 21 19 26 -12 25 23 -7 -6 -15 -18 -1 -22 -20 -27
right_child=2 3 8 5 16 22 -8 -9 -10 -11 17 12 -14 24 -16 -17 20 -19 28 -21 27 -23 -24 -25 -26 29 -28 -29 -30 -31
leaf_value=-0.016335922560908576 -0.00071636434584375342 -0.0025601110644563434 0.01300592846925492 0.0098426481815321095 -0.0076102526049362492 -0.0019915147674880148 0.011311870806850493 0.011723384291220169 0.02742529313151653 0.0081690753586590292 0.019677406422793864 -0.0019780697284097017 -0.0053106486665851927 0.0034689676335879732 -0.010249743525471006 0.0067896383308938572 -0.0081305351134663365 0.016465217141168456 -0.011937865726117576 0.025421036833098955 -0.0079180989798624066 -0.0019760416427870159 -0.0067833375418558713 -0.0042611575251894776 -0.00039458951055580243 -0.0096871429674425403 -0.012836742758684393 -0.004756252239458263 -0.0090430173557251685 -0.012768332390114665
leaf_weight=22 31 31 23 21 32 29 30 39 26 30 20 22 34 21 28 21 37 21 35 28 32 23 20 29 22 38 28 24 30 20
leaf_count=22 31 31 23 21 32 29 30 39 26 30 20 22 34 21 28 21 37 21 35 28 32 23 20 29 22 38 28 24 30 20
internal_value=-1.53563e-11 -0.00499742 0.0144192 -0.000111308 -0.00889235 0.0015241 0.00309194 0.00680077 0.0208754 0.00365352 0.0190244 0.00134302 -0.0010584 0.00423223 -0.00620943 0.00230383 -0.00725271 0.0210305 -0.0122429 0.0230279 -0.00855521 -0.00491132 -0.00394736 -0.00601806 0.00149226 -0.00972956 -0.0143764 -0.00656302 -0.0106018 -0.0107496
internal_weight=847 629 218 279 350 220 171 100 118 61 92 141 77 64 59 43 235 69 115 48 151 84 49 61 43 95 50 56 65 58
internal_count=847 629 218 279 350 220 171 100 118 61 92 141 77 64 59 43 235 69 115 48 151 84 49 61 43 95 50 56 65 58
is_linear=0
shrinkage=0.03


Tree=8
num_leaves=31
num_cat=0
split_feature=7 0 11 8 0 2 0 6 3 4 8 6 1 4 8 9 7 10 4 0 10 0 6 2 3 7 0 10 3 7
split_gain=63.961 14.3108 7.11378 4.05431 2.55493 2.01197 1.96268 1.63748 1.50525 1.33348 1.07455 1.02816 0.913745 1.10181 0.852712 0.828449 0.736112 0.688867 0.541958 0.466656 0.677465 0.437449 0.384986 0.386483 0.281633 0.187245 0.186754 0.162876 0.158898 0.15674
threshold=260.31250000000006 20.793750000000006 -0.36572252349726903 59.479166666666679 21.508333333333336 8.533333333333335 16.181250000000002 8.2770833333333353 403.22916666666669 2.1041666666666674 76.520833333333357 6.5937500000000009 19.466666666666672 9.2083333333333339 85.375000000000014 967.72291666666683 665.37348418549959 -0.29259762607704992 2.9791666666666674 12.387500000000001 0.96683886033945965 10.489583333333336 6.5000000000000009 10.756250000000003 251.27083333333334 178.45316770461429 12.531250000000002 0.11593352601052392 200.18750000000003 839.79166666666674
decision_type=2 2 2 2 2 2 2 2 2 2 2 2 2 2 2 2 2 2 2 2 2 2 2 2 2 2 2 2 2 2
left_child=1 6 5 -3 7 21 11 12 -5 -8 17 -1 -4 -14 15 -10 24 -11 -17 -9 -21 28 -18 27 26 -13 -7 -24 -2 -23
right_child=2 3 4 8 -6 16 9 19 14 10 -12 25 13 -15 -16 18 22 -19 -20 20 -22 29 23 -25 -26 -27 -28 -29 -30 -31
leaf_value=0.0060569189281927211 -0.015777464327604872 0.0064985246906607329 -0.005136307550477795 0.014626265073130871 0.006087267366661266 -0.0072848562808597792 0.014146586479619144 -0.010239101853221655 0.015675314834341404 0.0069348506203719545 0.011541513897478581 0.00038269662111997601 0.0042658604428704294 -0.0031232237932272253 0.027472791704146758 0.019391856919974089 -0.0053487731708446512 -0.00074927439380969316 0.026078523956239223 -0.0011367927312052675 -0.0088517251387238496 -0.0086750903668636904 -0.0090944158476229543 -0.00706621606266126 -0.0019167603276993919 -0.0035117628648877143 -0.0039072745837844328 -0.012053046646443279 -0.012384179330741365 -0.011566990943172494
leaf_weight=27 23 22 30 29 33 34 24 23 20 21 20 25 42 32 23 20 32 21 24 21 20 31 34 50 23 20 26 33 27 37
leaf_count=27 23 22 30 29 33 34 24 23 20 21 20 25 42 32 23 20 32 21 24 21 20 31 34 50 23 20 26 33 27 37
internal_value=3.95943e-12 0.0112478 -0.00604237 0.018306 -0.00154424 -0.00862558 0.005083 -0.00304329 0.0205454 0.00814239 0.00581818 0.00142874 -0.000719868 0.00107058 0.0225184 0.0207379 -0.00700341 0.00309279 0.0230391 -0.00681885 -0.00490017 -0.0118149 -0.00826465 -0.00906215 -0.00473927 -0.00134817 -0.00582124 -0.0105517 -0.0139451 -0.0102486
internal_weight=847 296 551 138 201 350 158 168 116 86 62 72 104 74 87 64 232 42 44 64 41 118 149 117 83 45 60 67 50 68
internal_count=847 296 551 138 201 350 158 168 116 86 62 72 104 74 87 64 232 42 44 64 41 118 149 117 83 45 60 67 50 68
is_linear=0
shrinkage=0.03


Tree=9
num_leaves=31
num_cat=0
split_feature=7 0 11 3 0 2 0 6 4 8 8 6 9 4 1 4 7 10 0 10 0 0 0 9 6 3 9 2 6 7
split_gain=60.1809 13.465 6.69336 3.82323 2.40393 1.89307 1.84668 1.54071 1.25467 1.10357 1.01105 0.967399 0.921989 0.961607 0.859743 1.03669 0.692607 0.648155 0.439077 0.637427 0.411596 0.370695 0.267256 0.242612 0.181461 0.158951 0.207792 0.15096 0.148668 0.147476
threshold=260.31250000000006 20.793750000000006 -0.36572252349726903 403.22916666666669 21.508333333333336 8.533333333333335 16.181250000000002 8.2770833333333353 2.1041666666666674 85.375000000000014 76.520833333333357 6.5937500000000009 967.72291666666683 2.6458333333333335 19.466666666666672 9.2083333333333339 665.37348418549959 -0.29259762607704992 12.387500000000001 0.96683886033945965 10.489583333333336 12.956250000000002 10.589583333333335 956.25833333333355 8.0291666666666686 206.14583333333334 957.68541666666681 6.8833333333333337 7.366666666666668 839.79166666666674
decision_type=2 2 2 2 2 2 2 2 2 2 2 2 2 2 2 2 2 2 2 2 2 2 2 2 2 2 2 2 2 2
left_child=1 6 5 -3 7 20 11 14 -8 12 17 -1 -5 -14 -4 -16 22 -10 -9 -20 27 25 -7 -24 -13 -18 -27 -2 -23 -22
right_child=2 3 4 9 -6 16 8 18 10 -11 -12 24 13 -15 15 -17 21 -19 19 -21 29 28 23 -25 -26 26 -28 -29 -30 -31
leaf_value=0.0058752114791423074 -0.015386402891440823 0.0098010753116642042 -0.0049822182671632612 0.013971662532792173 0.0059046493720432578 -0.0076184482960961752 0.013722188633400946 -0.0099319287510234444 0.0067268049743558671 0.026648608426684917 0.011195268318057059 0.00039620197042822839 0.016945820376276968 0.024974568424553707 0.0041378846525081565 -0.0030295270797796548 -0.010476374483497983 -0.00072679620635296622 -0.0011026888347363899 -0.0085861732978373771 -0.0084148379633082974 -0.0040758571454456872 -0.0061794207122346208 -0.0022742128890098595 -0.0034376425333321092 -0.0059086389115090357 -0.0097890241920120177 -0.01206557215257947 -0.0072862772846265748 -0.011219981097289033
leaf_weight=27 22 39 30 22 33 20 24 23 21 23 20 25 25 29 42 32 44 21 21 20 31 21 22 41 20 23 27 28 34 37
leaf_count=27 22 39 30 22 33 20 24 23 21 23 20 25 25 29 42 32 44 21 21 20 31 21 22 41 20 23 27 28 34 37
internal_value=-6.55609e-13 0.0109104 -0.0058611 0.0177568 -0.00149792 -0.00836681 0.00493051 -0.00295199 0.00789812 0.0208909 0.00564364 0.00138587 0.0191485 0.0212576 -0.000698272 0.00103846 -0.00679331 0.003 -0.00661429 -0.00475317 -0.0114605 -0.00801671 -0.0045971 -0.00363794 -0.00130773 -0.00916131 -0.00800405 -0.0135267 -0.00606048 -0.00994117
internal_weight=847 296 551 138 201 350 158 168 86 99 62 72 76 54 104 74 232 42 64 41 118 149 83 63 45 94 50 50 55 68
internal_count=847 296 551 138 201 350 158 168 86 99 62 72 76 54 104 74 232 42 64 41 118 149 83 63 45 94 50 50 55 68
is_linear=0
shrinkage=0.03


Tree=10
num_leaves=31
num_cat=0
split_feature=3 11 0 0 4 0 2 1 8 8 1 10 6 9 7 6 7 6 5 1 0 3 9 6 0 2 11 0 1 0
split_gain=56.7107 11.0231 10.037 2.56419 1.94307 1.94159 1.7816 1.54053 1.30592 1.23402 1.07303 1.01239 1.02171 0.964605 0.927069 0.825232 0.663588 0.619665 0.379953 0.375058 0.347696 0.26585 0.239314 0.213787 0.212602 0.1999 0.183622 0.164444 0.154278 0.14428
threshold=312.77083333333343 -0.36572252349726903 20.897916666666671 12.064583333333335 25.479166666666671 21.000000000000004 8.4375000000000018 26.608333333333334 84.770833333333357 68.583333333333357 31.422916666666669 0.53436760985011655 7.7187500000000009 963.7104166666669 276.95563040253421 8.2000000000000011 665.37348418549959 5.6062500000000011 0.27083333333333331 17.435416666666672 11.816666666666668 251.27083333333334 954.87708333333342 6.9895833333333348 12.116666666666669 11.008333333333335 -0.71464691390916035 11.29166666666667 25.512500000000006 10.281250000000002
decision_type=2 2 2 2 2 2 2 2 2 2 2 2 2 2 2 2 2 2 2 2 2 2 2 2 2 2 2 2 2 2
left_child=1 6 7 15 5 11 19 9 10 -2 -4 14 13 -13 -5 -3 21 18 -12 -1 26 27 -21 -22 -24 -25 29 -8 -14 -18
right_child=2 3 8 4 -6 -7 16 -9 -10 -11 17 12 28 -15 -16 -17 20 -19 -20 22 23 -23 24 25 -26 -27 -28 -29 -30 -31
leaf_value=-0.013521462575532496 -0.00098152443496209965 -0.0023035410362025419 0.011822303526366696 0.0078515625316649667 -0.0051143886431652521 0.0091898572411049494 -0.0075195817050078637 0.010850150915077671 0.025048475294159007 0.0075535149788483972 0.01802689766138792 0.0070776158608496188 -0.0024228775659576058 -0.0018431426351889968 0.00071092030654350909 -0.0094087274721823631 -0.011848458860857555 0.01500636506293501 0.023440826210592475 -0.0072068609044487987 -0.0041280406594276431 -0.0017325856585217558 -0.01325133659622886 -0.0095188260450959211 -0.0094203089800430455 -0.0058174730278551575 -0.0070047366369346328 -0.0043056311475505168 -0.0060634655539285051 -0.0086565373420715314
leaf_weight=40 31 31 23 30 35 33 23 39 26 30 20 20 20 24 36 28 26 21 28 21 25 23 22 24 32 29 22 38 22 25
leaf_count=40 31 31 23 30 35 33 23 39 26 30 20 20 20 24 36 28 26 21 28 21 25 23 22 24 32 29 22 38 22 25
internal_value=-1.70706e-11 -0.00456999 0.0131859 -0.000121826 0.00136757 0.00259388 -0.00811581 0.00619334 0.0191118 0.00321604 0.017434 0.00116186 -0.000982987 0.00221175 0.00395667 -0.00567549 -0.00661851 0.0193046 0.021185 -0.0111755 -0.00780753 -0.00448112 -0.00992431 -0.00641487 -0.0109811 -0.00749356 -0.00929558 -0.00551745 -0.00432985 -0.0102838
internal_weight=847 629 218 279 220 185 350 100 118 61 92 152 86 44 66 59 235 69 48 115 151 84 75 78 54 53 73 61 42 51
internal_count=847 629 218 279 220 185 350 100 118 61 92 152 86 44 66 59 235 69 48 115 151 84 75 78 54 53 73 61 42 51
is_linear=0
shrinkage=0.03


Tree=11
num_leaves=31
num_cat=0
split_feature=7 0 11 8 0 0 2 0 3 4 8 6 4 8 9 0 6 10 3 4 0 7 0 2 6 3 9 8 7 3
split_gain=53.3872 11.8875 5.91098 3.62542 2.28276 1.67074 1.50114 1.37121 1.20098 1.17564 0.938532 0.885166 0.86562 0.712009 0.715995 0.638614 0.621807 0.580266 0.480323 0.474243 0.362052 0.359526 0.337334 0.334253 0.321685 0.226345 0.199554 0.196155 0.165101 0.147359
threshold=260.31250000000006 20.793750000000006 -0.42108527284769387 59.479166666666679 11.877083333333333 16.181250000000002 8.533333333333335 21.508333333333336 403.22916666666669 2.1041666666666674 76.520833333333357 6.5937500000000009 23.250000000000004 85.375000000000014 967.72291666666683 10.489583333333336 7.5979166666666673 -0.29259762607704992 232.41666666666671 2.9791666666666674 15.316666666666668 656.27773596154486 10.489583333333336 13.212500000000004 6.6250000000000009 213.18750000000003 956.25833333333355 34.041666666666679 178.45316770461429 200.18750000000003
decision_type=2 2 2 2 2 2 2 2 2 2 2 2 2 2 2 2 2 2 2 2 2 2 2 2 2 2 2 2 2 2
left_child=1 5 6 -3 18 11 22 12 -5 -7 17 -1 16 14 -10 25 20 -11 -4 -16 -6 26 29 -18 -23 -8 -17 -26 -13 -2
right_child=2 3 4 8 7 9 15 -9 13 10 -12 28 -14 -15 19 21 23 -19 -20 -21 -22 24 -24 -25 27 -27 -28 -29 -30 -31
leaf_value=0.0055801946420736687 -0.014472816890996434 0.0055435123260725626 -0.010488323111619267 0.013539484633967794 -0.0010305628205903553 0.013117835891316645 -0.010555820127042967 0.0055818880903957917 0.014255546851549297 0.006276989785255864 0.010646669670939444 0.00033463050350546837 -0.0066907250847328785 0.025116215069656785 0.017689538240432741 -0.0058023594672392516 -0.00042432626892280361 -0.00077546004472034316 -0.0047492985111062544 0.023944538086652756 0.0038807653896510597 -0.003201291720382869 -0.0094345292787660247 -0.0053657693373547356 -0.0060482081794179972 -0.0071384013681249185 -0.0020614149539985439 -0.0091235121296984814 -0.0033223095014691352 -0.011145484797656535
leaf_weight=27 23 22 21 29 22 24 37 33 20 21 20 25 22 23 20 21 28 21 35 24 35 20 66 22 40 33 33 35 20 25
leaf_count=27 23 22 21 29 22 24 37 33 20 21 20 25 22 23 20 21 28 21 35 24 35 20 66 22 40 33 33 35 20 25
internal_value=4.43438e-12 0.0102761 -0.00552037 0.016709 -0.00168003 0.00465746 -0.00803446 0.000124893 0.0188266 0.00748016 0.00529783 0.0012859 -0.00127108 0.020589 0.018962 -0.00658121 -0.000156763 0.00275076 -0.00690143 0.0211014 0.00198517 -0.00547083 -0.0108262 -0.00259856 -0.00658186 -0.00894475 -0.00351623 -0.00748335 -0.00129068 -0.0127398
internal_weight=847 296 551 138 218 158 333 162 116 86 62 72 129 87 64 219 107 42 56 44 57 149 114 50 95 70 54 75 45 48
internal_count=847 296 551 138 218 158 333 162 116 86 62 72 129 87 64 219 107 42 56 44 57 149 114 50 95 70 54 75 45 48
is_linear=0
shrinkage=0.03


Tree=12
num_leaves=31
num_cat=0
split_feature=3 11 0 0 4 0 2 0 8 9 10 6 9 7 8 6 3 0 7 1 7 11 6 9 9 0 2 1 8 10
split_gain=50.3093 9.73049 8.94594 2.26582 1.78728 1.7325 1.5818 1.42796 1.50087 1.1518 0.924765 0.912441 0.903245 0.830331 0.803697 0.761785 0.597339 0.579755 0.418349 0.348116 0.347932 0.298156 0.284047 0.212452 0.206688 0.205785 0.184647 0.147443 0.127253 0.123096
threshold=312.77083333333343 -0.36572252349726903 20.897916666666671 12.064583333333335 25.479166666666671 21.000000000000004 8.533333333333335 18.652083333333337 68.583333333333357 965.95833333333337 0.53436760985011655 7.7187500000000009 963.7104166666669 276.95563040253421 67.458333333333357 8.2000000000000011 471.31250000000006 10.489583333333336 656.27773596154486 17.435416666666672 86.458333333333343 -0.71464691390916035 6.6250000000000009 954.87708333333342 956.25833333333355 12.116666666666669 11.008333333333335 25.512500000000006 39.041666666666679 0.047320950113892181
decision_type=2 2 2 2 2 2 2 2 2 2 2 2 2 2 2 2 2 2 2 2 2 2 2 2 2 2 2 2 2 2
left_child=1 6 7 15 5 10 19 8 -2 -4 13 12 -12 -5 -11 -3 -16 21 24 -1 -18 29 -20 -21 -19 -25 -24 -13 -26 -8
right_child=2 3 9 4 -6 -7 17 -9 -10 14 11 27 -14 -15 16 -17 20 18 22 23 -22 -23 26 25 28 -27 -28 -29 -30 -31
leaf_value=-0.012696726867338505 -0.0013018152202394875 -0.0021059459003229292 0.011643871308437415 0.0074555482012219725 -0.0049417421568484447 0.0086817715837704847 -0.0084953561120412573 0.010703268709991659 0.0078165544192597726 0.01419812859967351 0.0067760502733290196 -0.0022501555276103315 -0.0018563143163919449 0.00069772245517621433 0.017709764633327723 -0.0089325310602518058 0.020661345422267913 -0.0056282887162108497 -0.0033114442335707801 -0.0067830814607441423 0.026018996626138689 -0.006233307418667457 -0.0088081753626465791 -0.012518768459558486 -0.0036449873233214019 -0.008772999735718422 -0.0058287025701093415 -0.0058091858960688109 -0.00026079026889055967 -0.011747291229665278
leaf_weight=41 33 31 21 30 35 33 22 35 32 21 20 20 24 36 32 28 24 21 21 22 20 33 36 22 20 33 39 22 20 20
leaf_count=41 33 31 21 30 35 33 22 35 32 21 20 20 24 36 32 28 24 21 21 22 20 33 36 22 20 33 39 22 20 20
internal_value=-1.04361e-11 -0.00430434 0.0124194 -0.000125122 0.00127494 0.00245107 -0.00763578 0.00581784 0.00318723 0.018014 0.00109835 -0.000951578 0.00206749 0.00376946 0.019393 -0.00534568 0.0208285 -0.00619744 -0.00516092 -0.0104637 0.0230966 -0.00836724 -0.00639535 -0.00927467 -0.00321819 -0.0102713 -0.00725885 -0.00411441 -0.00195289 -0.0100439
internal_weight=847 629 218 279 220 185 350 100 65 118 152 86 44 66 97 59 76 232 157 118 44 75 96 77 61 55 75 42 40 42
internal_count=847 629 218 279 220 185 350 100 65 118 152 86 44 66 97 59 76 232 157 118 44 75 96 77 61 55 75 42 40 42
is_linear=0
shrinkage=0.03


Tree=13
num_leaves=31
num_cat=0
split_feature=7 0 11 8 0 0 2 6 4 3 8 4 6 1 4 7 0 10 10 3 0 10 7 1 8 9 0 3 8 4
split_gain=47.3758 10.4839 5.20793 3.30782 2.04055 1.51824 1.33087 1.26186 1.0971 1.07223 0.865241 0.809348 0.780048 0.732827 1.02334 0.679527 0.567995 0.522122 0.493136 0.42855 0.332211 0.324993 0.324422 0.304722 0.271669 0.214599 0.205356 0.205301 0.119144 0.110196
threshold=260.31250000000006 20.793750000000006 -0.42108527284769387 59.479166666666679 21.508333333333336 16.181250000000002 8.533333333333335 8.2770833333333353 2.1041666666666674 484.72916666666674 76.520833333333357 4.5625000000000009 6.5937500000000009 19.466666666666672 9.2083333333333339 89.895833333333357 10.489583333333336 -0.29259762607704992 0.047320950113892181 224.83333333333334 18.652083333333337 -0.86958133671945925 668.54166666666686 17.435416666666672 34.041666666666679 954.87708333333342 12.116666666666669 213.18750000000003 80.854166666666671 5.0625000000000009
decision_type=2 2 2 2 2 2 2 2 2 2 2 2 2 2 2 2 2 2 2 2 2 2 2 2 2 2 2 2 2 2
left_child=1 5 6 -3 7 11 23 13 -7 18 17 12 -1 -4 -15 -11 27 -10 -5 -9 22 -21 -18 -2 29 -25 -27 -8 -20 -24
right_child=2 3 4 9 -6 8 16 19 10 15 -12 -13 -14 14 -16 -17 20 -19 28 21 -22 -23 24 25 -26 26 -28 -29 -30 -31
leaf_value=0.0077029566307153024 -0.01233970447228505 0.005056289226155389 -0.0044797697893476911 0.011598501477552496 0.0052766204845498908 0.012540618123020977 -0.0099551651309672234 -0.008936295391370851 0.0058856708050838537 0.018244348373264076 0.010122117318212985 -0.0036053499581546267 0.00011091852046806236 0.0037801609882576895 -0.0030934288821050098 0.025252292096614837 -0.0037889649847056717 -0.00080412136291020675 0.015474110711569665 -0.0013107952536083756 -0.0017410978827286851 -0.0064888192177750175 -0.0040802591890096666 -0.0065795890140262509 -0.008993146494030952 -0.012409410370247705 -0.0085914736648555843 -0.0067004913509696382 0.018748710120096802 -0.0070281015975134711
leaf_weight=21 39 22 35 23 33 24 37 27 21 33 20 22 29 44 35 20 48 21 20 20 22 24 25 22 33 21 32 33 20 21
leaf_count=21 39 22 35 23 33 24 37 27 21 33 20 22 29 44 35 20 48 21 20 20 22 24 25 22 33 21 32 33 20 21
internal_value=1.22112e-11 0.00968027 -0.00520029 0.0157215 -0.00159557 0.00440374 -0.00756014 -0.00282142 0.00709453 0.0177442 0.00498637 0.00118974 0.00329957 -0.000866095 0.0007349 0.0208889 -0.00619179 0.00254077 0.0150988 -0.00596095 -0.0051446 -0.00413517 -0.00573418 -0.0101888 -0.00691608 -0.00907034 -0.0101042 -0.00842082 0.0171114 -0.00542601
internal_weight=847 296 551 138 218 158 333 185 86 116 62 72 50 114 79 53 219 42 63 71 149 44 127 114 79 75 53 70 40 46
internal_count=847 296 551 138 218 158 333 185 86 116 62 72 50 114 79 53 219 42 63 71 149 44 127 114 79 75 53 70 40 46
is_linear=0
shrinkage=0.03


Tree=14
num_leaves=29
num_cat=0
split_feature=3 11 0 0 4 0 2 1 8 8 0 10 6 9 7 6 7 9 6 0 2 3 6 10 6 1 9 9
split_gain=44.6638 8.58581 7.98883 2.0332 1.65559 1.52437 1.4015 1.33058 1.07044 1.06573 0.929131 0.833037 0.810933 0.84046 0.746202 0.700806 0.515628 0.384323 0.31201 0.311208 0.310227 0.233509 0.230657 0.143318 0.142508 0.140916 0.118399 0.0989582
threshold=312.77083333333343 -0.36572252349726903 20.897916666666671 12.064583333333335 25.479166666666671 21.000000000000004 8.533333333333335 26.608333333333334 68.583333333333357 84.770833333333357 31.758333333333336 0.53436760985011655 7.7187500000000009 963.7104166666669 276.95563040253421 8.2000000000000011 665.37348418549959 967.72291666666683 6.5000000000000009 8.6854166666666686 10.756250000000003 251.27083333333334 11.110416666666669 0.11593352601052392 7.666666666666667 25.512500000000006 957.35208333333355 957.20625000000007
decision_type=2 2 2 2 2 2 2 2 2 2 2 2 2 2 2 2 2 2 2 2 2 2 2 2 2 2 2 2
left_child=1 6 7 15 5 11 19 8 -2 10 17 14 13 -13 -5 -3 21 -4 -18 -1 23 24 26 -20 -8 -14 -21 -22
right_child=2 3 9 4 -6 -7 16 -9 -10 -11 -12 12 25 -15 -16 -17 18 -19 20 22 27 -23 -24 -25 -26 -27 -28 -29
leaf_value=-0.012172079986582198 -0.0012130336577613507 -0.001967899042872652 0.010440607091877609 0.0070889571784064171 -0.0047869622089617347 0.0081727492554769417 -0.0030669613478138394 0.0097912819823250171 0.0067361953863874077 0.022351704153877036 0.019916641471650579 0.00650196161493659 -0.0020453844338189811 -0.001824980122037232 0.00068262371467426425 -0.0085155621390523642 -0.0042616965519846417 0.015265659454923409 -0.00757219442330739 -0.0063695672154426572 -0.004181846137158573 -0.0013660882670513315 -0.011374406490636908 -0.010347514005208556 -0.0060740925160211482 -0.0055247444016012278 -0.0090670842176768917 -0.006906156339682638
leaf_weight=36 31 31 24 30 35 33 23 39 30 26 29 20 20 24 36 28 32 39 34 27 20 23 23 33 37 22 32 30
leaf_count=36 31 31 24 30 35 33 23 39 30 26 29 20 20 24 36 28 32 39 34 27 20 23 23 33 37 22 32 30
internal_value=-1.41791e-11 -0.00405565 0.0117019 -0.000129938 0.00119631 0.00232828 -0.007185 0.00546342 0.00269642 0.0169887 0.015473 0.00105941 -0.00088619 0.00195999 0.00359459 -0.00507526 -0.00583112 0.0134275 -0.0068867 -0.00984687 -0.00760465 -0.00393616 -0.00882605 -0.00893914 -0.00492136 -0.00386791 -0.00783263 -0.00581643
internal_weight=847 629 218 279 220 185 350 100 61 118 92 152 86 44 66 59 232 63 149 118 117 83 82 67 60 42 59 50
internal_count=847 629 218 279 220 185 350 100 61 118 92 152 86 44 66 59 232 63 149 118 117 83 82 67 60 42 59 50
is_linear=0
shrinkage=0.03


Tree=15
num_leaves=31
num_cat=0
split_feature=7 0 11 8 0 0 2 4 0 4 3 8 11 6 10 10 0 3 10 0 7 1 8 7 11 9 0 6 10 4
split_gain=42.046 9.59452 4.27371 3.23123 1.79497 1.3644 1.17785 1.16098 1.35964 1.1194 1.03897 0.884463 0.804916 0.759719 0.625536 0.536879 0.521368 0.394059 0.375439 0.312282 0.287822 0.274965 0.246622 0.209488 0.196629 0.194194 0.189782 0.153452 0.108731 0.10229
threshold=266.25000000000006 20.793750000000006 -0.42108527284769387 59.479166666666679 11.877083333333333 16.181250000000002 8.533333333333335 27.104166666666668 20.050000000000004 2.1041666666666674 471.31250000000006 76.520833333333357 0.96897393274411414 6.5937500000000009 0.97310932590074095 -0.29259762607704992 10.489583333333336 232.41666666666671 0.51973899919070166 18.652083333333337 668.54166666666686 17.435416666666672 34.041666666666679 198.12500000000003 -0.71464691390916035 954.87708333333342 12.116666666666669 7.0583333333333345 0.047320950113892181 5.0625000000000009
decision_type=2 2 2 2 2 2 2 2 2 2 2 2 2 2 2 2 2 2 2 2 2 2 2 2 2 2 2 2 2 2
left_child=1 5 6 -3 17 13 21 8 14 -7 18 15 -12 -1 27 -11 24 -4 -5 20 -18 -2 29 -15 28 -23 -27 -6 -8 -22
right_child=2 3 4 10 7 9 16 -9 -10 11 12 -13 -14 23 -16 -17 19 -19 -20 -21 22 25 -24 -25 -26 26 -28 -29 -30 -31
leaf_value=0.0048371442071844023 -0.011630910852780708 0.0043320734426379199 -0.0095370008370706007 0.011435558395460248 0.0026427912027124434 0.011993384491652249 -0.0078059440681880173 -0.0059182624261826279 0.0069967330717814287 0.0054864157762910641 0.021944737457312069 0.0096270371451973921 0.0146597255859524 0.00034509975176591137 -0.0041060674800537525 -0.0011481469302721645 -0.003563642788794823 -0.0043102215687908672 0.016222489823683583 -0.0015243920997123825 -0.0037927937317639585 -0.0061559027213264591 -0.008488086719404566 -0.0037388280909508463 -0.0060157552444642139 -0.011724832313401358 -0.0080545276694465422 -0.00015426615196302896 -0.010862240698188542 -0.0066329220043761386
leaf_weight=28 39 23 21 30 31 24 22 25 28 21 39 20 21 26 30 23 48 34 29 22 25 22 33 20 28 21 32 41 20 21
leaf_count=28 39 23 21 30 31 24 22 25 28 21 39 20 21 26 30 23 48 34 29 22 25 22 33 20 28 21 32 41 20 21
internal_value=1.96889e-11 0.00893316 -0.00500125 0.0146257 -0.00164978 0.00394337 -0.0071148 2.39714e-06 0.00114099 0.00646806 0.0166153 0.00439606 0.019395 0.000941028 -0.000466475 0.00201835 -0.00582752 -0.0063059 0.0137885 -0.00482423 -0.00539585 -0.00958773 -0.00650909 -0.00143052 -0.0079631 -0.00852528 -0.0095088 0.00105002 -0.00926132 -0.00508937
internal_weight=847 304 543 142 210 162 333 155 130 88 119 64 60 74 102 44 219 55 59 149 127 114 79 46 70 75 53 72 42 46
internal_count=847 304 543 142 210 162 333 155 130 88 119 64 60 74 102 44 219 55 59 149 127 114 79 46 70 75 53 72 42 46
is_linear=0
shrinkage=0.03


Tree=16
num_leaves=31
num_cat=0
split_feature=3 11 0 3 0 4 0 8 8 2 10 8 1 6 0 9 11 7 1 7 11 6 6 4 9 3 9 0 8 8
split_gain=39.657 7.57381 7.14219 1.82462 1.79437 1.49171 1.35227 1.39421 1.32575 1.24173 1.17003 1.16894 0.9781 0.645337 0.470004 0.40821 0.335529 0.333201 0.279488 0.270869 0.252888 0.250848 0.243184 0.241865 0.191433 0.175222 0.170132 0.166845 0.159626 0.116128
threshold=312.77083333333343 -0.36572252349726903 18.652083333333337 403.22916666666669 12.064583333333335 25.479166666666671 18.597916666666666 63.104166666666679 68.583333333333357 8.533333333333335 0.98664879617890844 81.250000000000014 32.862500000000004 8.2000000000000011 10.489583333333336 964.37708333333342 0.65837719692149965 656.27773596154486 17.435416666666672 308.25284119311374 -0.62538740722492581 6.6250000000000009 7.3166666666666673 4.9375000000000009 956.25833333333355 216.20833333333334 954.87708333333342 12.116666666666669 34.041666666666679 39.041666666666679
decision_type=2 2 2 2 2 2 2 2 2 2 2 2 2 2 2 2 2 2 2 2 2 2 2 2 2 2 2 2 2 2
left_child=1 9 8 16 13 6 10 -8 -2 18 15 12 -5 -3 20 19 -4 24 -1 -6 25 -19 -17 -14 -16 -11 -20 -28 -23 -26
right_child=2 4 3 11 5 -7 7 -9 -10 14 -12 -13 23 -15 17 22 -18 21 26 -21 -22 28 -24 -25 29 -27 27 -29 -30 -31
leaf_value=-0.011267125310330856 -0.0015235688063231379 -0.0017984169553364475 0.011806972291320562 0.010053314404754803 0.0064482223726809026 -0.0045679784150727621 -0.00019583736885000358 0.0092492474873478586 0.007046338283762452 -0.0098212536884581345 -0.005719703654556171 0.020888023216881459 0.018993453589769511 -0.0080816118642022573 -0.0051387420855462549 0.0022834194270367533 0.0063117340765893454 -0.0027566588882889063 -0.0059712256508117371 0.0018770524414555569 -0.0045511777130886914 -0.0051715838690288363 -0.0018167501911520957 0.014664727593106882 -0.0032180168777704238 -0.0063358958278383528 -0.011116432859139009 -0.0077436261700296934 -0.0079457951970398431 1.4860924333333968e-05
leaf_weight=41 33 31 20 29 20 35 22 39 32 34 23 37 26 28 21 23 20 21 22 28 20 40 30 21 20 21 22 33 35 20
leaf_count=41 33 31 20 29 20 35 22 39 32 34 23 37 26 28 21 23 20 21 22 28 20 40 30 21 20 21 22 33 35 20
internal_value=2.95107e-11 -0.00382158 0.0110265 0.0145658 -0.000134474 0.00111144 0.00218593 0.00584282 0.00269546 -0.00676072 0.000386975 0.016515 0.014386 -0.00478027 -0.00548635 0.0017776 0.00905935 -0.00455307 -0.00926627 0.00378171 -0.00744 -0.00565475 -3.74313e-05 0.0170593 -0.00281929 -0.00849048 -0.00820089 -0.00909275 -0.00646622 -0.00160158
internal_weight=847 629 218 153 279 220 185 61 65 350 124 113 76 59 232 101 40 157 118 48 75 96 53 47 61 55 77 55 75 40
internal_count=847 629 218 153 279 220 185 61 65 350 124 113 76 59 232 101 40 157 118 48 75 96 53 47 61 55 77 55 75 40
is_linear=0
shrinkage=0.03


Tree=17
num_leaves=31
num_cat=0
split_feature=7 0 11 8 0 1 4 2 4 6 2 8 3 8 9 0 10 3 3 10 10 3 2 5 1 9 2 10 2 2
split_gain=37.3675 8.54772 3.88841 3.11437 1.62688 1.482 1.42879 1.04477 1.04189 0.963942 0.943347 0.877198 0.810172 0.738752 0.540334 0.468374 0.449957 0.410255 0.364363 0.352605 0.293701 0.253525 0.20932 0.206792 0.195098 0.190675 0.22228 0.146763 0.126352 0.105111
threshold=263.19362278545879 20.897916666666671 -0.42108527284769387 59.479166666666679 11.877083333333333 26.608333333333334 7.854166666666667 8.533333333333335 5.979166666666667 7.7187500000000009 18.03541666666667 85.375000000000014 484.72916666666674 59.479166666666679 970.50625000000002 17.947916666666668 0.98664879617890844 240.16666666666671 229.52083333333334 0.95236875646279973 0.51973899919070166 197.81250000000003 13.212500000000004 27.506250000000001 20.716666666666672 953.49791666666681 10.756250000000003 -0.16705007855999712 18.737500000000001 10.683333333333335
decision_type=2 2 2 2 2 2 2 2 2 2 2 2 2 2 2 2 2 2 2 2 2 2 2 2 2 2 2 2 2 2
left_child=1 5 7 -3 18 8 -7 21 13 10 19 12 20 -1 -15 17 22 25 -4 -6 -5 24 -11 -23 -2 -9 27 -27 -28 -19
right_child=2 3 4 11 9 6 -8 15 -10 16 -12 -13 -14 14 -16 -17 -18 29 -20 -21 -22 23 -24 -25 -26 26 28 -29 -30 -31
leaf_value=-0.001123409120608931 -0.0128252385109663 0.0035356237925589086 -0.009188913881778716 0.01009383204496569 0.0019403605471397267 0.01218431593940383 0.0030759812002220462 -0.0043353344167582691 -0.0037119202595204113 0.00049411773427643552 0.0062869939027586953 0.021206491710618138 0.017984786191238805 0.0076485871808493833 0.001694894275304092 -0.0016170148462057114 -0.0061711161290960645 -0.0047711612656712536 -0.0041129234389268923 -0.0030336182791253796 0.014707147216059915 -0.0095132204530657162 -0.0033372791617044379 -0.0058942629247903822 -0.0091476028014880577 -0.0064092130959033967 -0.0043373561760277615 -0.0092438709153793742 -0.0073037575394846498 -0.0018263940224424002
leaf_weight=23 20 21 20 27 29 31 31 25 24 33 32 24 39 34 23 25 21 24 35 23 23 27 21 30 37 25 28 48 24 20
leaf_count=23 20 21 20 27 29 31 31 25 24 33 32 24 39 34 23 25 21 24 35 23 23 27 21 30 37 25 28 48 24 20
internal_value=7.25706e-12 0.00850863 -0.00466652 0.0141448 -0.00151131 0.00395891 0.00763015 -0.0066942 0.00177029 2.71108e-05 0.0022343 0.0161165 0.0147439 0.00341495 0.00524622 -0.00548181 -0.00244494 -0.00597985 -0.00595874 -0.000259669 0.012216 -0.00902325 -0.00099587 -0.00760851 -0.010438 -0.00672704 -0.00720538 -0.0082731 -0.00570646 -0.00343263
internal_weight=847 300 547 134 214 166 62 333 104 159 84 113 89 80 57 219 75 194 55 52 50 114 54 57 57 150 125 73 52 44
internal_count=847 300 547 134 214 166 62 333 104 159 84 113 89 80 57 219 75 194 55 52 50 114 54 57 57 150 125 73 52 44
is_linear=0
shrinkage=0.03


Tree=18
num_leaves=31
num_cat=0
split_feature=3 11 0 0 3 4 8 0 8 2 10 8 1 2 4 2 0 9 7 0 5 11 6 9 6 9 8 6 9 10
split_gain=35.1922 6.69125 6.38608 1.59542 1.53775 1.38396 1.23781 1.21766 1.28621 1.09909 1.05238 1.03832 0.81605 0.605708 0.496279 0.476312 0.425842 0.380839 0.296937 0.258975 0.257166 0.238234 0.231986 0.222547 0.203951 0.176639 0.147785 0.108594 0.101719 0.0959919
threshold=312.77083333333343 -0.36572252349726903 18.889583333333338 12.064583333333335 403.22916666666669 25.479166666666671 63.895833333333336 18.597916666666666 63.104166666666679 8.533333333333335 0.98664879617890844 85.375000000000014 32.862500000000004 10.987500000000001 6.8750000000000009 24.652083333333334 10.489583333333336 964.37708333333342 656.27773596154486 8.6854166666666686 16.370833333333337 -0.71464691390916035 6.6250000000000009 967.40208333333351 11.110416666666669 956.25833333333355 34.041666666666679 8.0729166666666696 957.35208333333355 0.047320950113892181
decision_type=2 2 2 2 2 2 2 2 2 2 2 2 2 2 2 2 2 2 2 2 2 2 2 2 2 2 2 2 2 2
left_child=1 9 6 13 -4 7 -2 10 -9 19 17 12 -6 -3 -14 -8 21 20 25 -1 -5 29 -20 -19 28 -18 -24 -27 -21 -11
right_child=2 3 4 5 11 -7 15 8 -10 16 -12 -13 14 -15 -16 -17 18 23 22 24 -22 -23 26 -25 -26 27 -28 -29 -30 -31
leaf_value=-0.010840999390929936 -0.0023832122730807616 -0.0084570864249359466 0.0086296186909863831 0.0061127913982740468 0.010088296592235564 -0.0044300465240542375 0.0091405601586614336 -0.00025457250377671284 0.0088173189358069348 -0.0071545464545488355 -0.0054232469371155549 0.021144829222466795 0.018432486312197786 -0.0021711988927091697 0.012759652301345181 0.0027509763331285543 -0.0048666357994079585 -0.0018344532765833469 -0.0025283283184814663 -0.0054984207518605725 0.0016863228083113628 -0.0051158025522123687 -0.0048500016925390804 0.0020709424628876151 -0.010184947696069013 9.4225383829325433e-05 -0.007519334279000759 -0.0030320274671539662 -0.0079987139863078472 -0.010026231441646813
leaf_weight=36 26 22 38 21 30 35 21 22 39 22 23 24 35 37 23 21 21 29 21 27 27 33 40 24 23 20 35 20 32 20
leaf_count=36 26 22 38 21 30 35 21 22 39 22 23 24 35 37 23 21 21 29 21 27 27 33 40 24 23 20 35 20 32 20
internal_value=-1.0325e-11 -0.00360003 0.0103872 -0.000134405 0.0138444 0.00104042 0.00276116 0.00207537 0.00554549 -0.00636263 0.000368291 0.0156137 0.0141052 -0.00451509 0.0161829 0.00594577 -0.00516368 0.00168716 -0.00427533 -0.00871988 0.0036229 -0.00702328 -0.00531533 -6.59722e-05 -0.00778866 -0.00263861 -0.00609569 -0.0014689 -0.00685451 -0.00852202
internal_weight=847 629 218 279 150 220 68 185 61 350 124 112 88 59 58 42 232 101 157 118 48 75 96 53 82 61 75 40 59 42
internal_count=847 629 218 279 150 220 68 185 61 350 124 112 88 59 58 42 232 101 157 118 48 75 96 53 82 61 75 40 59 42
is_linear=0
shrinkage=0.03


Tree=19
num_leaves=31
num_cat=0
split_feature=7 3 11 1 1 8 0 6 4 0 4 2 8 2 3 10 10 5 0 3 3 3 5 9 2 1 2 3 2 2
split_gain=33.2089 7.64665 3.29028 2.92143 1.89112 1.8915 1.40715 1.31161 0.981162 1.10887 0.970664 0.925214 0.769131 0.720617 0.600346 0.551872 0.510683 0.465282 0.434296 0.369598 0.334738 0.236838 0.189657 0.178116 0.205076 0.177555 0.139844 0.133515 0.116023 0.0971007
threshold=266.25000000000006 421.00000000000006 -0.42108527284769387 25.456250000000004 26.150000000000002 57.812500000000007 11.877083333333333 7.4708333333333341 27.104166666666668 20.050000000000004 4.354166666666667 8.533333333333335 84.937500000000014 20.891666666666669 484.72916666666674 0.73248728852523659 0.97310932590074095 0.61666666666666681 17.947916666666668 240.16666666666671 229.52083333333334 197.81250000000003 27.506250000000001 953.49791666666681 10.756250000000003 20.716666666666672 9.1041666666666696 260.64583333333337 18.737500000000001 10.683333333333335
decision_type=2 2 2 2 2 2 2 2 2 2 2 2 2 2 2 2 2 2 2 2 2 2 2 2 2 2 2 2 2 2
left_child=1 4 11 -3 10 -6 20 15 9 16 13 21 14 -1 -5 -7 27 -16 19 23 -4 25 -23 -13 26 -2 -25 -8 -26 -21
right_child=2 3 6 12 5 7 8 -9 -10 -11 -12 18 -14 -15 17 -17 -18 -19 -20 29 -22 22 -24 24 28 -27 -28 -29 -30 -31
leaf_value=0.0065558229491580276 -0.012135728605091572 0.0046141935057110251 -0.008722638498991726 0.010608848607581522 -0.0013502394301550728 0.0088476860696183775 -0.00040419367940298148 0.0032255461905151606 -0.0054840404201298952 0.0062937718416963299 -0.0041593343405319106 -0.0040354741578921671 0.0202756585729192 -0.00072190430760383606 0.013057518652640283 0.015197118796746838 -0.003734680758905597 0.01874992952815124 -0.0014367527771741151 -0.0045066828699782489 -0.0038573792623355983 -0.0089476427973972424 -0.0054818686489015818 -0.0062175904535527885 -0.0040577005563786125 -0.0086273280618164826 -0.0089009505391798235 0.0021805495705858272 -0.006900264008436352 -0.0016763450978323816
leaf_weight=24 20 27 20 27 21 28 35 25 25 28 28 25 25 25 24 22 30 28 25 24 35 27 30 29 28 37 44 37 24 20
leaf_count=24 20 27 20 27 21 28 35 25 25 28 28 25 25 25 24 22 30 28 25 24 35 27 30 29 28 37 44 37 24 20
internal_value=1.0398e-11 0.00793907 -0.00444471 0.0134068 0.00379876 0.00660787 -0.00150402 0.00883614 -4.11759e-05 0.00100553 0.000296504 -0.0062992 0.0156895 0.0028427 0.0142382 0.0116414 -0.000446146 0.0161227 -0.0051583 -0.00563788 -0.00562656 -0.00849095 -0.00712355 -0.00634707 -0.00680939 -0.00985835 -0.00783496 0.000924077 -0.00536965 -0.00322017
internal_weight=847 304 543 131 173 96 210 75 155 130 77 333 104 49 79 50 102 52 219 194 55 114 57 150 125 57 73 72 52 44
internal_count=847 304 543 131 173 96 210 75 155 130 77 333 104 49 79 50 102 52 219 194 55 114 57 150 125 57 73 72 52 44
is_linear=0
shrinkage=0.03


Tree=20
num_leaves=31
num_cat=0
split_feature=7 3 11 1 0 0 4 2 6 2 8 1 4 3 4 5 0 1 11 0 10 0 7 3 8 5 7 11 4 10
split_gain=31.2663 6.75417 3.44339 2.74877 1.5464 1.44603 1.41559 1.15167 1.0218 0.870534 0.723675 0.577241 0.766627 0.564866 0.532636 0.437783 0.40973 0.315839 0.308815 0.295248 0.503965 0.254601 0.226418 0.222841 0.201143 0.180573 0.1719 0.161044 0.0947215 0.0892293
threshold=254.79166666666671 421.00000000000006 -0.42108527284769387 25.456250000000004 18.175000000000004 21.508333333333336 12.895833333333334 26.762500000000006 8.2770833333333353 8.533333333333335 84.937500000000014 19.466666666666672 9.2083333333333339 484.72916666666674 6.8750000000000009 0.61666666666666681 10.489583333333336 20.258333333333336 0.73246693938583607 11.581250000000002 0.96230016621822489 18.652083333333337 668.54166666666686 197.81250000000003 34.041666666666679 29.614583333333336 894.68750000000011 -0.71464691390916035 5.0625000000000009 0.047320950113892181
decision_type=2 2 2 2 2 2 2 2 2 2 2 2 2 2 2 2 2 2 2 2 2 2 2 2 2 2 2 2 2 2
left_child=1 4 9 -3 7 8 18 14 11 23 13 -4 -13 -5 17 -15 27 -1 -6 -10 -21 22 -18 26 28 -25 -2 29 -24 -11
right_child=2 3 5 10 6 -7 -8 -9 19 16 -12 12 -14 15 -16 -17 21 -19 -20 20 -22 -23 24 25 -26 -27 -28 -29 -30 -31
leaf_value=0.0024698134241625666 -0.0083513388734914977 0.0044757676828238698 -0.0037934149204354199 0.010290583153772685 0.012097077631125493 0.0045076455226676021 0.0016684924656974857 -0.0050684273988008495 -0.0080065107989040277 -0.0067532032575796956 0.01966738892197609 0.0033747701881372411 -0.0024703039750844863 0.012665793187916278 -0.00059385749470928443 0.018187431453594138 -0.00300521990749985 0.0078013751807156952 0.0072162091489881277 -0.0010562103831519684 -0.0070993231747137463 -0.0011345958925614303 -0.0030878108725883066 -0.0081512811331934214 -0.0074048823185942384 -0.004613187041133642 -0.011803419716656207 -0.0051343876897590231 -0.0058208441108997377 -0.0095218872092664233
leaf_weight=20 37 27 35 27 28 33 29 21 22 22 25 46 36 24 23 28 48 20 20 27 23 22 25 37 33 20 20 28 21 20
leaf_count=20 37 27 35 27 28 33 29 21 22 22 25 46 36 24 23 28 48 20 20 27 23 22 25 37 33 20 20 28 21 20
internal_value=1.60233e-11 0.00794644 -0.00418083 0.0130046 0.00383079 -0.00128673 0.00690167 0.00101581 -0.00229845 -0.00611023 0.0152188 -0.000568043 0.00080864 0.013811 0.00304389 0.015639 -0.00500355 0.00513559 0.0100634 -0.00511035 -0.00383604 -0.00411413 -0.00463027 -0.00823622 -0.00561765 -0.00690984 -0.0095626 -0.00689673 -0.0043355 -0.00807162
internal_weight=847 292 555 131 161 222 77 84 189 333 104 117 82 79 63 52 219 40 48 72 50 149 127 114 79 57 57 70 46 42
internal_count=847 292 555 131 161 222 77 84 189 333 104 117 82 79 63 52 219 40 48 72 50 149 127 114 79 57 57 70 46 42
is_linear=0
shrinkage=0.03


Tree=21
num_leaves=31
num_cat=0
split_feature=3 0 11 3 0 4 8 2 8 1 8 9 6 3 6 8 2 3 3 0 2 5 4 4 7 10 5 9 10 5
split_gain=29.4275 5.87134 4.65805 1.96062 1.27009 1.86522 1.28878 0.917283 0.903098 0.800679 0.782244 0.76298 0.646445 0.528955 0.521233 0.374356 0.362016 0.350171 0.271273 0.239288 0.207983 0.265963 0.20604 0.202676 0.189405 0.160886 0.131438 0.110314 0.119563 0.0635811
threshold=299.54166666666674 18.652083333333337 -0.36572252349726903 403.22916666666669 16.239583333333339 20.979166666666668 57.812500000000007 8.533333333333335 81.250000000000014 32.862500000000004 63.895833333333336 963.06875000000002 6.1583333333333341 219.02083333333334 6.447916666666667 54.437500000000007 13.114583333333336 251.27083333333334 255.89583333333337 8.6854166666666686 10.756250000000003 32.050000000000004 6.229166666666667 4.9375000000000009 872.01396705851278 0.42888796625999276 28.227083333333336 956.84375000000011 0.75548631800528565 28.166666666666671
decision_type=2 2 2 2 2 2 2 2 2 2 2 2 2 2 2 2 2 2 2 2 2 2 2 2 2 2 2 2 2 2
left_child=2 10 7 12 13 6 -6 19 9 -5 -2 -8 -3 -4 -12 17 18 20 -15 -1 21 25 -18 -11 29 26 -9 -22 -29 -21
right_child=1 3 4 8 5 -7 11 15 -10 23 14 -13 -14 16 -16 -17 22 -19 -20 24 27 -23 -24 -25 -26 -27 -28 28 -30 -31
leaf_value=-0.0099988938670139763 -0.0012638839367119705 0.0098982898294925695 -0.0067215797402472655 0.0084566191413664605 -0.0010708422600649869 -0.0035850201063574502 0.011359581324187192 -0.0047859923115798403 0.018091740778370485 0.016565952576123751 0.0076822256177198128 0.0041020586545346301 0.002935290397144854 -0.0016029018220890844 0.0014243954331006692 -0.00089130628854036328 -0.0019685737024444866 -0.0017578285893425345 0.0026483482685448092 -0.0069392340085827385 -0.0027555282366497872 -0.0032565271100029347 -0.005805999038508162 0.012603402004710267 -0.0088671308127231899 -0.0093110136687755574 -0.0074800563976168627 -0.006323355354609028 -0.0033482029878068717 -0.0047979324928019195
leaf_weight=36 34 30 22 29 26 39 22 28 37 26 25 32 20 35 23 21 34 25 22 26 26 20 20 21 32 22 39 31 20 24
leaf_count=36 34 30 22 29 26 39 22 28 37 26 25 32 20 35 23 21 34 25 22 26 26 20 20 21 32 22 39 31 20 24
internal_value=-1.81633e-11 0.00876539 -0.00356731 0.0120594 -0.000457322 0.00179428 0.00441668 -0.0058065 0.014248 0.0123767 0.00221762 0.00705883 0.00711309 -0.00247191 0.00468368 -0.0047112 -0.00162963 -0.00509138 3.79315e-05 -0.00795999 -0.00553943 -0.00638259 -0.00338984 0.0147955 -0.00706486 -0.00708508 -0.00635418 -0.00434587 -0.00515663 -0.00591141
internal_weight=847 245 602 163 252 119 80 350 113 76 82 54 50 133 48 232 111 211 57 118 186 109 54 47 82 89 67 77 51 50
internal_count=847 245 602 163 252 119 80 350 113 76 82 54 50 133 48 232 111 211 57 118 186 109 54 47 82 89 67 77 51 50
is_linear=0
shrinkage=0.03


Tree=22
num_leaves=31
num_cat=0
split_feature=7 3 11 1 0 8 0 6 0 0 4 8 4 3 11 5 3 6 1 4 11 3 10 5 0 9 9 3 7 0
split_gain=27.8071 6.10541 2.91399 2.43868 1.50808 1.67682 1.33046 0.812935 0.773477 0.754091 0.669258 0.650376 0.643567 0.515205 0.478489 0.416387 0.40085 0.40219 0.396238 0.475091 0.379224 0.289275 0.264218 0.254206 0.2168 0.140354 0.136435 0.244458 0.124647 0.0660839
threshold=260.31250000000006 421.00000000000006 -0.42108527284769387 25.456250000000004 16.239583333333339 57.812500000000007 21.508333333333336 8.2770833333333353 10.281250000000002 21.000000000000004 7.9375000000000009 84.937500000000014 4.354166666666667 484.72916666666674 0.20088311396693925 0.61666666666666681 233.81250000000003 7.0312500000000009 18.347916666666666 9.0000000000000018 -0.72658061058372014 224.83333333333334 -0.86958133671945925 31.147916666666671 12.764583333333336 957.06458333333342 956.99374999999998 194.47916666666671 668.54166666666686 12.908333333333337
decision_type=2 2 2 2 2 2 2 2 2 2 2 2 2 2 2 2 2 2 2 2 2 2 2 2 2 2 2 2 2 2
left_child=1 4 8 -3 12 -6 7 14 20 10 -7 13 -1 -5 18 -15 17 24 -4 -20 23 -9 -23 -2 -10 -18 27 -19 -28 -30
right_child=2 3 6 11 5 9 -8 21 16 -11 -12 -13 -14 15 -16 -17 25 26 19 -21 -22 22 -24 -25 -26 -27 28 -29 29 -31
leaf_value=0.0023140473381893056 -0.01055780833417719 0.0042184073602159816 -0.0030688723652502114 0.0096406278743719053 -0.0015805637768723749 0.0084496957912213282 0.0042614335266195919 -0.0072419467144128344 -0.0050175168737769124 0.011165153468575547 0.0013088910238418195 0.018554615963995456 -0.0039937324030324814 0.011848892054986208 -0.0043752521798014633 0.017233905318592275 -0.0041061170561158137 -0.0072691367845982308 0.0036214865289198664 -0.0015553836421006255 -0.005492264369072822 -0.00075075821578502648 -0.0054195915861055249 -0.0067195305530913171 -0.00085187145000831645 -0.00091697700321674341 -0.0051133357062935827 -0.0033645526636692305 -0.0092005320319107596 -0.0070347111484443297
leaf_weight=37 44 27 23 27 22 27 33 27 23 34 21 25 24 24 25 28 23 27 39 27 39 20 24 24 22 27 20 31 21 32
leaf_count=37 44 27 23 27 22 27 33 27 23 34 21 25 24 24 25 28 23 27 39 27 39 20 24 24 22 27 20 31 21 32
internal_value=1.68479e-11 0.0074163 -0.00398407 0.0122518 0.00357722 0.00577376 -0.00128768 -0.00227752 -0.00574928 0.00774687 0.00532559 0.0143374 -0.000167702 0.0130028 -0.000708094 0.0147485 -0.00475442 -0.00542784 0.000322006 0.00150368 -0.00785057 -0.00479744 -0.00329739 -0.00920312 -0.00298098 -0.00238398 -0.00626837 -0.0051822 -0.00713135 -0.00789287
internal_weight=847 296 551 131 165 104 218 185 333 82 48 104 61 79 114 52 226 176 89 66 107 71 44 68 45 50 131 58 73 53
internal_count=847 296 551 131 165 104 218 185 333 82 48 104 61 79 114 52 226 176 89 66 107 71 44 68 45 50 131 58 73 53
is_linear=0
shrinkage=0.03


Tree=23
num_leaves=31
num_cat=0
split_feature=7 3 0 1 1 8 11 6 4 0 4 2 4 2 8 3 10 10 6 11 2 4 3 5 0 9 9 3 8 2
split_gain=26.1734 5.98203 2.65027 2.29455 1.58864 1.60934 1.55665 1.13682 0.880761 0.899346 0.845458 0.826254 0.803119 0.662826 0.611938 0.484756 0.453315 0.402982 0.38313 0.32589 0.297027 0.221534 0.210632 0.197142 0.183619 0.178242 0.164092 0.113437 0.112996 0.108399
threshold=266.25000000000006 421.00000000000006 11.977083333333335 25.456250000000004 26.150000000000002 57.812500000000007 -0.36572252349726903 7.9937500000000012 27.104166666666668 19.258333333333336 4.354166666666667 8.3875000000000011 12.208333333333334 20.891666666666669 84.937500000000014 484.72916666666674 0.97310932590074095 -0.05591647229452347 7.0312500000000009 -0.61186373645567615 6.4854166666666666 6.1458333333333348 194.47916666666671 28.166666666666671 8.5833333333333357 967.76041666666686 964.37708333333342 238.52083333333334 25.958333333333339 11.008333333333335
decision_type=2 2 2 2 2 2 2 2 2 2 2 2 2 2 2 2 2 2 2 2 2 2 2 2 2 2 2 2 2 2
left_child=1 4 11 -3 10 -6 18 12 9 16 13 20 -7 -1 15 -5 26 -17 21 24 -2 -4 -20 -22 -13 27 -8 -21 -26 -24
right_child=2 3 6 14 5 7 8 -9 -10 -11 -12 19 -14 -15 -16 17 -18 -19 22 25 23 -23 29 -25 28 -27 -28 -29 -30 -31
leaf_value=0.0061135449213907123 -0.01189100864597342 0.0040918549771110212 -0.0035731167453020036 0.0093514090922609382 -0.0013798287297998155 0.013203320598060434 0.0028140468882130723 0.0018911521910922602 -0.0051688732497859749 0.0056305034998804333 -0.0039824309375502964 -0.0087279199504039506 0.005803448485887863 -0.00086626205854117876 0.017997977283596991 0.011861001101788133 -0.0033782957537914628 0.017158627063035965 -0.0068235430119093499 -0.0038807827943506145 -0.0097340290971100335 0.00053105397708714001 -0.0050826321947487424 -0.0061268965657800441 -0.0044910186297587446 -0.0059376464383676646 -0.00026717070410294192 -0.00091629034407170759 -0.0071341015305370088 -0.0028394092560682276
leaf_weight=24 22 27 29 27 21 33 28 20 24 30 28 22 22 25 25 28 30 24 40 26 25 20 47 30 37 20 35 21 24 33
leaf_count=24 22 27 29 27 21 33 28 20 24 30 28 22 22 25 25 28 30 24 40 26 25 20 47 30 37 20 35 21 24 33
internal_value=-1.2906e-12 0.00704811 -0.0039459 0.0118842 0.00338608 0.00596075 -0.00216952 0.00801611 8.81334e-05 0.00111389 0.00017611 -0.00641875 0.0102434 0.00255242 0.0139072 0.0126127 -0.000343081 0.0143061 -0.00413329 -0.00512197 -0.00894493 -0.00189795 -0.00504605 -0.0077665 -0.00637832 -0.0035656 0.00110226 -0.00255622 -0.00553092 -0.0041573
internal_weight=847 304 543 131 173 96 316 75 147 123 77 227 55 49 104 79 93 52 169 150 77 49 120 55 83 67 63 47 61 80
internal_count=847 304 543 131 173 96 316 75 147 123 77 227 55 49 104 79 93 52 169 150 77 49 120 55 83 67 63 47 61 80
is_linear=0
shrinkage=0.03


Tree=24
num_leaves=31
num_cat=0
split_feature=7 3 0 1 11 0 8 2 4 0 0 4 2 8 2 6 6 6 10 11 2 5 2 4 3 5 0 11 8 2
split_gain=24.6318 5.40024 2.59843 2.15894 1.56039 1.34921 1.4974 0.791199 0.742879 1.03268 0.677359 0.629184 0.610822 0.575773 0.481034 0.473354 0.360487 0.319108 0.380598 0.318531 0.279473 0.265629 0.250134 0.208441 0.198184 0.185491 0.172767 0.156466 0.106318 0.101992
threshold=260.31250000000006 421.00000000000006 11.977083333333335 25.456250000000004 -0.36572252349726903 16.239583333333339 57.812500000000007 8.3875000000000011 27.104166666666668 21.508333333333336 21.000000000000004 5.979166666666667 23.454166666666669 84.937500000000014 16.839583333333337 5.1000000000000005 7.0312500000000009 6.1583333333333341 0.97310932590074095 -0.61186373645567615 6.4854166666666666 0.16249999999999998 13.362500000000002 6.1458333333333348 194.47916666666671 28.166666666666671 8.5833333333333357 -0.29258949745833546 25.958333333333339 11.008333333333335
decision_type=2 2 2 2 2 2 2 2 2 2 2 2 2 2 2 2 2 2 2 2 2 2 2 2 2 2 2 2 2 2
left_child=1 5 7 -3 16 12 -7 20 9 17 11 -8 14 15 -1 21 23 -6 22 26 -2 -5 -19 -4 -18 -22 -9 -21 -28 -26
right_child=2 3 4 13 8 6 10 19 -10 -11 -12 -13 -14 -15 -16 -17 24 18 -20 27 25 -23 -24 -25 29 -27 28 -29 -30 -31
leaf_value=-0.0014057737402617932 -0.011534278260713272 0.0039690994264351001 -0.0034659232256998278 0.011070992173219565 0.0033197828158736229 -0.0015026704052632505 0.0089114555902779086 -0.0084660822847350079 -0.0045675830813124776 0.0071699008904397479 0.010551357046865365 0.0019877427655996547 -0.0044709631204605102 0.01745803795158863 0.0050951685037996085 0.0088213836818933494 -0.0066188366889255116 0.0019657018790776664 -0.003924898143965177 -0.0019355065663429821 -0.0094420082822442037 0.015428135110174906 -0.0019187769116833806 0.00051512242108583451 -0.004930153269707126 -0.0059430897129932412 -0.0043562880978995069 -0.0048148597174191054 -0.0069200784293934701 -0.0027542269555851815
leaf_weight=20 22 27 29 20 20 22 21 22 25 21 34 27 20 25 21 25 40 37 26 33 25 34 25 20 47 30 37 35 24 33
leaf_count=20 22 27 29 20 20 22 21 22 25 21 34 27 20 25 21 25 40 37 26 33 25 34 25 20 47 30 37 35 24 33
internal_value=5.40981e-12 0.00698003 -0.00374971 0.0115277 -0.00201883 0.00336946 0.00544709 -0.00620179 0.000165508 0.00108277 0.00731166 0.00501687 -0.000172725 0.01349 0.00192398 0.0122343 -0.00400929 -0.000100835 -0.000878248 -0.0049398 -0.00867658 0.0138144 0.00039938 -0.00184101 -0.00489467 -0.00753351 -0.00618697 -0.00341753 -0.00536499 -0.00403258
internal_weight=847 296 551 131 323 165 104 228 154 129 82 48 61 104 41 79 169 108 88 151 77 54 62 49 120 55 83 68 61 80
internal_count=847 296 551 131 323 165 104 228 154 129 82 48 61 104 41 79 169 108 88 151 77 54 62 49 120 55 83 68 61 80
is_linear=0
shrinkage=0.03


Tree=25
num_leaves=31
num_cat=0
split_feature=7 3 0 1 1 8 11 6 4 4 0 2 2 8 10 3 10 5 6 11 2 4 3 3 5 9 0 3 7 8
split_gain=23.1814 5.29241 2.3457 2.03135 1.43083 1.43067 1.37743 1.03959 0.778168 0.757781 0.802928 0.731139 0.618334 0.541745 0.475948 0.451322 0.394878 0.374078 0.30825 0.288103 0.262956 0.220039 0.185063 0.176836 0.174529 0.162801 0.162556 0.107908 0.100209 0.100034
threshold=266.25000000000006 421.00000000000006 11.977083333333335 25.456250000000004 26.150000000000002 57.812500000000007 -0.40541071103273035 7.4708333333333341 4.354166666666667 27.104166666666668 20.050000000000004 8.3875000000000011 20.891666666666669 84.937500000000014 0.73248728852523659 484.72916666666674 0.98664879617890844 0.61666666666666681 7.0312500000000009 -0.61186373645567615 6.4854166666666666 6.1458333333333348 194.47916666666671 260.64583333333337 28.166666666666671 967.76041666666686 8.5833333333333357 235.58333333333334 656.27773596154486 25.958333333333339
decision_type=2 2 2 2 2 2 2 2 2 2 2 2 2 2 2 2 2 2 2 2 2 2 2 2 2 2 2 2 2 2
left_child=1 4 11 -3 8 -6 18 14 12 10 16 20 -1 15 -7 -5 23 -17 21 26 -2 -4 -20 -8 -22 27 -13 -21 -24 -28
right_child=2 3 6 13 5 7 9 -9 -10 -11 -12 19 -14 -15 -16 17 -18 -19 22 25 24 -23 28 -25 -26 -27 29 -29 -30 -31
leaf_value=0.0058615132234990592 -0.011188249655745245 0.003850026474230819 -0.0036858424565826466 0.0087204770309229681 -0.0012891132384538651 0.0074729462819440014 -0.00075117931186564652 0.0025749116336926817 -0.0038474209886044265 -0.0048767795605817801 0.0054225596070422658 -0.0082120999066286129 -0.000879967481084168 0.0169342970341444 0.013369465159167621 0.010752844553207977 -0.0037743528701526959 0.015856948186244283 -0.0064202715775463727 -0.0039244120965965766 -0.0091587480828166003 0.00049966871179640295 -0.002512700262656114 0.0021244180302780408 -0.0057647970211692151 -0.0056237092874944208 -0.0042255994232019058 -0.0010435982239432632 -0.0047376699207768757 -0.0067124761128798125
leaf_weight=24 22 27 26 27 21 28 38 25 28 24 28 22 25 25 22 24 23 28 40 22 25 20 29 39 30 20 37 25 49 24
leaf_count=24 22 27 26 27 21 28 38 25 28 24 28 22 25 25 22 24 23 28 40 22 25 20 29 39 30 20 37 25 49 24
internal_value=1.69304e-11 0.00663304 -0.00371353 0.0111819 0.00318856 0.005632 -0.00204233 0.00756991 0.000142199 1.50417e-05 0.000932258 -0.00603995 0.00242198 0.0130853 0.0100674 0.0118673 -0.000325026 0.0135012 -0.00394917 -0.00482009 -0.00841629 -0.00186605 -0.00476123 0.000705292 -0.0073075 -0.00335673 -0.00600136 -0.00239206 -0.00391044 -0.00520404
internal_weight=847 304 543 131 173 96 316 75 77 152 128 227 49 104 50 79 100 52 164 150 77 46 118 77 55 67 83 47 78 61
internal_count=847 304 543 131 173 96 316 75 77 152 128 227 49 104 50 79 100 52 164 150 77 46 118 77 55 67 83 47 78 61
is_linear=0
shrinkage=0.03


Tree=26
num_leaves=31
num_cat=0
split_feature=7 3 2 1 0 0 8 8 10 0 4 6 2 8 10 8 7 6 1 9 10 1 5 3 11 11 10 2 4 10
split_gain=21.822 4.77553 2.32093 1.9113 1.34638 1.20779 1.33803 0.805984 0.657152 0.607567 0.592894 0.556766 0.555064 0.535992 0.566301 0.509728 0.451777 0.438757 0.357441 0.344915 0.267098 0.241503 0.240449 0.235615 0.196404 0.168768 0.15805 0.143199 0.128502 0.147574
threshold=260.31250000000006 421.00000000000006 9.4083333333333368 25.456250000000004 20.050000000000004 16.239583333333339 57.812500000000007 68.770833333333357 -0.90149333598846371 21.000000000000004 5.979166666666667 6.6250000000000009 23.454166666666669 53.020833333333336 0.6583954877256819 84.937500000000014 201.57324799439616 5.1000000000000005 13.116666666666669 962.07291666666674 0.96900085243778566 26.095833333333335 0.16249999999999998 260.64583333333337 -0.78295110140207613 -0.58427653070765284 0.87379901192678244 6.8833333333333337 1.5208333333333337 0.34964421742355262
decision_type=2 2 2 2 2 2 2 2 2 2 2 2 2 2 2 2 2 2 2 2 2 2 2 2 2 2 2 2 2 2
left_child=1 5 11 -3 8 12 -7 -6 23 10 -8 -2 16 21 -15 17 -1 22 -13 24 -16 25 -5 -4 27 28 -27 -20 -10 -30
right_child=2 3 4 15 7 6 9 -9 13 -11 -12 18 -14 14 20 -17 -18 -19 19 -21 -22 -23 -24 -25 -26 26 -28 -29 29 -31
leaf_value=0.005048776312731206 -0.0012601131163537502 0.0037345255414644877 -0.0018080034269951284 0.010422374311834574 -0.00095144213206367568 -0.0014292257821018044 0.0085100786015391335 0.0062376986637711525 -0.0028223073931241574 0.0099710896814309211 0.0017890024066178334 -0.0094691062694595689 -0.0042742119692265983 -0.0058176485675254042 0.0017935553060669917 0.016426268041133882 -0.0012513713818043471 0.0082254260804504147 -0.0081260210594960615 -0.0086226712085087504 -0.0021136932988320626 -0.0073638101059781465 0.014567855569150516 0.002490181274479255 -0.0033079687971621749 -0.00072322565342553642 -0.0042799425445011127 -0.0052918740971397392 -0.0042699585878290232 -0.007170704433487521
leaf_weight=20 20 27 22 20 32 22 21 25 22 34 27 31 20 21 32 25 21 25 21 34 31 23 34 24 35 22 23 68 38 27
leaf_count=20 20 27 22 20 32 22 21 25 22 34 27 31 20 21 32 25 21 25 21 34 31 23 34 24 35 22 23 68 38 27
internal_value=5.07053e-12 0.00656987 -0.00352937 0.0108464 -0.00200729 0.00317455 0.00514028 0.00220169 -0.00284908 0.00690283 0.00472947 -0.00602004 -0.000176844 -0.00348107 -0.00155121 0.0126928 0.00182187 0.0115113 -0.00652373 -0.00594585 -0.000129059 -0.00452694 0.0130325 0.000434528 -0.00521188 -0.00403264 -0.0025411 -0.00596061 -0.00480412 -0.00547488
internal_weight=847 296 551 131 342 165 104 57 285 82 48 209 61 239 84 104 41 79 189 158 63 155 54 46 124 132 45 89 87 65
internal_count=847 296 551 131 342 165 104 57 285 82 48 209 61 239 84 104 41 79 189 158 63 155 54 46 124 132 45 89 87 65
is_linear=0
shrinkage=0.03


Tree=27
num_leaves=31
num_cat=0
split_feature=3 1 8 3 6 0 3 1 6 7 10 0 0 8 0 10 1 10 2 1 10 9 7 7 11 8 0 5 3 8
split_gain=20.541 4.17166 3.38961 1.75463 1.13867 1.20677 1.07521 1.0446 1.03064 0.765924 0.624401 0.535662 0.501934 0.436899 0.424781 0.522556 0.373772 0.457724 0.37031 0.270024 0.226807 0.242176 0.224739 0.217148 0.146504 0.137962 0.108331 0.092836 0.0805509 0.0590535
threshold=299.54166666666674 29.389583333333334 52.854166666666679 341.50000000000006 7.666666666666667 16.329166666666669 233.81250000000003 34.081250000000004 5.5604166666666677 502.39583333333343 -0.79356426026969629 14.737500000000002 12.327083333333336 85.375000000000014 31.758333333333336 -0.2760944163666606 19.964583333333334 0.59125596962661842 6.4854166666666666 24.989583333333332 0.79877197597864635 961.50000000000011 512.18136748309314 918.43750000000011 -0.97870382656940669 39.729166666666679 8.3166666666666682 22.620833333333341 194.47916666666671 25.958333333333339
decision_type=2 2 2 2 2 2 2 2 2 2 2 2 2 2 2 2 2 2 2 2 2 2 2 2 2 2 2 2 2 2
left_child=2 8 6 -3 5 -4 12 -7 19 16 25 -10 18 14 15 -5 -6 -18 -1 -2 21 24 -12 27 -20 -8 -26 -14 -29 -28
right_child=1 3 4 13 9 7 10 -9 11 -11 22 -13 23 -15 -16 -17 17 -19 20 -21 -22 -23 -24 -25 26 -27 29 28 -30 -31
leaf_value=-0.010389765788401875 0.0042066171532496805 0.0029688076962801541 -0.0017851695095417268 0.013019602301840979 -0.004099564924836159 0.008731783332768828 -0.0013063003678772864 0.0010047752557382468 -0.0032826325536260137 -0.0065410732646257836 -0.0070373049960471687 0.0024899000488221644 -0.0046222777114334436 0.015720148050785063 0.014252307915995861 0.007498514410108327 0.0037747522559948266 -0.0015172680049037905 -0.007731619846064507 0.008926467893645167 -0.0031621301025152202 -0.009386643726864586 -0.0030901733843760716 -0.0059276610862995889 -0.0069517210777848958 0.0016116146754473447 -0.0035790640288697819 -0.0036842093579471111 -0.001151801564802344 -0.0056070314766839147
leaf_weight=21 24 22 39 27 21 32 35 31 23 26 20 39 22 25 29 36 24 38 31 20 20 23 37 35 24 25 28 20 26 24
leaf_count=21 24 22 39 27 21 32 35 31 23 26 20 39 22 25 29 36 24 38 31 20 20 23 37 35 24 25 28 20 26 24
internal_value=-1.3808e-12 0.00732328 -0.00298041 0.0107418 8.39933e-05 0.00236219 -0.00463408 0.0049296 0.00284051 -0.0020479 -0.0022266 0.000348477 -0.00566209 0.0122034 0.0112477 0.00986469 -0.000640398 0.000531256 -0.00665862 0.006352 -0.00613626 -0.00659382 -0.00447513 -0.00400766 -0.0059935 -9.05024e-05 -0.00528452 -0.00301943 -0.00225285 -0.00451505
internal_weight=847 245 602 139 211 102 391 63 106 109 117 62 274 117 92 63 83 62 171 44 150 130 57 103 107 60 76 68 46 52
internal_count=847 245 602 139 211 102 391 63 106 109 117 62 274 117 92 63 83 62 171 44 150 130 57 103 107 60 76 68 46 52
is_linear=0
shrinkage=0.03


Tree=28
num_leaves=31
num_cat=0
split_feature=7 0 8 0 11 10 3 10 4 0 3 4 5 8 6 2 0 10 8 6 2 4 0 5 4 4 11 1 9 0
split_gain=19.4039 4.34922 2.15541 2.0317 1.17906 0.90982 1.10757 0.989735 0.633829 0.738801 0.61975 0.60634 0.821195 0.588651 0.489943 0.420018 0.355491 0.341742 0.31837 0.297155 0.190014 0.173105 0.163777 0.161397 0.159764 0.133992 0.133228 0.127204 0.0897996 0.0848036
threshold=263.19362278545879 20.897916666666671 59.479166666666679 11.977083333333335 -0.36572252349726903 -0.71466676797886819 421.00000000000006 0.081675638985454754 27.104166666666668 19.258333333333336 232.41666666666671 10.10416666666667 0.16249999999999998 64.083333333333357 7.3020833333333348 6.4854166666666666 16.766666666666669 0.98664879617890844 81.250000000000014 7.0312500000000009 10.756250000000003 6.1458333333333348 10.927083333333334 27.620833333333341 17.104166666666671 7.2500000000000009 -0.87792756428346708 13.250000000000002 957.15000000000009 9.7958333333333361
decision_type=2 2 2 2 2 2 2 2 2 2 2 2 2 2 2 2 2 2 2 2 2 2 2 2 2 2 2 2 2 2
left_child=1 5 -3 10 19 16 7 -7 9 17 15 12 -4 -9 -15 -2 -1 25 -14 21 23 -5 -12 -17 26 -6 -21 -25 -26 -29
right_child=3 2 11 4 8 6 -8 13 -10 -11 22 -13 18 14 -16 20 -18 -19 -20 24 -22 -23 -24 27 28 -27 -28 29 -30 -31
leaf_value=0.0038503999608967983 -0.010308873338455505 0.0013257691583463123 0.0086033839406445614 -0.0030563025694372581 -0.00066308047845294428 -0.0060629143553087485 0.0061786629588288415 -0.0028206861689686778 -0.0042598049394786362 0.0049066676248912698 -0.0040087160856047688 0.0084422228137469475 0.013390509959902952 0.0061082456066595533 9.7321135842281839e-05 -0.0079183139340129015 0.0093073335408487088 -0.0035489989128773625 0.018049588664011521 -0.0049578373320400713 -0.0039702589437365524 0.00057164246309548614 -0.00063918753247708081 -0.0075928647816181178 -0.0041191582255996765 0.0019436963476861515 -0.0023269911767153928 -0.0035309197895228863 -0.0067321769739019455 -0.0060275302751688284
leaf_weight=21 22 21 24 29 35 20 34 20 25 32 37 34 33 26 23 43 22 23 22 30 36 20 20 20 20 36 41 25 29 24
leaf_count=21 22 21 24 29 35 20 34 20 25 32 37 34 33 26 23 43 22 23 22 30 36 20 20 20 20 36 41 25 29 24
internal_value=7.54569e-13 0.00613137 0.0101518 -0.00336273 -0.00182282 0.00288599 0.00157281 -0.000186733 0.000103686 0.000969457 -0.00553352 0.011792 0.0132337 0.00151651 0.00328679 -0.00644119 0.00664232 -0.000370869 0.0152541 -0.00354413 -0.00586627 -0.00157551 -0.00282643 -0.0064757 -0.00434798 0.000658666 -0.00343862 -0.00557668 -0.00566564 -0.00475375
internal_weight=847 300 134 547 320 166 123 89 151 126 227 113 79 69 49 170 43 94 55 169 148 49 57 112 120 71 71 69 49 49
internal_count=847 300 134 547 320 166 123 89 151 126 227 113 79 69 49 170 43 94 55 169 148 49 57 112 120 71 71 69 49 49
is_linear=0
shrinkage=0.03


Tree=29
num_leaves=31
num_cat=0
split_feature=7 3 0 1 11 1 8 4 4 4 0 2 2 8 3 10 10 6 1 10 10 2 2 3 9 5 8 5 2 5
split_gain=18.2572 4.12846 1.91162 1.63508 1.10938 1.07719 1.20584 0.88412 0.738415 0.59637 0.695138 0.584768 0.489382 0.437604 0.413048 0.361561 0.321545 0.279593 0.27837 0.238884 0.254849 0.215069 0.170573 0.157656 0.157253 0.14701 0.12728 0.230408 0.0848565 0.0923737
threshold=263.19362278545879 421.00000000000006 11.977083333333335 25.456250000000004 -0.36572252349726903 26.150000000000002 57.812500000000007 12.208333333333334 4.354166666666667 27.104166666666668 19.258333333333336 8.3875000000000011 20.891666666666669 84.937500000000014 484.72916666666674 -0.05591647229452347 0.98664879617890844 7.0312500000000009 29.854166666666668 0.79877197597864635 -0.88606241628642823 6.4854166666666666 10.452083333333336 194.47916666666671 960.5250000000002 28.166666666666671 43.604166666666679 14.047916666666667 11.008333333333335 26.675000000000004
decision_type=2 2 2 2 2 2 2 2 2 2 2 2 2 2 2 2 2 2 2 2 2 2 2 2 2 2 2 2 2 2
left_child=1 5 11 -3 17 8 -7 18 12 10 16 21 -1 14 -5 -16 26 22 -8 20 -13 -2 -4 -19 -22 -23 -6 -28 29 -25
right_child=2 3 4 13 9 6 7 -9 -10 -11 -12 19 -14 -15 15 -17 -18 23 -20 -21 24 25 -24 28 -26 -27 27 -29 -30 -31
leaf_value=0.0054871881229337297 -0.0099996072020043028 0.0033667421071893635 -0.0029981667798309555 0.0075472799895538213 -0.0011960643410439725 -0.0013111734629741737 0.0072166681252419946 0.0030358402859870224 -0.0036722449943356744 -0.0041320108937099578 0.0047594675414438826 -0.0018582645773754587 -0.00057116841780953105 0.015111726164817811 0.0098048191690551373 0.014822802301496267 -0.0034425288981393626 -0.00575534657668868 0.012162053521190371 -0.001831105676447523 -0.0047701079881278009 -0.0081890010505914698 0.00060314546898007388 -0.0057472166871385911 -0.0074497500807046892 -0.005074095891788602 -0.00064882123923820005 0.0035117864772677421 -0.0022826104546600783 -0.0030720674740866969
leaf_weight=24 22 27 29 27 23 21 20 31 28 25 32 21 24 25 28 24 23 40 21 29 73 25 20 21 27 30 23 25 33 26
leaf_count=24 22 27 29 27 23 21 20 31 28 25 32 21 24 25 28 24 23 40 21 29 73 25 20 21 27 30 23 25 33 26
internal_value=1.02813e-11 0.00594743 -0.00326184 0.00994469 -0.00176813 0.00284896 0.00501412 0.00685899 0.000199495 0.000100575 0.000940374 -0.00536752 0.00245801 0.0116524 0.0105577 0.0121208 -0.000359743 -0.00343781 0.00974967 -0.00427658 -0.00486268 -0.00749272 -0.00152824 -0.00421754 -0.00549361 -0.00648996 0.000638906 0.00151816 -0.00344864 -0.00426735
internal_weight=847 300 547 131 320 169 93 72 76 151 126 227 48 104 79 52 94 169 41 150 121 77 49 120 100 55 71 48 80 47
internal_count=847 300 547 131 320 169 93 72 76 151 126 227 48 104 79 52 94 169 41 150 121 77 49 120 100 55 71 48 80 47
is_linear=0
shrinkage=0.03


Tree=30
num_leaves=31
num_cat=0
split_feature=7 3 0 1 7 1 8 4 4 3 4 0 2 11 11 2 1 6 7 4 8 8 6 10 5 0 4 6 11 7
split_gain=17.1782 3.88447 1.79865 1.53845 1.04418 1.01353 1.13457 0.831869 0.694774 0.564613 0.525357 0.641267 0.46046 0.436617 0.500169 0.369324 0.261919 0.259378 0.230739 0.220935 0.253288 0.218081 0.175422 0.173121 0.166202 0.156718 0.150358 0.119611 0.0919131 0.0642604
threshold=263.19362278545879 421.00000000000006 11.977083333333335 25.456250000000004 531.96825739499639 26.150000000000002 57.812500000000007 12.208333333333334 4.354166666666667 232.41666666666671 27.104166666666668 21.845833333333335 20.891666666666669 0.96897393274411414 0.80898702767051955 6.4854166666666666 29.854166666666668 8.7500000000000018 918.43750000000011 9.2083333333333339 52.854166666666679 76.520833333333357 7.0583333333333345 0.79877197597864635 31.147916666666671 10.927083333333334 17.104166666666671 8.9375000000000018 -0.72658061058372014 958.75000000000011
decision_type=2 2 2 2 2 2 2 2 2 2 2 2 2 2 2 2 2 2 2 2 2 2 2 2 2 2 2 2 2 2
left_child=1 5 9 -3 10 8 -7 16 12 15 11 17 -1 14 -5 -2 -8 19 22 20 -4 -16 -6 24 28 -11 27 -24 29 -17
right_child=2 3 4 13 18 6 7 -9 -10 25 -12 -13 -14 -15 21 23 -18 -19 -20 -21 -22 -23 26 -25 -26 -27 -28 -29 -30 -31
leaf_value=0.0053225724305957555 -0.0096996188671751443 0.0032657398883667254 -0.00010617582686245441 0.009714887935551815 -0.0009345909305424852 -0.0012718383755002704 0.0070001681037247174 0.0029447650255432591 -0.0035620776556191096 -0.003779151470642663 -0.0038427880158027014 0.0056993562681600446 -0.00055403340607881543 0.008249967463314533 0.012632208486849612 -0.0079681968543587646 0.011797191670962742 -0.0025744380999420738 -0.0054529437179175709 -0.0014253524266954125 0.0038990181974238821 0.016960616245865819 -0.0036722465976657759 -0.0031417598591550536 -0.0041089773646672259 -0.00048303241655230523 -0.005097239772704514 -0.00075844669648046995 -0.0052488182811066507 -0.0059583632444793529
leaf_weight=24 22 27 30 32 33 21 20 31 28 37 27 20 24 30 22 41 21 29 39 29 27 20 32 23 32 20 33 21 30 22
leaf_count=24 22 27 30 32 33 21 20 31 28 37 27 20 24 30 22 41 21 29 39 29 27 20 32 23 32 20 33 21 30 22
internal_value=5.77492e-12 0.00576901 -0.00316399 0.00964635 -0.00171509 0.00276349 0.00486369 0.00665322 0.00019351 -0.00520649 -2.26781e-05 0.000741344 0.00238427 0.0113028 0.0125405 -0.00607285 0.00945718 -0.000120919 -0.00345034 0.00070643 0.00179102 0.0146934 -0.00279403 -0.00553373 -0.00597386 -0.00262262 -0.00350754 -0.00251772 -0.00661553 -0.00726635
internal_weight=847 300 547 131 320 169 93 72 76 227 162 135 48 104 74 170 41 115 158 86 57 42 119 148 125 57 86 53 93 63
internal_count=847 300 547 131 320 169 93 72 76 227 162 135 48 104 74 170 41 115 158 86 57 42 119 148 125 57 86 53 93 63
is_linear=0
shrinkage=0.03


Tree=31
num_leaves=31
num_cat=0
split_feature=3 1 8 3 6 0 1 6 3 7 10 0 3 9 11 10 0 1 10 2 5 6 8 0 7 5 11 8 2 3
split_gain=16.1741 3.37643 2.70433 1.42468 0.948339 1.05407 0.961481 0.880425 0.847078 0.638606 0.557219 0.45764 0.405763 0.397226 0.807483 0.427693 0.323091 0.31747 0.393511 0.280746 0.267721 0.25603 0.25391 0.236122 0.217164 0.168125 0.121575 0.117681 0.104928 0.0627517
threshold=299.54166666666674 29.389583333333334 52.854166666666679 341.50000000000006 7.666666666666667 16.329166666666669 34.081250000000004 5.5604166666666677 233.81250000000003 502.39583333333343 -0.79356426026969629 14.737500000000002 176.47916666666671 972.5916666666667 0.97308229207007257 0.5772862706790628 14.737500000000002 19.964583333333334 0.59125596962661842 10.756250000000003 23.475000000000005 5.635416666666667 65.229166666666686 7.616666666666668 512.18136748309314 31.147916666666671 -0.8238924869212918 39.729166666666679 21.908333333333335 203.02083333333334
decision_type=2 2 2 2 2 2 2 2 2 2 2 2 2 2 2 2 2 2 2 2 2 2 2 2 2 2 2 2 2 2
left_child=2 7 8 -3 5 -4 -7 22 12 17 27 -9 -1 14 15 21 19 -6 -19 20 -14 -5 -2 -22 -12 26 29 -10 -21 -25
right_child=1 3 4 13 9 6 -8 11 10 -11 24 -13 16 -15 -16 -17 -18 18 -20 28 23 -23 -24 25 -26 -27 -28 -29 -30 -31
leaf_value=-0.0084561536660684011 0.0032144801071844996 0.0025697152993895789 -0.001704527108142009 0.01497219876282745 -0.0037559123816234725 0.0082188261067494741 0.00080562073797468218 -0.0031941024003469425 -0.001089874578639865 -0.0059558723649332443 -0.0066276527449954294 0.002141491361141491 -0.0088291186191465539 0.014082306159867181 0.0046172418259084226 0.0079885902188040984 -0.0024921602545771751 0.0035192999080754812 -0.0013874965915946585 -0.0019852638637853992 -0.008119140169159933 0.010555519983172416 0.0077913339808583252 -0.0052989471587352455 -0.0027476089104783497 -0.0028063551429659125 -0.0037477240659063681 0.0016050499392673372 -0.0047427101093141929 -0.0074918197289757108
leaf_weight=28 20 22 39 27 21 32 31 23 35 26 20 39 23 27 20 22 50 24 38 27 22 21 24 24 37 30 24 25 23 23
leaf_count=28 20 22 39 27 21 32 31 23 35 26 20 39 23 27 20 22 50 24 38 27 22 21 24 24 37 30 24 25 23 23
internal_value=-5.97058e-12 0.00649837 -0.00264469 0.00957385 9.24721e-05 0.00217157 0.00457106 0.00246543 -0.00412177 -0.00185311 -0.00198491 0.000162158 -0.00503423 0.0108909 0.00993343 0.0114523 -0.00464474 -0.000567902 0.000511909 -0.00519387 -0.00585831 0.0130399 0.00571095 -0.00530279 -0.00410903 -0.00468933 -0.00548496 3.30106e-05 -0.00325369 -0.00637206
internal_weight=847 245 602 139 211 102 63 106 391 109 117 62 274 117 90 70 246 83 62 196 146 48 44 123 57 101 71 60 50 47
internal_count=847 245 602 139 211 102 63 106 391 109 117 62 274 117 90 70 246 83 62 196 146 48 44 123 57 101 71 60 50 47
is_linear=0
shrinkage=0.03


Tree=32
num_leaves=31
num_cat=0
split_feature=7 3 0 1 11 1 8 6 4 4 0 3 10 2 8 0 6 4 2 6 6 5 4 2 0 6 3 1 9 1
split_gain=15.2678 3.46421 1.59652 1.36962 0.912453 0.900159 1.03533 0.782138 0.641521 0.524032 0.602107 0.499958 0.444788 0.428465 0.394764 0.384062 0.337927 0.317177 0.260888 0.253764 0.240199 0.161862 0.154565 0.153221 0.147866 0.139951 0.137992 0.127157 0.126056 0.0885251
threshold=263.19362278545879 421.00000000000006 11.977083333333335 25.456250000000004 -0.36572252349726903 26.150000000000002 57.812500000000007 7.6229166666666677 4.354166666666667 27.104166666666668 21.508333333333336 232.41666666666671 0.73248728852523659 20.891666666666669 84.937500000000014 31.758333333333336 8.6937500000000032 3.6458333333333335 6.4854166666666666 8.1000000000000014 7.0312500000000009 13.300000000000002 6.1458333333333348 13.212500000000004 10.927083333333334 9.4791666666666696 194.47916666666671 23.239583333333339 958.23958333333337 12.579166666666667
decision_type=2 2 2 2 2 2 2 2 2 2 2 2 2 2 2 2 2 2 2 2 2 2 2 2 2 2 2 2 2 2
left_child=1 5 11 -3 20 8 -7 12 13 10 19 16 -8 -1 15 17 29 -5 -18 21 22 -6 -4 -21 -13 -20 -22 -23 -27 -2
right_child=2 3 4 14 9 6 7 -9 -10 -11 -12 24 -14 -15 -16 -17 18 -19 25 23 26 27 -24 -25 -26 28 -28 -29 -30 -31
leaf_value=0.0051180182024836533 -0.0059697266556322567 0.0030800334664268627 -0.0027613763967207793 0.010180766801199606 -0.00085928530199453235 -0.0012813035771250725 0.0059554874815111016 0.0015754451584705912 -0.0034302769738133064 -0.0038906501591205594 0.0056384749738499522 -0.0035991558220514371 0.011688384847449405 -0.00055074236472137268 0.013948962235450744 0.012697813242673873 -0.0099751652888953671 0.0055310720772199012 -0.0082461276277899734 -6.5406421199440957e-05 -0.0052934869833989066 0.000497868190286681 0.00066677814954891799 -0.0037788844462484116 -0.00039748581312596797 -0.0041619044305248694 -0.0031354251903903787 0.003803008456756784 -0.0071802500070480167 -0.0036499433763521284
leaf_weight=24 20 27 29 31 24 21 29 22 28 25 20 37 21 24 25 25 20 23 20 20 40 20 20 20 20 33 80 22 20 57
leaf_count=24 20 27 29 31 24 21 29 22 28 25 20 37 21 24 25 25 20 23 20 20 40 20 20 20 20 33 80 22 20 57
internal_value=1.52027e-11 0.00543878 -0.00298288 0.00910037 -0.00161781 0.0026005 0.00457976 0.00628924 0.000178511 7.69413e-05 0.000864162 -0.0049072 0.0083633 0.00228364 0.0106633 0.00962359 -0.00572244 0.00820034 -0.0069395 -3.6652e-05 -0.00313206 0.00110607 -0.00136213 -0.00192215 -0.00247576 -0.00610781 -0.00385478 0.00222913 -0.0053009 -0.00425248
internal_weight=847 300 547 131 320 169 93 72 76 151 126 227 50 48 104 79 170 54 93 106 169 66 49 40 57 73 120 42 53 77
internal_count=847 300 547 131 320 169 93 72 76 151 126 227 50 48 104 79 170 54 93 106 169 66 49 40 57 73 120 42 53 77
is_linear=0
shrinkage=0.03


Tree=33
num_leaves=31
num_cat=0
split_feature=7 3 0 1 8 3 8 0 4 1 4 2 4 4 1 10 4 10 8 5 7 7 10 2 0 1 5 11 8 2
split_gain=14.3717 3.12367 1.65993 1.28868 1.01158 0.906102 0.804936 1.08279 0.645484 0.595978 0.59378 0.41592 0.411395 0.389929 0.388053 0.343936 0.342028 0.323931 0.311054 0.248079 0.188041 0.184345 0.180873 0.184545 0.139072 0.16705 0.13424 0.265169 0.214004 0.118606
threshold=254.79166666666671 421.00000000000006 15.279166666666667 25.456250000000004 68.083333333333343 232.41666666666671 57.104166666666679 16.329166666666669 12.208333333333334 29.300000000000004 12.208333333333334 10.756250000000003 8.1875000000000018 10.10416666666667 32.968750000000007 -0.90149333598846371 2.6875000000000004 0.098819223632317002 46.687500000000007 31.147916666666671 1021.1458333333334 320.72916666666669 0.97109105924028427 8.8145833333333368 11.29166666666667 20.258333333333336 21.695833333333336 -0.72658061058372014 30.395833333333339 18.737500000000001
decision_type=2 2 2 2 2 2 2 2 2 2 2 2 2 2 2 2 2 2 2 2 2 2 2 2 2 2 2 2 2 2
left_child=1 6 5 -3 12 11 -1 17 9 -9 -6 19 18 14 -5 -7 -16 -8 -4 20 26 -17 23 -14 -23 -26 -2 28 -28 -13
right_child=2 3 4 13 10 15 7 8 -10 -11 -12 29 22 -15 16 21 -18 -19 -20 -21 -22 24 -24 -25 25 -27 27 -29 -30 -31
leaf_value=-0.0015890760838308117 -0.0074788428470492357 0.0029876324389543798 -0.002093481018038636 0.0087049168653108855 0.0070191810205578803 0.00073572550360536705 -0.0028886751984246073 0.0044593223696574565 0.002134013536329991 0.010822966173291206 0.00057212116759425649 -0.0017243826778276876 -0.0047951630679890517 0.0065788171961903563 0.010059306357394566 -0.0053822113364003594 0.015019822037168616 0.0021897028703488802 0.0030110086064918762 -0.0035825490783654938 -0.0087931673973798748 -0.0040509292566338955 -0.0057043009741755664 -0.0012938701274937817 0.00088610605616122487 -0.0026778141523165432 -0.0083116521024041712 -0.0026847532889447529 -0.0048185218900049986 -0.0043123801455367356
leaf_weight=33 33 27 22 33 20 33 20 26 29 27 36 34 20 20 22 20 29 26 21 38 23 23 20 42 20 29 27 26 38 30
leaf_count=33 33 27 22 33 20 33 20 26 29 27 36 34 20 20 22 20 29 26 21 38 23 23 20 42 20 29 27 26 38 30
internal_value=1.73664e-11 0.00538751 -0.00283451 0.00882736 -0.000476117 -0.00397587 0.00258862 0.00366568 0.0057323 0.00770118 0.00287464 -0.0050221 -0.00197726 0.0103434 0.0112398 -0.00189177 0.01288 -1.82876e-05 0.000399409 -0.00574326 -0.00630181 -0.00283424 -0.00322356 -0.00242332 -0.00212647 -0.00122315 -0.00583971 -0.0052453 -0.00626951 -0.00293751
internal_weight=847 292 555 131 181 374 161 128 82 53 56 249 125 104 84 125 51 46 43 185 147 92 82 62 72 49 124 91 65 64
internal_count=847 292 555 131 181 374 161 128 82 53 56 249 125 104 84 125 51 46 43 185 147 92 82 62 72 49 124 91 65 64
is_linear=0
shrinkage=0.03


Tree=34
num_leaves=31
num_cat=0
split_feature=7 3 0 1 6 3 8 0 8 4 1 2 11 11 1 10 10 9 1 8 2 11 5 7 0 1 6 2 9 6
split_gain=13.5223 2.93906 1.56183 1.21252 0.953334 0.852551 0.757364 1.0188 0.654022 0.607336 0.560756 0.391339 0.378822 0.444331 0.365309 0.323609 0.304787 0.238674 0.268117 0.193575 0.18529 0.175918 0.205341 0.17345 0.130853 0.157177 0.129605 0.111596 0.0787548 0.0659296
threshold=254.79166666666671 421.00000000000006 15.279166666666667 25.456250000000004 7.666666666666667 232.41666666666671 57.104166666666679 16.329166666666669 53.020833333333336 12.208333333333334 29.300000000000004 10.756250000000003 0.96897393274411414 0.80898702767051955 32.968750000000007 -0.90149333598846371 0.098819223632317002 961.45416666666677 12.579166666666667 76.520833333333357 8.8145833333333368 -0.86955717898714324 30.887500000000006 320.72916666666669 11.29166666666667 20.258333333333336 9.4187500000000011 18.737500000000001 956.56250000000011 8.9916666666666689
decision_type=2 2 2 2 2 2 2 2 2 2 2 2 2 2 2 2 2 2 2 2 2 2 2 2 2 2 2 2 2 2
left_child=1 6 5 -3 8 11 -1 16 -4 10 -9 17 13 -5 -10 -7 -8 18 -2 -15 -6 22 28 -17 -25 -26 -22 -13 -20 -19
right_child=2 3 4 12 20 15 7 9 14 -11 -12 27 -14 19 -16 23 -18 29 21 -21 26 -23 -24 24 25 -27 -28 -29 -30 -31
leaf_value=-0.0015414038215848531 -0.0080443823100491002 0.0028980034087888067 -0.0019018157753312298 0.0085227449296507978 -0.0049480304711687489 0.0007136537062152373 -0.0028020149928051977 0.0043255427239147623 0.0055937269177626474 0.0020699931351981799 0.010498277097940444 -0.0016726511675070094 0.0071894838586449624 0.011273208189417015 0.00097851584312216985 -0.0052207450484856961 0.0021240117227157148 -0.0064163688809743945 -0.0053240535319359463 0.015351184755563735 -0.003010325682525699 -0.0027843848336488006 -0.0030781921701661 -0.0039294013976240933 0.00085952284885570409 -0.0025974797715376742 -0.00027669661316192813 -0.0041830087110865857 -0.0076108780989180436 -0.0088231064155697824
leaf_weight=33 22 27 31 32 24 33 20 26 33 29 27 34 30 22 29 20 26 21 33 20 37 39 27 23 20 29 27 30 23 20
leaf_count=33 22 27 31 32 24 33 20 26 33 29 27 34 30 22 29 20 26 21 33 20 37 39 27 23 20 29 27 30 23 20
