tree
version=v4
num_class=1
num_tree_per_iteration=1
label_index=0
max_feature_idx=44
objective=binary sigmoid:1
feature_names=temperature_2m relative_humidity_2m surface_pressure wind_speed_10m boundary_layer_height shortwave_radiation blh_imputed wind_sin wind_cos ventilation_coef trapping_index inv_wind stagnation_proxy precip precip_lag1 precip_sum_3d fergana_pm25_lag1 fergana_pm25_lag2 fergana_transport almaty_pm25_lag1 almaty_pm25_lag2 almaty_transport bishkek_pm25_lag1 bishkek_pm25_lag2 bishkek_transport samarkand_pm25_lag1 samarkand_pm25_lag2 samarkand_transport dushanbe_pm25_lag1 dushanbe_pm25_lag2 dushanbe_transport ashgabat_pm25_lag1 ashgabat_pm25_lag2 ashgabat_transport doy_sin doy_cos is_heating_season weekday is_weekend cams_pm2_5 cams_pm10 cams_dust cams_nitrogen_dioxide cams_ozone cams_carbon_monoxide
feature_infos=[-18.962499999999999:34.783333333333331] [14.375:95.708333333333314] [950.5625:980.88333333333321] [2.4791666666666665:18.158333333333335] [17.291666666666668:1145.8333333333333] [11.083333333333334:336] [0:1] [-0.99999979828354879:0.99999958201153416] [-0.99999465292028256:0.99999983006560078] [81.991319444444443:19220.481770833332] [5.2027832177726714e-05:0.0121964129200429] [0.053595355069227302:0.33566433566433568] [51.2362661902635:327.63496503496509] [0:26.199999999999999] [0:26.199999999999999] [0:37.399999999999999] [0.66249999999999998:46.787500000000001] [0.66249999999999998:46.787500000000001] [-222.24588561760223:482.3165164099301] [0.70000000000000007:85.583333333333329] [0.70000000000000007:85.583333333333329] [-698.43906442609432:568.18010411338116] [0.62083333333333324:28.633333333333336] [0.62083333333333324:28.633333333333336] [-146.81993547470486:150.48681349079578] [0.6875:36.783333333333331] [0.6875:36.783333333333331] [-209.68179124230875:145.48081095763462] [0.96250000000000002:28.024999999999999] [0.96250000000000002:28.024999999999999] [-262.04586709492372:147.55761456225397] [1.0125:37.137500000000003] [1.0125:37.137500000000003] [-218.47704345290867:226.25324098155136] [-0.99999942202469239:0.99998555065071859] [-0.99997919295908244:0.9999907524084426] [0:1] [0:6] [0:1] [0.66249999999999998:87.700000000000003] [0.94166666666666676:125.82083333333333] [0:93.833333333333314] [0:140.60416666666666] [4.25:111.5] [59.083333333333336:901.875]
tree_sizes=952 977 979 880 979 971 1282 1080 972 976 1181 1081 1280 1080 976 977 1083 968 967 981 963 1074 974 970 964 1071 1073 972 1179 1177 979 1181 1180 1183 1178 1186 1072 1184 1072 1175 1170 1286 1280 1496 1180 1181 1491 1076 1598 1286 1276 1386 1280 1177 1180 1080 1077 1077 1079 1078 1078 1068 1283 1067 1186 1278 1285 1184 1172 1184 1284 1179 1290 1292 1175 1176 1186 1278 1181 1183 1081 1084 1079 1080 1081 1275 1078 1278 1075 974 1283 1181 1494 1385 1280 1285 1088 1283 1281 1179 1192 1389 1392 1397 1504 1395 1397 1289 1389 1181 1182 1085 977 980 1075 1183 1176 1184 1176 1180 1389 1178 1290 1393 1084 1389 1396 1807 1493 1399 1493 1703 1392 1500 1498 1604 1402 1402 1393 1499 1495 1514 1387 1395 1288 1392 1085 1186 1186 1082 1720 1604 1503 1705 1501 1500 1603 1704 1811 1701 1603 1497 1609 1504 1496 1607 1596 1706 1587 1497 1288 1392 1387 1283 1294 1391 1287 1287 1389 1187 1612 1611 1712 1407 1396 1393 1394 1615 1608 1820 1501 1717 1608 1828 1821 1714 1397 1830 1721 1713 1293 1392 1392 1502 1391 1397 1937 1401 1711 1938 1505 1407 1507 1406 1286 1290 1401 1288 1288 1292 1618 1925 1392 1402 1393 1513 1081 1189 1191 1086 1932 1818 1725 1405 1618 1496 1612 1290 1502 1515 1509 1412 1619 1509 1294 1293 1401 1399 1514 1396 1404 1197 1185 1183 1189 1716 1718 1935 1500 1928 1510 1619 1405 1514 1726 1836 1397 1398 1496 1731 1405 1504 1507 1620 1718 1730 1517 1520 1301 1411 1514 1825 1828 1623 1512 1309 1408 1300 1397 1515 1501 1624 1513 1389 1727 1734 1626 1512 1308 1630 1417 1409 1619 1527 1738 1416 1412 1524 1524 1519 1632 1624 1627 1525 1515 1406 1293 1401 1510 1415 1203 1196 1303 1521 1636 1516 1622 1305 1522 1525 1517 1534 1517 1955 1831 1624 1521 1409 1737 1520 1747 1850 1632 1643 1624 1735 1732 1742 1636 1635 1418 1415 1310 1519 1524 1519 1518 1515 1306 1520 1419 1420 1421 1421 1528 1850 1742 1423 1631 1424 1426 1421 1535 1535 1539 1748 1409 1734 1846 1726 1639 1641 1098 1097 1202 1419 1421 1416 1634 1522 1312 1309 1417 1517 1201 1533 1522 1640 1430 1525 1640 1866 1533 1535 1743 1542 1417 1425 1518 1513 1526 1640 1436 1637 1429 1319 1754 1542 1650 1755 1635 1199 1435 1533 1637 1524 1514 1409 1961 1648 1538 1528 1649 1750 1427 1631 1421 1532 1318 1422 1526 1531 1533 1539 1426 1536 1744 1870 1539 1529 1750 1538 1425 1862 1537 1310 1650 1432 1318 1533 1647 1632 1416 1318 1533 1539 1533 1527 1540 1644 1424 1646 1429 1545 1643 1745 1964 1529 1640 1641 1749 1861 1863 1754 1637 1537 1430 1325 1434 1539 1436 1430 1437 1653 1429 1655 1646 1430 1633 1639 1547 1321 1650 1434 1542 1429 1435 1434 1328 1324 1535 1756 1328 1436 1328 1653 1773 1649 1650 1211 1215 995 1104 1440 1108 1536 1211 1327 1537 1431 1652 1648 1429 1652 1650 1424 1324 1217 1549 1646 1540 1869 1760 1652 1751 1656 1431 1432 1532 1547 1433 1324 1326 1322 1228 1327 1322 1319 1214 1430 1435 1538 1543 1438 1656 1322 1539 1225 1224 1325 1430 1764 1656 1549 1435 1544 1539 1539 1646 1781 1214 1115 1532 1553 1212 1327 1549 1320 1319 1219 1437 1550 1433 1331 1662 1770 1648 1439 1987 1332 1540 1671 1549 1328 1436 1442 1438 1220 1446 1538 1654 1548 1656 1652 1436 1436 1437 1445 1441 1324 1221 1112 1111 1004 1444 1338 1439 1325 1226 1221 1439 1441 1434 1440 1555 1223 1434 1223 1432 1420 1446 1442 1550 1442 1661 1547 1874 1556 1429 1442 1229 1232 1120 1450 1453 1439 1556 1335 1332 1450 1665 1776 1557 1436 1653 1668 1649 1552 1658 1446 1220 1218 1329 1547 1212 1561 1445 1336 1556 1454 1119 1232 1785 1115 1232 1443 1766 1664 1556 1668 1332 1441 1665 1664 1671 1547 1436 1552 1549 1436 1327 1438 1444 1441 1559 1549 1551 1553 1549 1555 1554 1333 1335 1442 1558 1448 1453 1451 1339 1773 1326 1334 1331 1333 1334 1553 1444 1665 1673 1449 1768 1449 1453 1336 1563 1238 1558 1332 1335 1664 1111 1450 1112 1567 1335 1333 1323 1324 1549 1327 1341 1223 1226 1448 1661 1564 1562 1559 1455 1337 1232 1226 1230 1230 1227 1337 1449 1447 1561 1564 1117 1663 1328 1339 1559 1011 1110 1011 1221 1208 1558 1117 1235 1234 1119 1348 1669 1232 1450 1344 1232 1111 1118 1443 1339 1237 1565 1553 1235 1342 1328 1784 1348 1676 1341 1342 1560 1350 1667 1237 1450 1447 1440 1560 1446 1776 1447 1450 1452 1337 1567 1449 1460 1571 1559 1680 1237 1787 1562 1686 1672 1783 1554 1569 1452 1459 1455 1562 1564 1560 1443 1453 1450 1452 1453 1337 1449 1568 1561 1340 1227 1229 1235 1342 1228 1332 1576 1339 1331 1340 1453 1339 1335 1348 1452 1460 1466 1337 1455 1684 1004 1233 1119 1457 1117 1347 1341 1338 1449 1454 1447 1341 1448 1452 1229 1574 1569 1568 1681 1570 1564 1570 1450 1460 1785 1570 1119 1120 1345 1345 1345 1239 1347 1456 1344 1465 1573 1342 1453 1342 1559 1349 1348 1448 1338 1571 1572 1566 1459 1782 1352 1340 1355 1457 1462 1683 1461 1564 1572 1561 1233 1222 1567 1569 1457 1333 1344 1351 1123 1349 1222 1778 1464 1795 1127 1348 1342 1351 1349 1348 1340 1226 1236 1232 1346 1567 1672 1679 1563 1910 1584 1352 1568 1681 1351 1238 1337 1226 1347 1674 1449 1341 1456 1346 1229 1685 1343 1576 1459 1463 1348 1462 1571 1344 1355 1457 1240 1234 1351 1344 1577 1570 1574 1571 1450 1456 1245 1574 1362 1575 1348 1349 1351 1352 1359 1350 1577 1798 1583 1467 1245 1471 1352 1243 1683 1240 1455 1344 1238 1240 1559 1684 1571 1575 1787 1461 1355 1247 1356 1243 1682 1467 1560 1345 1572 1465 1247 1361 1584 1247 1246 1233 1354 1348 1236 1574 1461 1459 1146 1459 1571 1576 1577 1692 1690 1345 1352 1354 1353 1348 1471 1470 1357 1356 1356 1347 1457 1351 1350 1455 1566 1566 1459 1459 1571 1239 1353 1347 1240 1247 1241 1351 1458 1349 1460 1136 1246 1223 1131 1245 1469 1584 1579 1580 1358 1021 1244 1461 1021 1128 1473 1361 1470 1232 1474 1576 1241 1243 1244 1247 1341 1346 1353 1345 1358 1354 1348 1461 1574 1793 1242 1248 1572 1471 1242 1464 1574 1346 1575 1572 1355 1352 1464 1446 1462 1353 1135 1353 1121 1128 1232 1465 1575 1355 1465 1583 1581 1456 1244 1238 1691 1462 1355 1579 1463 1355 1471 1244 1580 1472 1358 1356 1476 1470 1473 1235 1354 1239 1244 1238 1474 1468 1578 1469 1248 1130 1469 1241 1245 1247 1356 1476 1353 1358 1364 1240 1355 1467 1357 908 1236 1355 1131 1363 1236 1224 1242 1334 1342 1339 1475 1469 1467 1478 1578 1358 1351 1359 1356 1352 1473 1472 1129 1240 1353 1134 1140 1578 1024 1026 1469 1239 1245 1582 1351 1248 1132 1130 1242 1021 1132 913 1580 1125 1355 1463 1580 1465 1359 1467 1475 1243 1353 1252 1244 1233 1349 1124 1239 1572 1126 1132 1243 1240 1240 1457 1584 1356 1461 1464 1251 1250 1356 1251 1250 1132 1474 1469 1135 1249 1342 1461 1461 1452 1346 1462 1460 1470 1465 1355 1353 1354 1244 1357 1352 1460 1251 1133 1588 1255 1020 1361 1352 1356 1125 1366 1582 1250 1472 1248 1472 1141 1475 1582 1579 1359 1253 1477 1353 1246 1473 1569 1363 1242 1698 1245 1471 1589 1247 1246 1357 1464 1463 1466 1469 1487 1699 1358 1362 1932 1693 1584 1353 1691 1692 1698 1585 1468 1694 1469 1466 1342 1584 1469 1248 1583 1470 1357 1584 1360 1367 1361 1250 1469 1363 1363 1369 1701 1695 1247 1596 1357 1359 1361 1358 1240 1462 1924 1469 1355 1472 1252 1027 1255 1483 1365 1362 1251 1359 1140 1362 1351 1352 1251 1363 1474 2045 1360 1699 1585 1594 1471 1477 1593 1472 1347 1582 1470 1358 1472 1473 1242 1591 1481 1358 1594 1590 1254 1595 1484 1928 1577 1369 1933 1932 1364 1471 1365 1477 1474 1246 1248 1248 1361 1250 1026 1369 1032 1148 1366 1135 1586 1357 1352 1577 1351 1235 1132 1360 1359 1815 1474 1475 1472 1246 1258 1366 1249 1365 1357 1590 1364 1470 1713 1367 1356 1356 1357 1364 1353 1591 1362 1466 1365 1473 1367 1250 1368 1248 1253 1360 1361 1365 1479 1362 1368 1257 1254 1478 1477 1486 1367 1485 1595 1367 1472 1245 1586 1807 1707 1248 1246

Tree=0
num_leaves=8
num_cat=0
split_feature=10 44 5 10 7 30 32
split_gain=383.639 27.427 20.1632 8.27372 15.5051 2.30242 2.77814
threshold=0.00070693664256595002 374.27083333333343 78.041666666666671 0.0015052166886692002 0.16343080602365367 107.45162526501579 17.204166666666669
decision_type=2 2 2 2 2 2 2
left_child=2 3 -1 4 -2 6 -4
right_child=1 -3 5 -5 -6 -7 -8
leaf_value=-1.1339441542114013 -1.1109597051301121 -1.0782547013629877 -1.1765956302232286 -1.0935701086155563 -1.1590824220420162 -1.1548270075001872 -1.1548270075001872
leaf_weight=5.4119569361209861 6.0482487976551038 41.957010388374329 28.111577570438389 4.5879071056842795 3.8629515171051025 2.9502379596233359 2.9502379596233359
leaf_count=21 18 85 154 10 19 14 14
internal_value=-1.11979 -1.08679 -1.16746 -1.1146 -1.12872 -1.17314 -1.17471
internal_weight=95.8801 56.4561 39.424 14.4991 9.9112 34.0121 31.0618
internal_count=335 132 203 47 37 182 168
is_linear=0
shrinkage=1


Tree=1
num_leaves=8
num_cat=0
split_feature=35 11 35 10 8 40 44
split_gain=367.417 44.591 19.3468 8.79683 3.50798 2.69715 2.41783
threshold=0.52583933546504591 0.13281698616795981 0.89784768270548698 0.00075758922890935005 -0.89136468621784626 28.439583333333342 181.58333333333334
decision_type=2 2 2 2 2 2 2
left_child=3 2 5 6 -3 -2 -1
right_child=1 4 -4 -5 -6 -7 -8
leaf_value=-0.0052860671024962114 -0.0087361958540268202 0.015440594028584871 0.046594129774274386 0.0082549084973631143 0.069766866640409569 0.013513778278284696 -0.025325150774486157
leaf_weight=3.2779913246631613 4.0723255425691587 1.1397278606891621 7.1440847814083099 3.3984427899122229 46.438255712389946 2.825600653886795 29.072190001606941
leaf_count=16 20 4 19 14 90 11 161
internal_value=0.0303107 0.0595578 0.0257181 -0.0203514 0.0688101 0.000935118 -0.023514
internal_weight=97.3686 61.62 14.042 35.7486 47.578 6.89793 32.3502
internal_count=335 144 50 191 94 31 177
is_linear=0
shrinkage=0.02


Tree=2
num_leaves=8
num_cat=0
split_feature=35 44 34 2 10 34 22
split_gain=342.01 40.7066 12.5142 10.1709 8.62959 6.43795 2.63963
threshold=0.52583933546504591 268.31250000000006 0.43733377705052545 971.83125000000007 0.00075758922890935005 -0.60554068365937697 5.1708333333333343
decision_type=2 2 2 2 2 2 2
left_child=4 -2 5 -4 6 -3 -1
right_child=1 2 3 -5 -6 -7 -8
leaf_value=-0.0041453472358382246 0.00018787489595766823 0.032348156917790534 0.014051537406204082 0.055063413226337794 0.0081008691394576608 0.068961730381151137 -0.025177502967467721
leaf_weight=3.0705066919326809 4.7159402817487708 4.7771965861320487 5.8332462012767774 4.7093087881803513 3.4126728475093833 43.34504359960556 28.881835758686066
leaf_count=15 21 14 22 9 14 78 162
internal_value=0.0293043 0.0567943 0.0612653 0.0355547 -0.0201699 0.0660595 -0.0233435
internal_weight=98.7458 63.3807 58.6648 10.5426 35.365 48.1222 31.9523
internal_count=335 144 123 31 191 92 177
is_linear=0
shrinkage=0.02


Tree=3
num_leaves=7
num_cat=0
split_feature=35 44 34 10 34 22
split_gain=319.544 37.5825 12.443 8.46656 7.09695 2.60897
threshold=0.52583933546504591 251.70833333333334 0.46800856592688467 0.00075758922890935005 -0.60554068365937697 5.1708333333333343
decision_type=2 2 2 2 2 2
left_child=3 -2 4 5 -3 -1
right_child=1 2 -4 -5 -6 -7
leaf_value=-0.0040896969960895974 -0.0069532623889718252 0.029675282804698135 0.030988519000692924 0.0079502013597584614 0.064809067661580594 -0.025020675601485149
leaf_weight=3.063718959689143 3.5717441439628592 5.0321024507284156 9.2408142387866956 3.4266107380390158 47.158689066767693 28.491797730326653
leaf_count=15 17 15 28 14 84 162
internal_value=0.0283838 0.0543258 0.057943 -0.0199914 0.0620431 -0.0231765
internal_weight=99.9855 65.0033 61.4316 34.9821 52.1908 31.5555
internal_count=335 144 127 191 99 177
is_linear=0
shrinkage=0.02


Tree=4
num_leaves=8
num_cat=0
split_feature=35 11 35 44 34 4 23
split_gain=299.165 35.5693 16.1991 7.64639 3.24213 2.76768 2.68012
threshold=0.52583933546504591 0.13281698616795981 0.89784768270548698 315.39583333333343 -0.82897401153126982 212.64837808534898 5.1708333333333343
decision_type=2 2 2 2 2 2 2
left_child=3 2 5 6 -3 -2 -1
right_child=1 4 -4 -5 -6 -7 -8
leaf_value=-0.0036915067002967579 -0.0094856309024861449 0.013226141534257486 0.04083423475167864 0.0058900058802060099 0.060734636844242774 0.012853565314334299 -0.024900777028910151
leaf_weight=3.0148333013057735 4.1918755918741208 1.2258866727352131 7.7079815864562988 3.7307248562574378 50.533047243952751 2.8735058158636093 27.854921475052834
leaf_count=15 20 4 19 16 90 11 160
internal_value=0.0275126 0.0520552 0.0225776 -0.0198162 0.0598814 6.69707e-05 -0.0230102
internal_weight=101.133 66.5323 14.7734 34.6005 51.7589 7.06538 30.8698
internal_count=335 144 50 191 94 31 175
is_linear=0
shrinkage=0.02


Tree=5
num_leaves=8
num_cat=0
split_feature=9 5 0 31 33 34 25
split_gain=242.264 15.2821 13.7817 12.4908 9.83766 9.11706 12.5184
threshold=1394.8046875000002 41.708333333333336 10.433333333333335 11.568750000000003 -85.950294127191839 -0.58482361983252518 4.9729166666666673
decision_type=2 2 2 2 2 2 2
left_child=1 -1 3 -2 -4 -3 -7
right_child=2 5 4 -5 -6 6 -8
leaf_value=0.010578445866206428 0.02220982537250614 0.024201471148004965 0.0091855414926576128 -0.020418334751917983 -0.024752268604932348 0.010835478067323743 0.057163894178902226
leaf_weight=4.6185128688812247 5.9968419671058637 6.8788643181323996 3.3554015457630184 3.5764720886945724 27.954810902476311 3.0156025588512412 44.307545587420464
leaf_count=16 21 22 15 20 163 11 79
internal_value=0.0225298 0.0482039 -0.0146773 0.00585953 -0.0209435 0.0511602 0.054497
internal_weight=99.7041 58.8205 40.8835 9.57331 31.3102 54.202 47.3231
internal_count=347 128 219 41 178 112 90
is_linear=0
shrinkage=0.02


Tree=6
num_leaves=11
num_cat=0
split_feature=4 3 22 5 31 33 8 42 40 34
split_gain=206.404 24.1042 25.8629 16.3705 12.4456 9.66226 8.58378 5.47031 4.9053 3.13527
threshold=208.95833333333334 7.3062500000000012 11.450000000000001 132.29166666666671 11.533333333333337 -85.342173365424074 -0.94408795196129869 26.679166666666671 29.28541666666667 -0.81923160956083974
decision_type=2 2 2 2 2 2 2 2 2 2
left_child=1 6 8 4 -2 -5 -1 -8 -3 -9
right_child=3 2 -4 5 -6 -7 7 9 -10 -11
leaf_value=-0.010381339329488508 0.026070546859541022 -0.021267465850432075 0.046959065773593087 0.0090665549443064881 -0.019576100798648945 -0.024588923090627934 0.028568136289706871 -0.0046686476589914592 0.0088706314104485227 0.055201033575119726
leaf_weight=0.6001981645822515 5.4705124646425229 3.7858510017395002 5.2428530752658844 3.3667180240154293 2.8952039182186127 27.053437009453773 7.3190944492816916 0.20184110105037589 3.1596377491950989 41.365171000361443
leaf_count=3 18 20 10 15 16 160 21 1 11 72
internal_value=0.0219252 0.044393 0.0173088 -0.0140194 0.00986971 -0.0206941 0.0505888 0.0515304 -0.00816618 0.0548075
internal_weight=100.461 61.6746 12.1883 38.7859 8.36572 30.4202 49.4863 48.8861 6.94549 41.567
internal_count=347 138 41 209 34 175 97 94 31 73
is_linear=0
shrinkage=0.02


Tree=7
num_leaves=9
num_cat=0
split_feature=10 35 18 35 33 33 13 29
split_gain=213.269 18.834 18.9612 16.6273 8.42554 7.78599 3.03742 1.61899
threshold=0.00070693664256595002 0.87291090774974645 39.268141713022111 0.7487283477006671 13.858058051799173 -85.342173365424074 5.2500000000000009 7.6083333333333334
decision_type=2 2 2 2 2 2 2 2
left_child=3 2 4 5 -2 -1 -7 -3
right_child=1 7 -4 -5 -6 6 -8 -9
leaf_value=0.0064285082485802045 0.047863666895908048 0.026774431604912885 -0.010101691543641909 0.015825073868564958 0.013687788162018046 -0.024545450275151297 -0.0016026661857453037 0.053943442667355984
leaf_weight=3.7217677831649771 8.481740668416025 4.0316529721021643 4.190851852297782 5.5181289315223685 5.6924605518579474 28.140376061201099 2.6644466221332541 38.693022713065147
leaf_count=17 17 10 19 20 19 168 13 64
internal_value=0.0213568 0.0445951 0.0254582 -0.0143169 0.0359449 -0.0194441 -0.0226738 0.0520507
internal_weight=101.134 61.0897 18.3651 40.0447 14.1742 34.5266 30.8048 42.7247
internal_count=347 129 55 218 36 198 181 74
is_linear=0
shrinkage=0.02


Tree=8
num_leaves=8
num_cat=0
split_feature=9 13 35 35 25 22 21
split_gain=203.572 16.8655 16.2263 9.21884 7.7181 7.69823 3.36036
threshold=1394.8046875000002 3.5500000000000003 0.7487283477006671 0.87291090774974645 9.7312500000000011 5.2479166666666677 212.27426586998592
decision_type=2 2 2 2 2 2 2
left_child=1 3 5 4 -1 -2 -7
right_child=2 -3 -4 -5 -6 6 -8
leaf_value=0.043357879956024283 0.0063995719733507938 0.012639701869330885 0.015458071422743219 0.052571501480511373 0.012663240946369289 -0.024469904842547373 -0.00032844046991348458
leaf_weight=7.3276656419038755 3.7231233417987815 7.3180091381072989 5.5594745576381674 39.869701236486435 7.3240814208984375 28.057801038026813 2.534928396344184
leaf_count=16 17 24 20 64 24 169 13
internal_value=0.0208307 0.0432881 -0.0142037 0.0471 0.0298037 -0.0193108 -0.0225432
internal_weight=101.715 61.8395 39.8753 54.5214 14.6517 34.3159 30.5927
internal_count=347 128 219 104 40 199 182
is_linear=0
shrinkage=0.02


Tree=9
num_leaves=8
num_cat=0
split_feature=9 35 13 35 33 25 13
split_gain=192.625 15.7968 15.6671 8.45052 7.64744 7.20648 3.01357
threshold=1394.8046875000002 0.7487283477006671 3.5500000000000003 0.87291090774974645 -85.950294127191839 9.7312500000000011 5.2500000000000009
decision_type=2 2 2 2 2 2 2
left_child=2 4 3 5 -2 -1 -6
right_child=1 -3 -4 -5 6 -7 -8
leaf_value=0.041940036952081899 0.0064656651449730993 0.015102625972135662 0.012363424588984156 0.050713267869368972 -0.024296540925362885 0.012386017320754589 -0.0014192153780149151
leaf_weight=7.4563499093055707 3.7172488570213309 5.5996360033750525 7.3538879603147498 40.533684611320496 27.569108933210376 7.3602609038352966 2.6448286324739447
leaf_count=16 17 20 24 64 169 24 13
internal_value=0.0203291 -0.0140419 0.041878 0.0455103 -0.0191463 0.0289702 -0.0224036
internal_weight=102.235 39.5308 62.7042 55.3503 33.9312 14.8166 30.2139
internal_count=347 219 128 104 199 40 182
is_linear=0
shrinkage=0.02


Tree=10
num_leaves=10
num_cat=0
split_feature=35 44 11 34 34 31 19 18 11
split_gain=190.9 19.0105 9.79613 9.28746 9.31282 7.00211 4.70537 4.0952 1.16751
threshold=0.52583933546504591 268.31250000000006 0.1685446453934287 0.45273815774107123 0.76696112484652046 17.204166666666669 15.614583333333334 -132.05678596134115 0.12793180607352159
decision_type=2 2 2 2 2 2 2 2 2
left_child=2 -2 5 6 -5 -1 -3 -8 -9
right_child=1 3 -4 4 -6 -7 7 8 -10
leaf_value=-0.024247315387973024 0.00034872250818514716 -0.0075889098475629291 0.015747849439894365 0.0034938775553697205 0.039967974584277831 0.0024794983392960128 0.014059588352847867 0.030815208979727997 0.04981263811358369
leaf_weight=26.170822724699978 4.5384763330221167 0.38756093382835288 2.5733707696199408 5.7682878822088224 4.8587860018014908 4.3774515986442557 2.5352292954921642 7.8652341365814271 47.138087183237076
leaf_count=161 19 2 9 21 9 21 7 19 75
internal_value=0.0222059 0.0400853 -0.017268 0.0426732 0.0221734 -0.0204603 0.0459939 0.0464783 0.0476948
internal_weight=106.213 73.0917 33.1216 68.5532 10.6271 30.5483 57.9261 57.5386 55.0033
internal_count=343 152 191 133 30 182 103 101 94
is_linear=0
shrinkage=0.02


Tree=11
num_leaves=9
num_cat=0
split_feature=35 44 11 34 34 33 19 11
split_gain=181.216 17.8655 9.57781 8.55796 8.84436 8.47334 4.47479 1.94491
threshold=0.52583933546504591 268.31250000000006 0.1685446453934287 0.45273815774107123 0.76696112484652046 -84.343940399464529 15.614583333333334 0.12793180607352159
decision_type=2 2 2 2 2 2 2 2
left_child=2 -2 5 6 -5 -1 -3 -8
right_child=1 3 -4 4 -6 -7 7 -9
leaf_value=0.0065442265862426883 0.00034296110623794772 -0.0075541706498138805 0.015438442633441409 0.0034302838502150656 0.03887326738885874 -0.024164279424989034 0.029938177565436309 0.047452363246872034
leaf_weight=3.7059403657913235 4.5392055213451377 0.38616891205310722 2.5922937691211692 5.7761809825897199 4.9231960624456406 26.474410176277161 10.049937680363653 48.250928863883018
leaf_count=17 19 2 9 21 9 165 24 77
internal_value=0.0216825 0.0388761 -0.0171039 0.0413562 0.0216677 -0.0203045 0.0445225 0.044989
internal_weight=106.698 73.9256 32.7726 69.3864 10.6994 30.1804 58.687 58.3009
internal_count=343 152 191 133 30 182 103 101
is_linear=0
shrinkage=0.02


Tree=12
num_leaves=11
num_cat=0
split_feature=35 44 44 33 34 34 19 18 22 19
split_gain=172.191 16.8225 9.27154 9.176 7.90956 8.4108 4.26341 3.66267 1.44799 1.19144
threshold=0.52583933546504591 268.31250000000006 342.08333333333343 -85.342173365424074 0.45273815774107123 0.76696112484652046 15.614583333333334 -132.05678596134115 5.5979166666666682 19.485416666666673
decision_type=2 2 2 2 2 2 2 2 2 2
left_child=2 -2 3 -1 6 -6 -3 -8 -9 -10
right_child=1 4 -4 -5 5 -7 7 8 9 -11
leaf_value=0.0086991636013094269 0.00033729647715058446 -0.0075196924066176498 0.014934750814212548 -0.024036379306816139 0.00336792058281164 0.037839494482789782 0.013239224124519449 0.024816981416476182 0.021687491303185542 0.047410357562013339
leaf_weight=3.400677531957629 4.539922595024108 0.38477978110313316 2.6222788393497458 26.400539726018906 5.7839121818542463 4.9832418709993362 2.5726458430290142 5.2075158357620301 3.2261122465133658 47.992585062980652
leaf_count=15 19 2 9 167 21 9 7 12 8 74
internal_value=0.0211835 0.0377387 -0.0169411 -0.0201397 0.0401204 0.0211819 0.0431466 0.0435968 0.0447263 0.0462365
internal_weight=107.114 74.6907 32.4235 29.8012 70.1508 10.7672 59.3836 58.9989 56.4262 51.2187
internal_count=343 152 191 182 133 30 103 101 94 82
is_linear=0
shrinkage=0.02


Tree=13
num_leaves=9
num_cat=0
split_feature=10 0 31 34 34 31 11 19
split_gain=148.433 13.5819 12.0661 10.7638 9.08501 9.03064 5.42716 4.54335
threshold=0.00070693664256595002 10.433333333333335 11.568750000000003 -0.82897401153126982 0.45273815774107123 17.204166666666669 0.12885906968940644 28.404166666666669
decision_type=2 2 2 2 2 2 2 2
left_child=1 2 -1 -2 6 -3 -5 -6
right_child=3 5 -4 4 7 -7 -8 -9
leaf_value=0.024840310508687579 0.0036314239098533302 -0.023752685405114181 -0.0193946002668824 0.023311796047195368 0.028182172446168351 0.0088440049399673096 0.045126929500519088 0.0016710350007766639
leaf_weight=5.4860228449106199 3.8850981444120398 23.401596859097484 3.0700774937868118 8.8951865285634977 7.1019953638315183 3.4204858690500251 48.196606785058975 3.9923201948404312
leaf_count=16 15 151 18 22 17 16 74 14
internal_value=0.020718 -0.0125991 0.00859946 0.0370212 0.0388436 -0.0194273 0.0421878 0.019569
internal_weight=107.449 35.3782 8.5561 72.0712 68.1861 26.8221 57.0918 11.0943
internal_count=343 201 34 142 127 167 96 31
is_linear=0
shrinkage=0.02


Tree=14
num_leaves=8
num_cat=0
split_feature=35 44 10 34 34 32 35
split_gain=156.396 20.805 8.92417 6.97688 7.87572 5.94626 4.0685
threshold=0.52583933546504591 251.70833333333334 0.00098856207265330038 0.45273815774107123 0.76696112484652046 17.204166666666669 0.79773375822167203
decision_type=2 2 2 2 2 2 2
left_child=2 -2 5 6 -5 -1 -3
right_child=1 3 -4 4 -6 -7 -8
leaf_value=-0.023781279136308866 -0.0083638760680465468 0.022503817552888685 0.014440386792737601 0.0030949298592898855 0.036243800282443187 0.00026576219885311096 0.043109858213976907
leaf_weight=24.213814646005638 3.7325221747159949 7.9675155729055396 2.6574469655752173 5.8190955668687803 5.0731728076934814 4.8887706398963919 53.400683924555779
leaf_count=157 17 21 9 21 9 25 84
internal_value=0.0202607 0.0357 -0.0166434 0.0380591 0.0202837 -0.0198671 0.0408383
internal_weight=107.753 75.993 31.76 72.2605 10.8923 29.1026 61.3682
internal_count=343 152 191 135 30 182 105
is_linear=0
shrinkage=0.02


Tree=15
num_leaves=8
num_cat=0
split_feature=9 12 35 7 22 19 41
split_gain=146.206 17.8309 17.5895 9.1291 5.77701 5.65504 1.79386
threshold=1394.8046875000002 123.63977311544546 0.85561368268953431 -0.98532290226914621 5.3083333333333336 30.979166666666671 4.354166666666667
decision_type=2 2 2 2 2 2 2
left_child=1 -1 4 -3 -2 -6 -5
right_child=2 3 -4 6 5 -7 -8
leaf_value=0.0052744460300824369 0.0044934745440999993 -0.013263264200288402 0.021789888924902332 0.043694811269792057 -0.023783533678584396 -0.00062662423932953568 0.028891402124166968
leaf_weight=6.8657333850860587 4.0648716688156119 0.82856331765651603 4.5549548268318167 47.18592494726181 24.415615633130077 5.123690426349639 12.972788229584692
leaf_count=22 20 4 13 74 159 27 28
internal_value=0.0192678 0.0366927 -0.0118621 0.0400875 -0.0169214 -0.0199189 0.0410272
internal_weight=106.012 67.853 38.1591 60.9873 33.6042 29.5393 60.1587
internal_count=347 128 219 106 206 186 102
is_linear=0
shrinkage=0.02


Tree=16
num_leaves=9
num_cat=0
split_feature=10 13 12 31 18 30 24 41
split_gain=137.605 17.0733 16.6686 6.52162 5.81091 2.92422 1.89181 1.98033
threshold=0.00070693664256595002 4.0500000000000016 123.63977311544546 17.204166666666669 -132.05678596134115 97.544255901806977 -70.891956390931156 4.354166666666667
decision_type=2 2 2 2 2 2 2 2
left_child=1 3 -2 5 -4 -1 -6 -8
right_child=2 -3 4 -5 6 -7 7 -9
leaf_value=-0.023728191373980755 0.0051750772353121042 0.014721748591101235 0.0023220824739614765 0.0045698588660918801 -0.0044262883273448409 -0.0011287146731764897 0.042802715165402683 0.028027162687281077
leaf_weight=23.847430825233467 6.8767034560441962 7.1340035945177069 1.8265926390886296 4.0576738864183417 0.19447077810764213 2.6359028667211524 46.560996517539024 13.083750277757643
leaf_count=157 22 27 6 20 1 14 72 28
internal_value=0.0188558 -0.0116569 0.0355539 -0.01809 0.038805 -0.0216018 0.0398621 0.0400771
internal_weight=106.218 37.675 68.5425 30.541 61.6658 26.4833 59.8392 59.6447
internal_count=347 218 129 191 107 171 101 100
is_linear=0
shrinkage=0.02


Tree=17
num_leaves=8
num_cat=0
split_feature=9 35 12 22 21 13 2
split_gain=132.682 17.0226 15.96 7.21846 3.7483 3.16782 1.2684
threshold=1394.8046875000002 0.7487283477006671 123.63977311544546 5.2479166666666677 207.52541777911864 1.1500000000000004 963.08958333333351
decision_type=2 2 2 2 2 2 2
left_child=2 3 -1 -2 -5 6 -4
right_child=1 -3 5 4 -6 -7 -8
leaf_value=0.0050777492621348567 0.0067288830436622038 0.015241594677573361 0.018500126889340246 -0.023574075467347601 0.0024957778701188392 0.023013564562924745 0.041390285641415739
leaf_weight=6.8874012976884833 3.7177447676658657 6.8920795470476142 3.3606292456388465 24.734522715210918 2.2147595733404151 9.8317114263772947 48.74475309252739
leaf_count=22 18 23 8 166 12 23 75
internal_value=0.0184603 -0.0115825 0.0347865 -0.0179019 -0.0214189 0.0379569 0.0402901
internal_weight=106.384 37.5591 68.8245 30.667 26.9493 61.9371 52.1054
internal_count=347 219 128 196 178 106 83
is_linear=0
shrinkage=0.02


Tree=18
num_leaves=8
num_cat=0
split_feature=9 13 13 19 31 30 12
split_gain=126.577 16.5226 15.2398 7.85226 6.0751 2.92159 2.1051
threshold=1394.8046875000002 4.0500000000000016 1.5500000000000003 33.23125000000001 17.204166666666669 97.544255901806977 133.71890413466025
decision_type=2 2 2 2 2 2 2
left_child=2 4 6 -4 5 -2 -1
right_child=1 -3 3 -5 -6 -7 -8
leaf_value=0.024600367205758495 -0.023547523236335261 0.01440181447570792 0.022388698116629826 -0.01087051918045619 0.00365888537982953 -0.00091505108901929211 0.040124433062689521
leaf_weight=10.500927045941351 23.256904393434532 7.1691944748163214 6.4941036105155927 3.801263689994812 4.2164269983768454 2.6096677780151358 48.432666406035423
leaf_count=23 157 27 15 15 21 14 75
internal_value=0.0180889 -0.0114439 0.0339173 0.0102335 -0.0178685 -0.0213832 0.0378149
internal_weight=106.481 37.2522 69.229 10.2954 30.083 25.8666 58.9336
internal_count=347 219 128 30 192 171 98
is_linear=0
shrinkage=0.02


Tree=19
num_leaves=8
num_cat=0
split_feature=10 13 12 7 33 30 41
split_gain=119.439 16.0022 14.5895 8.21121 6.89508 3.35208 1.53116
threshold=0.00070693664256595002 4.0500000000000016 123.63977311544546 -0.98532290226914621 -84.343940399464529 102.60015931783038 4.354166666666667
decision_type=2 2 2 2 2 2 2
left_child=1 4 -2 -4 -1 -6 -5
right_child=2 -3 3 6 5 -7 -8
leaf_value=0.0061958939540914882 0.0046529721058571763 0.01406742857148661 -0.013650948544039287 0.039206393362878636 -0.023446427127298719 0.0012449656435228995 0.025968054136900606
leaf_weight=3.7801026105880764 6.9301731884479514 7.2161055207252494 0.84089368581771751 48.681083381175995 23.481594592332844 2.3087396323680869 13.31028927862644
leaf_count=18 22 27 4 75 161 12 28
internal_value=0.0177269 -0.0112392 0.032944 0.0359426 -0.0176729 -0.0212721 0.0368213
internal_weight=106.549 36.7865 69.7624 62.8323 29.5704 25.7903 61.9914
internal_count=347 218 129 107 191 173 103
is_linear=0
shrinkage=0.02


Tree=20
num_leaves=8
num_cat=0
split_feature=35 3 20 23 8 23 39
split_gain=130.714 21.8599 14.7657 6.65196 3.95877 3.22028 2.96376
threshold=0.52583933546504591 7.3062500000000012 28.093750000000004 5.3083333333333336 -0.94408795196129869 15.214583333333335 15.4125
decision_type=2 2 2 2 2 2 2
left_child=3 4 -3 -1 -2 -5 -6
right_child=1 2 -4 5 6 -7 -8
leaf_value=0.0051115606965890618 0.0036815593707554602 0.022657853749476719 -0.015370569081403733 -0.023625950391102025 0.014369881917162833 0.00090152388886064274 0.038820773457309908
leaf_weight=3.9124230891466167 1.6622256040573109 10.243024155497549 5.5505754649639121 24.57974894344807 3.6782388985157004 2.2581838816404334 50.065684467554092
leaf_count=19 5 27 24 168 9 11 74
internal_value=0.0159028 0.0306579 0.00917354 -0.0181509 0.0365108 -0.0216039 0.0374404
internal_weight=101.95 71.1997 15.7936 30.7504 55.4061 26.8379 53.7439
internal_count=337 139 51 198 88 179 83
is_linear=0
shrinkage=0.02


Tree=21
num_leaves=9
num_cat=0
split_feature=35 3 22 18 23 34 23 8
split_gain=125.359 20.9 13.7854 11.0927 6.54016 3.82081 3.18366 2.08212
threshold=0.52583933546504591 7.3062500000000012 11.450000000000001 14.228780494731366 5.3083333333333336 -0.80924678377697201 15.214583333333335 -0.94408795196129869
decision_type=2 2 2 2 2 2 2 2
left_child=4 5 3 -3 -1 -2 -6 -7
right_child=1 2 -4 -5 6 7 -8 -9
leaf_value=0.005018770624239023 0.0035752902568582136 0.013749228041099008 0.032225308501131825 -0.024109665467521361 -0.02351157329965501 0.0068861688626047496 0.00088873980140697013 0.037249777592918532
leaf_weight=3.9234395176172283 1.6745502054691304 5.5071787685155851 5.3695178329944602 4.9572817981243134 24.213879734277729 1.4349394291639317 2.2592294365167609 52.503029569983482
leaf_count=19 5 17 10 24 168 4 11 79
internal_value=0.0156082 0.0299587 0.00897591 -0.00472411 -0.0180024 0.0356689 -0.0214727 0.036582
internal_weight=101.843 71.4465 15.834 10.4645 30.3965 55.6125 26.4731 53.938
internal_count=337 139 51 41 198 88 179 83
is_linear=0
shrinkage=0.02


Tree=22
num_leaves=8
num_cat=0
split_feature=35 3 20 23 34 23 4
split_gain=120.333 19.9416 13.9422 6.43081 3.63994 3.14791 0.429752
threshold=0.52583933546504591 7.3062500000000012 28.093750000000004 5.3083333333333336 -0.80924678377697201 15.214583333333335 143.85416666666671
decision_type=2 2 2 2 2 2 2
left_child=3 4 -3 -1 -2 -5 -6
right_child=1 2 -4 5 6 -7 -8
leaf_value=0.0049278499733015884 0.0035285357298626193 0.021796475839726607 -0.015160987130424632 -0.023399776784637127 0.037900771432099634 0.00087613814424751405 0.025972830114280924
leaf_weight=3.9342528283596065 1.6760388463735569 10.341832831501959 5.5117374658584586 23.851396799087528 42.019641324877739 2.2602600157260886 12.086350232362745
leaf_count=19 5 27 24 168 59 11 24
internal_value=0.0153285 0.029301 0.00881045 -0.0178557 0.0348668 -0.0213436 0.035756
internal_weight=101.682 71.6356 15.8536 30.0459 55.782 26.1117 54.106
internal_count=337 139 51 198 88 179 83
is_linear=0
shrinkage=0.02


Tree=23
num_leaves=8
num_cat=0
split_feature=35 3 20 31 17 34 4
split_gain=115.57 19.1334 13.4022 6.23427 9.85585 3.47592 0.444284
threshold=0.52583933546504591 7.3062500000000012 28.093750000000004 15.295833333333336 15.110416666666669 -0.80924678377697201 130.72916666666671
decision_type=2 2 2 2 2 2 2
left_child=3 5 -3 -1 -5 -2 -7
right_child=1 2 -4 4 -6 6 -8
leaf_value=-0.023099459559879791 0.0034824169495114399 0.021274573311311634 -0.014976531588267344 0.019382930790894065 -0.020343968860836874 0.037344127164630779 0.026132541850170065
leaf_weight=21.628912582993511 1.6774995326995839 10.407481789588926 5.4806596040725699 3.6285098791122419 4.44109708070755 40.275225251913071 13.954790890216826
leaf_count=156 5 27 24 13 29 56 27
internal_value=0.0150589 0.0286713 0.0086233 -0.0177108 -0.00231316 0.0341171 0.0349845
internal_weight=101.494 71.7957 15.8881 29.6985 8.06961 55.9075 54.23
internal_count=337 139 51 198 42 88 83
is_linear=0
shrinkage=0.02


Tree=24
num_leaves=8
num_cat=0
split_feature=35 3 20 23 8 23 39
split_gain=111.082 18.3816 12.8871 6.27293 3.60085 3.11115 2.91849
threshold=0.52583933546504591 7.3062500000000012 28.093750000000004 5.3083333333333336 -0.94408795196129869 15.214583333333335 15.4125
decision_type=2 2 2 2 2 2 2
left_child=3 4 -3 -1 -2 -5 -6
right_child=1 2 -4 5 6 -7 -8
leaf_value=0.0048807628370686135 0.0028165386590277455 0.020771629996465306 -0.014794783654081581 -0.02319971310638945 0.012502214347701246 0.00098736844831414923 0.035624394596449539
leaf_weight=3.9352435469627407 1.6861562281846989 10.469859659671782 5.4496255964040747 23.167863681912426 3.7426568865776053 2.2450813055038443 50.569646805524826
leaf_count=19 5 27 24 168 9 11 74
internal_value=0.0147989 0.0280702 0.00844156 -0.0175759 0.0334044 -0.0211064 0.0342859
internal_weight=101.266 71.9179 15.9195 29.3482 55.9985 25.4129 54.3123
internal_count=337 139 51 198 88 179 83
is_linear=0
shrinkage=0.02


Tree=25
num_leaves=9
num_cat=0
split_feature=44 9 7 22 31 5 33 24
split_gain=106.609 13.9241 12.1442 11.8607 3.66117 2.10473 1.27882 0.640385
threshold=283.58333333333343 902.78732638888903 0.099522441197536018 5.2479166666666677 17.797916666666669 30.250000000000004 -116.47468499800537 -32.905745458820839
decision_type=2 2 2 2 2 2 2 2
left_child=3 5 -3 -1 -5 -2 -7 -8
right_child=1 2 -4 4 -6 6 7 -9
leaf_value=0.012886171159128082 0.010483442397305432 0.024575826821100419 -0.0082057043319005516 -0.023191744670791117 0.0027180423927087626 0.014991430793701797 0.014222255403787463 0.036397598243967627
leaf_weight=4.3296778351068523 2.5286680310964575 11.576741188764574 6.4306769222021094 21.558800622820858 2.196665331721305 3.257353499531745 2.2613152265548697 53.341272354125977
leaf_count=17 6 27 29 157 12 7 5 78
internal_value=0.0177671 0.0295189 0.0130533 -0.0153278 -0.0207829 0.0340622 0.0348831 0.0357629
internal_weight=107.481 79.396 18.0074 28.0851 23.7555 61.3886 58.8599 55.6026
internal_count=338 152 56 186 169 96 90 83
is_linear=0
shrinkage=0.02


Tree=26
num_leaves=9
num_cat=0
split_feature=44 9 7 22 21 5 33 24
split_gain=102.324 13.3971 11.6396 11.5992 3.64605 2.00182 1.19972 0.591731
threshold=283.58333333333343 902.78732638888903 0.099522441197536018 5.2479166666666677 207.52541777911864 30.250000000000004 -116.47468499800537 -32.905745458820839
decision_type=2 2 2 2 2 2 2 2
left_child=3 5 -3 -1 -5 -2 -7 -8
right_child=1 2 -4 4 -6 6 7 -9
leaf_value=0.012616833826085352 0.010323003887899019 0.024006975745898829 -0.0080869020119870728 -0.023044929653282132 0.0031051662595503395 0.014752905601405733 0.014006285852965037 0.035642291587875859
leaf_weight=4.3547542244195965 2.5321153551340094 11.637106388807299 6.4095500260591498 21.319527134299282 2.1132393032312384 3.2599589377641669 2.2656352818012229 53.402716144919395
leaf_count=17 6 27 29 157 12 7 5 78
internal_value=0.0174563 0.028911 0.0127822 -0.0151845 -0.0206561 0.0333665 0.0341679 0.0350244
internal_weight=107.295 79.5071 18.0467 27.7875 23.4328 61.4604 58.9283 55.6684
internal_count=338 152 56 186 169 96 90 83
is_linear=0
shrinkage=0.02


Tree=27
num_leaves=8
num_cat=0
split_feature=44 4 23 22 25 20 33
split_gain=98.2647 11.8884 17.4826 11.3447 8.23423 3.66517 0.989994
threshold=283.58333333333343 123.0749430128479 7.4125000000000005 5.2479166666666677 14.460416666666669 38.429166666666674 -147.88171423052344
decision_type=2 2 2 2 2 2 2
left_child=3 6 -3 -1 -4 -5 -2
right_child=1 2 4 5 -6 -7 -8
leaf_value=0.012354654786207517 0.0075476787471006517 -0.014608516003204772 0.03250147742261867 -0.022986435299198481 0.0044861266537241382 0.0030513162065428107 0.034125103141877368
leaf_weight=4.3791949152946499 1.2252748459577549 5.1979694366455105 13.746038600802423 20.956220984458927 6.3673033714294425 2.1561466529965392 53.042525768280029
leaf_count=17 3 24 27 157 20 12 78
internal_value=0.017157 0.0283296 0.0160302 -0.0150433 0.0242652 -0.0205316 0.0336725
internal_weight=107.071 79.5791 25.3113 27.4916 20.1133 23.1124 54.2678
internal_count=338 152 71 186 47 169 81
is_linear=0
shrinkage=0.02


Tree=28
num_leaves=10
num_cat=0
split_feature=44 9 18 22 18 31 33 28 35
split_gain=94.3776 12.6159 12.6873 11.0964 4.38477 3.68138 1.04736 0.536247 0.0976756
threshold=283.58333333333343 902.78732638888903 19.827962329296017 5.2479166666666677 -119.16075577797402 17.797916666666669 -116.47468499800537 13.902083333333335 0.79773375822167203
decision_type=2 2 2 2 2 2 2 2 2
left_child=3 4 7 -1 -2 -5 -6 -3 -8
right_child=1 2 -4 5 6 -7 8 -9 -10
leaf_value=0.012099367733494527 -0.0110996323039733 0.014840155844441689 -0.012991017901332218 -0.022902553444297414 0.014183279175131099 0.0031748391083970019 0.023790359276737807 0.028313131860797203 0.034929676041838761
leaf_weight=4.4030164629220989 0.48348599672317405 7.5708110779523867 5.0479187220334998 20.641736909747127 3.2614122480154029 2.1544829905033103 10.275172501802443 5.5069512724876404 47.477541282773018
leaf_count=17 2 21 25 157 7 12 21 10 66
internal_value=0.0168621 0.0277634 0.012175 -0.0149033 0.0320895 -0.0204081 0.0326052 0.0221217 0.0333865
internal_weight=106.823 79.6233 18.1257 27.1992 61.4976 22.7962 61.0141 13.0778 57.7527
internal_count=338 152 56 186 96 169 94 31 87
is_linear=0
shrinkage=0.02


Tree=29
num_leaves=10
num_cat=0
split_feature=44 9 18 22 18 20 33 28 35
split_gain=90.7513 12.1448 12.2225 10.8542 4.26255 3.65344 0.99193 0.521675 0.137773
threshold=283.58333333333343 902.78732638888903 19.827962329296017 5.2479166666666677 -119.16075577797402 38.429166666666674 -116.47468499800537 13.902083333333335 0.79773375822167203
decision_type=2 2 2 2 2 2 2 2 2
left_child=3 4 7 -1 -2 -5 -6 -3 -8
right_child=1 2 -4 5 6 -7 8 -9 -10
leaf_value=0.011850720567231934 -0.011034480124517285 0.014535046346162591 -0.012836801629839923 -0.022795556442105007 0.01396168339651334 0.0032515561930592479 0.02328826074976699 0.027741594526772068 0.034293504779710174
leaf_weight=4.4262349456548717 0.48252794146537681 7.5958718359470385 5.018700197339057 20.345990255475048 3.2627702206373206 2.1379235386848441 10.307993009686468 5.5283785313367844 47.410308212041855
leaf_count=17 2 21 25 157 7 12 21 10 66
internal_value=0.0165868 0.0272366 0.0119516 -0.0147647 0.0314849 -0.0202858 0.0319939 0.0216683 0.0327581
internal_weight=106.517 79.6065 18.143 26.9101 61.4636 22.4839 60.9811 13.1243 57.7183
internal_count=338 152 56 186 96 169 94 31 87
is_linear=0
shrinkage=0.02


Tree=30
num_leaves=8
num_cat=0
split_feature=10 2 33 12 30 20 4
split_gain=77.2205 24.9003 9.75565 4.45455 3.12877 2.23147 1.21742
threshold=0.0010904134215000002 972.09791666666672 -76.823648975903623 133.71890413466025 123.46320708165814 10.441666666666668 113.12182394356748
decision_type=2 2 2 2 2 2 2
left_child=1 2 -1 -2 5 -4 -5
right_child=3 -3 4 6 -6 -7 -8
leaf_value=0.0090585755359587714 0.015643878173630867 0.01926210471758192 -0.0046939459417622417 0.033427905037101836 0.0026853603666037568 -0.023853906885488278 0.021070867225045888
leaf_weight=5.0784204602241507 12.582915365695952 10.477377861738203 3.353385776281363 39.006686374545097 2.0925063639879218 21.622817829251289 11.302102833986281
leaf_count=24 28 29 22 54 11 157 23
internal_value=0.0143961 -0.00631829 -0.014985 0.0283142 -0.0196579 -0.0215612 0.0311166
internal_weight=105.516 42.6245 32.1471 62.8917 27.0687 24.9762 50.3088
internal_count=348 243 214 105 190 179 77
is_linear=0
shrinkage=0.02


Tree=31
num_leaves=10
num_cat=0
split_feature=44 9 2 15 2 32 25 9 44
split_gain=74.6644 15.7784 12.4795 14.6946 9.61318 9.14535 3.11124 1.88149 0.000720916
threshold=283.58333333333343 547.52250788940216 970.00416666666695 1.3000000000000014 973.45208333333346 17.204166666666669 9.2125000000000004 1188.0683732012835 418.93750000000006
decision_type=2 2 2 2 2 2 2 2 2
left_child=4 8 3 -3 5 -1 -4 -5 -2
right_child=1 2 6 7 -6 -7 -8 -9 -10
leaf_value=-0.022877227764616467 0.021131480444999316 0.018432326473755579 0.032476803453625268 -0.026340935923856761 0.019101929955557949 0.010385883158351868 0.014765623238973664 -0.0044364918811751596 0.033514937166480629
leaf_weight=21.065811522305019 6.9524545520544043 7.0448544621467573 8.3459592312574404 4.5268410295248032 2.2930598929524413 3.2913921400904647 12.779242932796476 2.8529206812381744 36.023102045059204
leaf_count=164 13 21 13 20 8 18 29 13 49
internal_value=0.0141665 0.0239102 0.0134774 -0.000932939 -0.0143699 -0.0181501 0.0229144 -0.0194129 0.0320377
internal_weight=105.176 78.5254 35.5498 14.4246 26.6503 24.3572 21.1252 7.37976 42.9756
internal_count=348 158 96 54 190 182 42 33 62
is_linear=0
shrinkage=0.02


Tree=32
num_leaves=10
num_cat=0
split_feature=44 9 33 22 24 13 21 33 44
split_gain=71.8878 15.3155 12.2505 11.8256 9.77556 7.44976 3.78834 3.72987 0.0165094
threshold=283.58333333333343 547.52250788940216 -20.268439218175779 5.3083333333333336 54.044809386356583 1.1500000000000004 212.27426586998592 -43.192671248107239 418.93750000000006
decision_type=2 2 2 2 2 2 2 2 2
left_child=3 8 4 -1 7 -4 -5 -3 -2
right_child=1 2 5 6 -6 -7 -8 -9 -10
leaf_value=0.013897122273177923 0.020755222970747462 -0.025131407319483334 0.029296055386056442 -0.022504999453696131 0.018541100184333522 0.0047438082748468679 0.004522151154570879 0.0011782049996582424 0.03297663157705346
leaf_weight=4.2587099075317409 6.9550207555294028 4.6828978657722464 15.29188519716263 20.142833337187771 4.5237645283341399 7.733674392104148 1.9645095318555821 3.3337750285863867 35.896492913365364
leaf_count=17 13 23 28 162 12 22 11 11 49
internal_value=0.0139523 0.0234867 0.0132205 -0.0142268 -0.00260675 0.0215903 -0.0200115 -0.0152732 0.0315116
internal_weight=104.784 78.4175 35.566 26.3661 12.5404 23.0256 22.1073 8.01667 42.8515
internal_count=348 158 96 190 46 50 173 34 62
is_linear=0
shrinkage=0.02


Tree=33
num_leaves=10
num_cat=0
split_feature=10 2 33 15 11 7 30 20 4
split_gain=69.3047 22.9748 8.71714 4.89881 6.13006 4.01803 3.04047 2.21473 0.30954
threshold=0.0010904134215000002 972.09791666666672 -74.244903791979155 1.6500000000000019 0.17660053712206533 0.5675016197075089 123.46320708165814 10.441666666666668 30.729166666666671
decision_type=2 2 2 2 2 2 2 2 2
left_child=1 2 -1 8 5 -5 7 -4 -2
right_child=3 -3 6 4 -6 -7 -8 -9 -10
leaf_value=0.0074635358921905483 0.018703002187252207 0.018287346620984073 -0.0044152992584713573 0.015189318096195441 0.029057048882321759 -0.0072748050036511259 0.0027263256484759942 -0.023631569245683548 0.03254159000049691
leaf_weight=5.3686537519097355 5.6024902462959281 10.554974131286142 3.287391856312758 7.5681471973657626 9.240588113665579 4.3086246997117996 2.075960546731948 20.577628821134567 35.782450959086418
leaf_count=26 10 29 22 16 14 14 11 155 51
internal_value=0.0137417 -0.00610328 -0.0146373 0.0269208 0.0175919 0.00710777 -0.0193184 -0.0212686 0.0311537
internal_weight=104.367 41.8646 31.3096 62.5023 21.1174 11.8768 25.941 23.865 41.3849
internal_count=348 243 214 105 44 30 188 177 61
is_linear=0
shrinkage=0.02


Tree=34
num_leaves=10
num_cat=0
split_feature=44 9 33 22 24 13 21 33 44
split_gain=67.1354 14.5488 11.6493 11.4318 9.34529 7.10145 3.74195 3.57461 0.0970223
threshold=283.58333333333343 547.52250788940216 -20.268439218175779 5.3083333333333336 54.044809386356583 1.1500000000000004 212.27426586998592 -43.192671248107239 418.93750000000006
decision_type=2 2 2 2 2 2 2 2 2
left_child=3 8 4 -1 7 -4 -5 -3 -2
right_child=1 2 5 6 -6 -7 -8 -9 -10
leaf_value=0.013506073090732715 0.019969097320432762 -0.024877260819628735 0.028407151776758215 -0.0223638229795356 0.017885129692244619 0.0044670527468873965 0.0045393032025568651 0.00097999701307404188 0.03203867888741202
leaf_weight=4.2896614372730282 6.9583817422389975 4.637137271463871 15.284289732575418 19.616278707981113 4.549109198153019 7.738131955265998 1.9596847146749485 3.3277796357870084 35.614337295293808
leaf_count=17 13 23 28 162 12 22 11 11 49
internal_value=0.0135336 0.0227138 0.0127236 -0.0140023 -0.00271931 0.0208815 -0.0198275 -0.0151697 0.0305695
internal_weight=103.975 78.1092 35.5364 25.8656 12.514 23.0224 21.576 7.96492 42.5727
internal_count=348 158 96 190 46 50 173 34 62
is_linear=0
shrinkage=0.02


Tree=35
num_leaves=10
num_cat=0
split_feature=9 22 11 33 16 8 34 2 2
split_gain=60.0708 17.2927 12.7346 5.7539 4.82412 4.85029 4.35664 2.61995 0.717236
threshold=1290.3921235264102 5.1708333333333343 0.12793180607352159 -82.026840093027388 5.6208333333333345 -0.94408795196129869 -0.58482361983252518 973.45208333333346 967.93541666666681
decision_type=2 2 2 2 2 2 2 2 2
left_child=2 -2 -1 -3 -4 -6 -7 -5 -8
right_child=1 3 4 7 5 6 8 -9 -10
leaf_value=-0.0035737296114501239 0.017689864458886428 0.0047738973154440303 -0.013378079473770692 -0.022635181374784534 -0.013044033566893452 0.011882367362095934 0.020039594748200561 0.00078792126587104699 0.030876327203686091
leaf_weight=6.4031542688608161 6.4764461368322364 3.827506177127364 0.69048024713992973 20.492458537220958 0.69269773364066978 8.8876035809516889 11.176254868507383 2.0240314081311217 41.684990003705025
leaf_count=21 24 19 3 167 3 23 20 8 61
internal_value=0.0123796 -0.00972192 0.0228014 -0.0168614 0.0254905 0.0261244 0.0267647 -0.0205857 0.0289998
internal_weight=102.356 32.8204 69.5352 26.344 63.132 62.4415 61.7488 22.5165 52.8612
internal_count=349 218 131 194 110 107 104 175 81
is_linear=0
shrinkage=0.02


Tree=36
num_leaves=9
num_cat=0
split_feature=35 3 20 28 34 44 11 21
split_gain=61.4839 17.0386 12.0198 10.5054 11.3541 3.67066 3.27693 1.92404
threshold=0.52583933546504591 7.3062500000000012 28.093750000000004 7.8875000000000011 0.35846314187849704 386.75000000000006 0.15857300015715856 -33.863484958415846
decision_type=2 2 2 2 2 2 2 2
left_child=3 5 -3 4 -1 -2 -5 -7
right_child=1 2 -4 6 -6 7 -8 -9
leaf_value=-0.018205635946844302 0.014623637893728439 0.013836947313782565 -0.023266036876798762 -0.022502028537672168 0.025540477089742369 0.01190133000823846 0.0039963724860237956 0.03014759830351002
leaf_weight=3.3538235276937511 12.654184505343435 9.2074111104011518 4.3113391250371924 18.429952651262287 4.3138174191117287 4.3162599503993979 1.760214328765868 43.569570422172546
leaf_count=28 28 26 22 149 17 9 7 63
internal_value=0.0121899 0.0216401 0.00121674 -0.0128121 0.00651311 0.0261068 -0.0201123 0.02878
internal_weight=101.917 74.0588 13.5188 27.8578 7.66764 60.54 20.1902 47.8858
internal_count=349 148 48 201 45 100 156 72
is_linear=0
shrinkage=0.02


Tree=37
num_leaves=10
num_cat=0
split_feature=9 22 11 33 16 8 34 2 2
split_gain=55.8205 16.5989 11.9785 5.63224 4.66984 4.68683 4.19624 2.58042 0.745727
threshold=1290.3921235264102 5.1708333333333343 0.12793180607352159 -82.026840093027388 5.6208333333333345 -0.94408795196129869 -0.58482361983252518 973.45208333333346 967.93541666666681
decision_type=2 2 2 2 2 2 2 2 2
left_child=2 -2 -1 -3 -4 -6 -7 -5 -8
right_child=1 3 4 7 5 6 8 -9 -10
leaf_value=-0.0035402029445684696 0.017200335277599656 0.0047362698582163743 -0.01339805801979599 -0.022491568325548498 -0.013048583604898507 0.011391472309765093 0.019311244895272802 0.00079778162504478699 0.030000448795221978
leaf_weight=6.3899842798709861 6.5240913927555075 3.822983697056773 0.69154611229896445 19.93668577820063 0.69281469285488029 8.8848021477460843 11.104633137583731 2.0193597078323355 41.363509342074394
leaf_count=21 24 19 3 167 3 23 20 8 61
internal_value=0.0120095 -0.00949551 0.0220509 -0.0166416 0.0246721 0.0253022 0.0259375 -0.0204081 0.0281416
internal_weight=101.43 32.3031 69.1273 25.779 62.7373 62.0458 61.3529 21.956 52.4681
internal_count=349 218 131 194 110 107 104 175 81
is_linear=0
shrinkage=0.02


Tree=38
num_leaves=9
num_cat=0
split_feature=44 0 31 32 11 23 7 41
split_gain=56.2459 21.1034 9.70614 8.85834 7.69511 5.73408 3.41212 1.60585
threshold=338.27083333333343 9.5979166666666682 11.568750000000003 17.204166666666669 0.13502110773013248 10.418750000000001 -0.87090549290721297 3.9166666666666674
decision_type=2 2 2 2 2 2 2 2
left_child=1 2 5 -3 -2 -1 -6 -8
right_child=4 3 -4 -5 6 -7 7 -9
leaf_value=0.0052908637687711299 0.005243485959840719 -0.022658524346159403 -0.012521926535901659 0.010100227909447741 0.0038496214546877554 0.032448832000923453 0.030823987074713455 0.01919412996158645
leaf_weight=6.6514983028173464 8.1935199946165067 20.701000228524212 4.5550373047590247 3.3014318794012061 2.8106210976839057 5.7354411780834198 35.359539821743965 13.655416980385779
leaf_count=22 22 172 22 18 7 9 50 27
internal_value=0.0118291 -0.00616976 0.0105607 -0.0179289 0.0240076 0.0193502 0.0268187 0.0280325
internal_weight=100.964 40.9444 16.942 24.0024 60.0191 12.3869 51.8256 49.015
internal_count=349 243 53 190 106 31 84 77
is_linear=0
shrinkage=0.02


Tree=39
num_leaves=10
num_cat=0
split_feature=35 3 20 28 32 8 2 12 44
split_gain=55.6909 15.4714 11.5074 10.2532 12.8961 6.20168 4.30665 3.13245 2.16755
threshold=0.52583933546504591 7.3062500000000012 28.093750000000004 7.8875000000000011 13.327083333333334 -0.94408795196129869 963.08958333333351 152.85822334539012 374.27083333333343
decision_type=2 2 2 2 2 2 2 2 2
left_child=3 5 -3 4 -1 -2 -7 -5 -8
right_child=1 2 -4 7 -6 6 8 -9 -10
leaf_value=-0.018218596540589917 -0.015016266021221355 0.013436083723470367 -0.023009064071492218 -0.022318383344231248 0.028355944211372389 0.0010457478589686812 0.01564758913643461 0.0036989805153813814 0.029017994450157597
leaf_weight=3.6253230795264271 0.91567982733249564 9.2327763438224775 4.2422164231538764 17.743982158601288 3.9711763709783554 2.7677445560693732 9.8898026347160322 1.7641047909855831 46.294718205928802
leaf_count=32 4 26 22 149 13 7 21 7 68
internal_value=0.0116654 0.0206454 0.00116545 -0.0125038 0.00659519 0.0249388 0.0257995 -0.0199 0.0269793
internal_weight=100.448 73.3429 13.475 27.1046 7.5965 59.8679 58.9523 19.5081 56.1845
internal_count=349 148 48 201 45 100 96 156 89
is_linear=0
shrinkage=0.02


Tree=40
num_leaves=10
num_cat=0
split_feature=9 22 35 18 19 43 15 2 20
split_gain=50.22 17.3657 8.73863 15.4 4.18085 6.58197 3.83393 2.01963 0.901814
threshold=1481.3667708229443 5.1708333333333343 0.87291090774974645 51.52915383984147 30.979166666666671 50.666666666666679 4.150000000000003 967.93541666666681 33.025000000000013
decision_type=2 2 2 2 2 2 2 2 2
left_child=2 -2 3 6 -3 -6 -1 -4 -9
right_child=1 4 7 -5 5 -7 -8 8 -10
leaf_value=0.028321917503810523 0.021670627995108188 -0.022170398167036358 0.015859520058372951 -0.01354372897345745 -0.018627709037934887 0.019027304590050271 0.0091006432442291424 0.032537370274945278 0.021129911129322308
leaf_weight=9.3652442246675545 4.5851837992668179 18.020043857395653 11.412415310740469 6.9601730927824965 3.1449799239635459 2.3716816008090973 9.2464222460985166 19.664935410022736 14.394398495554922
leaf_count=15 15 158 24 28 23 11 25 26 25
internal_value=0.011579 -0.0107721 0.0204532 0.0104999 -0.0177179 -0.0020037 0.0197236 0.0257042 0.0284565
internal_weight=99.1655 28.1219 71.0436 25.5718 23.5367 5.51666 18.6117 45.4717 34.0593
internal_count=350 207 143 68 192 34 40 75 51
is_linear=0
shrinkage=0.02


Tree=41
num_leaves=11
num_cat=0
split_feature=9 0 41 35 11 32 21 25 2 35
split_gain=48.4645 10.4675 8.71553 16.3759 6.47787 4.44813 6.53943 2.59413 1.68067 1.22935
threshold=1481.3667708229443 -0.25624999999999992 7.5625000000000009 0.94066717844141279 0.12793180607352159 17.204166666666669 -131.84620449533026 1.1666666666666667 968.8416666666667 0.82777578779003613
decision_type=2 2 2 2 2 2 2 2 2 2
left_child=2 -2 4 -4 -1 6 -3 -6 9 -9
right_child=1 5 3 -5 7 -7 -8 8 -10 -11
leaf_value=0.0053390155368665017 0.02753177519140964 0.0057939875051379354 -0.019045078427309459 0.024932727658647749 -0.0089706163125848806 0.0038896250939612089 -0.022247090563599251 0.0094708111269539621 0.029203980600572776 0.022996457445710848
leaf_weight=7.7546527236700049 1.7282771468162561 3.5836501717567506 5.5939553603529912 5.9941073358058929 0.40305022895336051 4.2433698475360861 18.30963434278965 6.5150036662817028 34.615379810333252 9.9466522037982923
leaf_count=23 4 18 24 10 2 25 160 17 51 16
internal_value=0.0114202 -0.0106536 0.0201325 0.00387667 0.0231955 -0.0141001 -0.0176045 0.0257323 0.0261731 0.0184924
internal_weight=98.6877 27.8649 70.8228 11.5881 59.2347 26.1367 21.8933 51.4801 51.077 16.4617
internal_count=350 207 143 34 109 203 178 86 84 33
is_linear=0
shrinkage=0.02


Tree=42
num_leaves=11
num_cat=0
split_feature=9 22 35 11 23 19 43 7 40 20
split_gain=46.7467 16.7066 8.36568 8.62862 5.4749 4.14886 6.38572 2.6801 2.10997 1.80719
threshold=1481.3667708229443 5.1708333333333343 0.87291090774974645 0.16243879914392093 7.3416666666666677 30.979166666666671 50.666666666666679 -0.89174884069977867 31.468750000000004 33.025000000000013
decision_type=2 2 2 2 2 2 2 2 2 2
left_child=2 -2 3 4 -1 -3 -7 -4 -5 -9
right_child=1 5 7 8 -6 6 -8 9 -10 -11
leaf_value=0.0099637565636055934 0.0211027690899405 -0.02202600604664804 0.0066286030381459875 0.028088275288862822 -0.016633515970261893 -0.018455065960696352 0.018712141948814077 0.030159074366814278 0.011107653076146091 0.018300034147077031
leaf_weight=5.1876056492328662 4.6243017762899425 17.520072020590309 3.7579838633537284 6.1135545819997779 5.2677349969744682 3.0804781615734091 2.3883652985095978 26.583233132958412 8.9394269585609418 14.702979043126104
leaf_count=14 15 158 9 10 24 23 11 39 20 27
internal_value=0.0112666 -0.0105244 0.0198232 0.0100953 -0.00371902 -0.0175008 -0.00183988 0.0249931 0.0193242 0.0264684
internal_weight=98.1657 27.6132 70.5525 25.5083 10.4553 22.9889 5.46884 45.0442 15.053 41.2862
internal_count=350 207 143 68 38 192 34 75 30 66
is_linear=0
shrinkage=0.02


Tree=43
num_leaves=13
num_cat=0
split_feature=9 0 41 35 11 33 35 25 33 29 7 40
split_gain=45.1182 10.0103 8.39716 15.5197 6.3489 6.08818 5.64325 2.50871 1.84549 0.949016 1.20489 0.401184
threshold=1481.3667708229443 -0.25624999999999992 7.5625000000000009 0.94066717844141279 0.12793180607352159 -84.343940399464529 0.7487283477006671 1.1666666666666667 -116.47468499800537 6.9625000000000004 -0.89174884069977867 25.872916666666672
decision_type=2 2 2 2 2 2 2 2 2 2 2 2
left_child=2 -2 4 -4 -1 -3 -7 -6 -9 -10 -11 -12
right_child=1 5 3 -5 7 6 -8 8 9 10 11 -13
leaf_value=0.004935025648748508 0.026710104984318854 0.0090823201656389085 -0.018784604498078856 0.024108252532245546 -0.0089599986759251633 -0.021938085926782088 0.0039055599121272217 0.00067164324533638075 0.012033887909533154 0.012425636924501854 0.015977398686865197 0.029540396962247445
leaf_weight=7.7624381184577933 1.7546810060739542 3.3781884834170368 5.5693890526890737 5.9644286632537842 0.40090008080005546 18.469971761107448 3.7582904100418082 1.2236079573631276 4.1330908536911002 4.3602075278758923 4.9568137377500596 35.952753096818924
leaf_count=23 4 17 24 10 2 171 15 3 9 9 10 53
internal_value=0.0111124 -0.0104089 0.0195143 0.00355014 0.0225345 -0.0138608 -0.0175885 0.0250655 0.0255032 0.0260927 0.0270885 0.0283175
internal_weight=97.6848 27.3611 70.3236 11.5338 58.7898 25.6065 22.2283 51.0274 50.6265 49.4029 45.2698 40.9096
internal_count=350 207 143 34 109 203 186 86 84 81 72 63
is_linear=0
shrinkage=0.02


Tree=44
num_leaves=10
num_cat=0
split_feature=9 22 35 18 13 19 43 7 20
split_gain=43.5295 16.0449 8.07019 14.2698 4.89203 4.09902 6.20496 2.57781 1.80319
threshold=1481.3667708229443 5.1708333333333343 0.87291090774974645 51.52915383984147 1.0000000180025095e-35 30.979166666666671 50.666666666666679 -0.89174884069977867 33.025000000000013
decision_type=2 2 2 2 2 2 2 2 2
left_child=2 -2 3 4 -1 -3 -7 -4 -9
right_child=1 5 7 -5 -6 6 -8 8 -10
leaf_value=0.025312845287305309 0.020517317792581681 -0.021884167096895887 0.0063732867561230623 -0.01351067237586959 0.0031041592532969325 -0.018314339907527306 0.018391574471345935 0.029456845601510899 0.017689881396796878
leaf_weight=12.470877408981329 4.664228260517123 17.01232730597258 3.7562782615423194 6.9111017361283293 6.0620621293783179 3.0226564928889266 2.4049413353204727 26.306403532624245 14.534479483962057
leaf_count=22 15 158 9 28 18 23 11 39 27
internal_value=0.0109682 -0.0102839 0.0192212 0.00968172 0.0185793 -0.0172882 -0.00171916 0.0243321 0.0257921
internal_weight=97.1454 27.1042 70.0412 25.444 18.5329 22.4399 5.4276 44.5972 40.8409
internal_count=350 207 143 68 40 192 34 75 66
is_linear=0
shrinkage=0.02


Tree=45
num_leaves=10
num_cat=0
split_feature=0 34 18 15 34 31 42 8 21
split_gain=47.304 10.168 17.6916 11.7372 13.1178 7.51005 4.49158 4.01278 0.304883
threshold=13.866666666666669 0.48314048284850658 25.030290140159256 3.6500000000000044 -0.52032787705993211 17.204166666666669 30.404166666666672 0.93120984292153031 144.31798825977373
decision_type=2 2 2 2 2 2 2 2 2
left_child=1 3 -3 8 7 -2 -6 -5 -1
right_child=5 2 -4 4 6 -7 -8 -9 -10
leaf_value=0.031339368717506463 -0.021436110284963911 0.017986626449633541 -0.024495008531444654 -0.022615969234230541 0.028048596068217923 0.0093443007158018898 0.0086993263939082535 0.0053804792553951855 0.022272964300671629
leaf_weight=29.184403970837593 14.711195267736914 11.135837249457834 4.8159488067030898 3.8761133998632422 10.432200446724897 3.3591828867793074 10.519391566514967 2.9836650118231773 16.822305232286453
leaf_count=43 143 29 27 21 18 18 25 10 28
internal_value=0.0133655 0.0192879 0.00447275 0.0223868 0.0115241 -0.0155243 0.0191726 -0.0113036 0.0285686
internal_weight=107.84 89.7699 15.9518 73.8181 27.8114 18.0704 20.9516 6.85978 46.0067
internal_count=362 201 56 145 74 161 43 31 71
is_linear=0
shrinkage=0.02


Tree=46
num_leaves=13
num_cat=0
split_feature=0 41 44 32 24 40 42 19 40 4 21 21
split_gain=45.7015 9.67855 9.889 7.75547 5.02522 4.72173 2.64384 2.26748 9.039 1.52834 0.956826 2.31237
threshold=13.866666666666669 4.8333333333333348 324.31250000000006 17.204166666666669 -37.091876547677174 12.879166666666668 33.087500000000013 33.687500000000007 49.291666666666679 259.86028945212541 64.902058789651491 92.001495913772004
decision_type=2 2 2 2 2 2 2 2 2 2 2 2
left_child=1 4 9 -2 -1 -6 -4 10 -9 -3 -7 -12
right_child=3 2 6 -5 5 7 -8 8 -10 -11 11 -13
leaf_value=2.2006637945671687e-05 -0.021437954617517612 -0.020969825388807036 0.021458575176212892 0.0099870944752821871 -0.013890297821796961 0.031975211638281188 0.004934569370609999 -0.0020326152308632103 0.025483045729678078 -0.0007928447819944178 0.0082519109874102121 0.026132309217834354
leaf_weight=3.6749666780233374 14.551247276365759 3.3183096870780018 9.2851307839155215 3.3015957698225966 0.69481898844241996 22.472503051161766 7.4310542047023764 6.395195439457896 16.356024354696274 2.4269460663199425 5.3057221025228527 12.075885102152823
leaf_count=14 142 19 17 19 3 37 19 22 25 12 13 20
internal_value=0.0131749 0.0189871 0.00720487 -0.0154049 0.0227744 0.0240744 0.0148061 0.0247075 0.0179887 -0.0138277 0.0280088 0.0214202
internal_weight=107.289 89.4366 22.4614 17.8528 66.9751 63.3001 16.7162 62.6053 22.7512 5.74526 39.8541 17.3816
internal_count=362 201 67 161 134 120 36 117 47 31 70 33
is_linear=0
shrinkage=0.02


Tree=47
num_leaves=9
num_cat=0
split_feature=9 13 13 2 33 30 10 1
split_gain=43.2207 11.8022 7.05669 18.9805 6.97175 4.39198 3.11778 3.09675
threshold=1394.8046875000002 4.0500000000000016 1.5500000000000003 970.54166666666686 -99.68527930939193 118.55262383314518 0.0010904134215000002 51.083333333333336
decision_type=2 2 2 2 2 2 2 2
left_child=2 4 6 -4 -2 -6 -1 -8
right_child=1 -3 3 -5 5 -7 7 -9
leaf_value=0.010488842380534465 0.010143502530885303 0.01377310580276991 -0.019280328337036707 0.027157237218452878 -0.022031531406082029 0.0087531163887197335 -0.0028635882169236009 0.025764139686570889
leaf_weight=8.8410167992115003 3.2118957266211572 6.9216227084398261 5.5782344788312894 6.6497446000576019 17.33177769929171 1.5320177599787701 1.3582384586334217 55.359598100185394
leaf_count=23 15 27 23 10 162 9 4 89
internal_value=0.0129848 -0.00766353 0.0206816 0.00611699 -0.0146904 -0.0192166 0.0232655 0.0250408
internal_weight=106.784 28.9973 77.7868 12.228 22.0757 18.8638 65.5589 56.7178
internal_count=362 213 149 33 186 171 116 93
is_linear=0
shrinkage=0.02


Tree=48
num_leaves=14
num_cat=0
split_feature=0 35 27 13 2 32 8 2 25 8 34 20 7
split_gain=42.8442 10.5796 15.3367 11.0774 13.4298 7.61334 3.18377 3.125 2.55165 1.06336 0.902328 0.699866 1.96164
threshold=13.866666666666669 0.87291090774974645 -46.855948879280042 0.45000000000000007 972.44166666666672 17.204166666666669 0.84704589585347956 960.01250000000016 4.5979166666666673 -0.91658238054743102 -0.56368474752277564 33.377083333333339 0.58143344131101371
decision_type=2 2 2 2 2 2 2 2 2 2 2 2 2
left_child=1 2 6 10 -5 -2 -1 -3 -9 -10 -4 -11 -13
right_child=5 7 3 4 -6 -7 -8 8 9 11 -12 12 -14
leaf_value=-0.025636262751233284 -0.02132086685820454 -0.010965210244764004 0.030811759267405866 -0.023384609542342786 0.019096276034244471 0.0098783850778771734 -0.00037102716775480062 -0.00063389412983981335 -0.004511775729845206 0.028514807683603826 0.017023242238259483 0.010288141985342751 0.024861753525808595
leaf_weight=3.7493894547224036 14.150597162544729 0.48110103607177634 8.9120642766356486 4.599888049066065 5.3565366938710213 3.3069621473550788 3.4915076494216919 1.5164714157581318 0.1971268504858007 29.930860698223114 9.2341474890708941 7.9809141010046032 13.291476443409918
leaf_count=18 142 2 15 27 14 19 12 4 1 46 23 18 21
internal_value=0.0128044 0.0184207 0.00953783 0.0161519 -0.000873005 -0.0151958 -0.0149769 0.0240167 0.0245322 0.0252726 0.0250507 0.0254715 0.0201015
internal_weight=106.199 88.7415 35.3435 28.1026 9.95642 17.4576 7.2409 53.398 52.9168 51.4004 18.1462 51.2033 21.2724
internal_count=362 201 109 79 41 161 30 92 90 86 38 85 39
is_linear=0
shrinkage=0.02


Tree=49
num_leaves=11
num_cat=0
split_feature=0 35 27 13 2 32 8 2 28 34
split_gain=41.4156 10.3065 14.8472 10.6795 13.0375 7.48136 3.113 3.05944 2.98763 0.88179
threshold=13.866666666666669 0.87291090774974645 -46.855948879280042 0.45000000000000007 972.44166666666672 17.204166666666669 0.84704589585347956 960.01250000000016 10.554166666666669 -0.56368474752277564
decision_type=2 2 2 2 2 2 2 2 2 2
left_child=1 2 6 9 -5 -2 -1 -3 -9 -4
right_child=5 7 3 4 -6 -7 -8 8 -10 -11
leaf_value=-0.025378462302792091 -0.021244345578802778 -0.010901403536551609 0.030297236747143776 -0.023202307907353267 0.018724208800370727 0.0096826397733986332 -0.00036527495752356555 0.013139599019111657 0.026809432865336262 0.016713815519115192
leaf_weight=3.7221591323614112 13.923421479761602 0.48010170459747215 8.8992519080638903 4.5516517460346204 5.3734141513705254 3.3263583853840819 3.4913073927164078 11.195021912455557 41.42003133893013 9.2354969829320925
leaf_count=18 142 2 15 27 14 19 12 24 66 23
internal_value=0.0126268 0.0181428 0.00937435 0.0158817 -0.00086718 -0.0150768 -0.0147906 0.0236871 0.0242002 0.0246146
internal_weight=105.618 88.3684 35.2733 28.0598 9.92507 17.2498 7.21347 53.0952 52.6151 18.1347
internal_count=362 201 109 79 41 161 30 92 90 38
is_linear=0
shrinkage=0.02


Tree=50
num_leaves=11
num_cat=0
split_feature=35 3 31 41 32 29 16 2 35 7
split_gain=40.5565 9.95076 15.6225 6.9737 14.0445 5.73151 3.2018 2.35696 1.21184 0.886091
threshold=0.52583933546504591 7.0583333333333345 11.568750000000003 5.1458333333333348 11.841666666666667 14.262500000000001 6.7791666666666677 967.93541666666681 0.73136292505298039 0.41049259104197705
decision_type=2 2 2 2 2 2 2 2 2 2
left_child=3 6 5 4 -1 -3 -2 -8 -9 -6
right_child=1 2 -4 -5 9 -7 7 8 -10 -11
leaf_value=-0.019858240383939331 -0.011721012547304756 0.0044920266375181152 -0.023878000293158577 -0.021621981546721149 0.008140573255417281 0.029256171801355736 0.012480036563299339 0.015912481904109117 0.028098910784234293 0.026010886804039873
leaf_weight=6.5789344310760516 0.49165943264961143 9.1316169202327746 4.4459443762898436 11.857980787754057 3.4042175859212875 5.8975088596343985 9.5816736668348295 9.0603619217872602 30.575338840484619 2.9907826483249664
leaf_count=67 2 29 23 110 19 9 20 18 45 11
internal_value=0.0104224 0.0182258 0.00572735 -0.0111824 -0.000776277 0.0154286 0.022913 0.0234854 0.0257733 0.0188853
internal_weight=94.016 69.1841 19.4751 24.8319 12.9739 15.0291 49.709 49.2174 39.6357 6.395
internal_count=353 146 61 207 97 38 85 83 63 30
is_linear=0
shrinkage=0.02


Tree=51
num_leaves=12
num_cat=0
split_feature=35 11 15 39 41 35 41 13 16 39 24
split_gain=39.2207 9.69154 9.60913 6.99569 6.87327 5.97906 12.107 3.40045 3.13844 2.40583 1.2083
threshold=0.52583933546504591 0.13281698616795981 1.4500000000000022 12.745833333333335 5.1458333333333348 0.24997576770840005 4.6458333333333339 4.3500000000000005 6.7791666666666677 18.762500000000003 -8.6109555244045399
decision_type=2 2 2 2 2 2 2 2 2 2 2
left_child=4 2 -2 -4 5 6 -1 -5 -3 -10 -11
right_child=1 8 3 7 -6 -7 -8 -9 9 10 -12
leaf_value=-0.020012038045764159 0.024282193377828477 -0.011649581679575105 0.01254904155630523 -0.024843482617450219 -0.021532673348235915 0.018486708161034704 0.028454143015248623 0.00024720999866339799 0.010507837128242357 0.012838852601679107 0.026706072394546948
leaf_weight=7.6315372213721293 6.1952598989009884 0.49091964960098167 5.1784014701843253 4.564928472042082 11.675006948411463 3.5285807549953452 1.7638106644153593 3.4998854845762253 7.334736004471778 5.7746112942695609 35.787358656525612
leaf_count=79 12 2 15 22 110 11 7 12 16 12 55
internal_value=0.010288 0.0179696 0.00563202 -0.00418492 -0.0110669 -0.000745065 -0.00905143 -0.0151288 0.0226174 0.023188 0.0251263
internal_weight=93.425 68.8261 19.4385 13.2432 24.5989 12.9239 9.39535 8.06481 49.3876 48.8967 41.562
internal_count=353 146 61 49 207 97 86 34 85 83 67
is_linear=0
shrinkage=0.02


Tree=52
num_leaves=11
num_cat=0
split_feature=35 3 20 19 41 32 16 2 35 7
split_gain=37.8996 9.44139 15.3072 7.74104 6.78138 13.4596 3.07638 2.37075 1.30025 0.820335
threshold=0.52583933546504591 7.0583333333333345 30.28541666666667 25.504166666666666 5.1458333333333348 11.841666666666667 6.7791666666666677 967.93541666666681 0.73136292505298039 0.41049259104197705
decision_type=2 2 2 2 2 2 2 2 2 2
left_child=4 6 3 -3 5 -1 -2 -8 -9 -7
right_child=1 2 -4 -5 -6 9 7 8 -10 -11
leaf_value=-0.019731138946788806 -0.011578878643796576 -0.0021898624966390787 -0.023828980724114022 0.026113057017802813 -0.021444567708837462 0.0079520433391029738 0.011943368893767445 0.015311529315208497 0.027575056223403085 0.025174064819586645
leaf_weight=6.4109819605946559 0.49015279114246268 6.115018934011462 4.4219659864902487 8.8733222484588605 11.49443908035755 3.4133023098111153 9.5092955678701383 9.022711515426634 30.041391804814339 3.0307104960083961
leaf_count=67 2 22 23 16 110 19 20 18 45 11
internal_value=0.0101588 0.0177151 0.00553847 0.0151511 -0.010951 -0.000697436 0.0223255 0.0228943 0.0251954 0.0183455
internal_weight=92.8233 68.4739 19.4103 14.9883 24.3494 12.855 49.0636 48.5734 39.0641 6.44401
internal_count=353 146 61 38 207 97 85 83 63 30
is_linear=0
shrinkage=0.02


Tree=53
num_leaves=10
num_cat=0
split_feature=35 3 20 41 32 35 39 21 18
split_gain=36.6603 9.20445 14.8524 6.68291 13.0803 5.74348 3.10912 2.71238 0.783351
threshold=0.52583933546504591 7.0583333333333345 30.28541666666667 5.1458333333333348 11.841666666666667 0.98332250088165762 18.762500000000003 -42.492902219241707 59.853261618629439
decision_type=2 2 2 2 2 2 2 2 2
left_child=3 6 5 4 -1 -3 -2 -8 -6
right_child=1 2 -4 -5 8 -7 7 -9 -10
leaf_value=-0.019645949907913633 0.0086693082744474098 0.0031317417828494627 -0.023626776235042196 -0.021357618404572305 0.0078035328298745564 0.027575530778277978 0.0071003578561133632 0.025986119648230794 0.024601494040459655
leaf_weight=6.3153045177459735 7.542329490184783 8.4259193390607852 4.3795988634228697 11.31627234816551 3.4275818541646004 6.5558471232652655 4.3001590073108664 36.88947194814682 3.0621729418635368
leaf_count=67 17 28 23 110 19 10 10 58 11
internal_value=0.0100283 0.01747 0.00544037 -0.0108384 -0.000668581 0.0148842 0.022044 0.0242295 0.017956
internal_weight=92.2147 68.0933 19.3614 24.1213 12.8051 14.9818 48.732 41.1896 6.48975
internal_count=353 146 61 207 97 38 85 68 30
is_linear=0
shrinkage=0.02


Tree=54
num_leaves=10
num_cat=0
split_feature=35 3 31 32 25 2 29 39 21
split_gain=35.4705 8.96086 14.4971 5.58249 10.5568 5.31691 5.19907 3.05166 2.66002
threshold=0.52583933546504591 7.0583333333333345 11.568750000000003 11.841666666666667 9.2458333333333353 962.03958333333344 14.262500000000001 18.762500000000003 -42.492902219241707
decision_type=2 2 2 2 2 2 2 2 2
left_child=3 7 6 -1 5 -5 -3 -2 -9
right_child=1 2 -4 4 -6 -7 -8 8 -10
leaf_value=-0.020622663055558259 0.0085259275763519861 0.0042320131996006205 -0.023434556679444784 -0.0046897001546547272 -0.020368015961578521 0.026606298263009358 0.027865335222122305 0.0069911675066452799 0.025696227886228218
leaf_weight=10.909424096345903 7.5327001810073844 9.0759372264146823 4.3562476485967627 3.3754744902253133 5.5964538976550102 4.0143441259860992 5.874991610646247 4.2956379503011695 36.573985949158669
leaf_count=121 17 29 23 26 47 13 9 10 58
internal_value=0.00990126 0.0172316 0.0053525 -0.0107274 -0.00153459 0.013456 0.0146835 0.0217658 0.0239441
internal_weight=91.6052 67.7095 19.3072 23.8957 12.9863 7.38982 14.9509 48.4023 40.8696
internal_count=353 146 61 207 86 39 38 85 68
is_linear=0
shrinkage=0.02


Tree=55
num_leaves=9
num_cat=0
split_feature=44 35 15 33 34 30 19 18
split_gain=36.2838 11.9626 6.52051 5.95886 3.7936 3.27565 2.36526 1.46502
threshold=315.39583333333343 0.85561368268953431 7.2500000000000009 -99.68527930939193 0.40614137006726808 118.55262383314518 10.027083333333335 -77.327041905142991
decision_type=2 2 2 2 2 2 2 2
left_child=1 3 4 -1 7 6 -5 -2
right_child=2 -3 -4 5 -6 -7 -8 -9
leaf_value=0.0097265026575551611 0.0079289586407451339 0.013742371780666568 0.0056425505782840791 -0.00028399997992220572 0.010896975900582763 0.0064580826705293685 -0.022204368245999008 0.026945627657230947
leaf_weight=3.2199997305870118 2.7573616206645957 8.1499616652727109 11.111200004816054 2.2581317797303262 10.547278687357901 1.666434958577155 15.904048293828962 38.646879963576794
leaf_count=15 6 20 28 17 25 10 157 64
internal_value=0.0115473 -0.0059711 0.020172 -0.0132233 0.0231142 -0.0172383 -0.019636 0.025896
internal_weight=94.2613 31.1986 63.0627 23.0486 51.9515 19.8286 18.1622 41.4042
internal_count=342 219 123 199 95 184 174 70
is_linear=0
shrinkage=0.02


Tree=56
num_leaves=9
num_cat=0
split_feature=44 35 15 33 34 30 2 22
split_gain=35.0625 11.5966 6.36501 5.82885 3.73803 3.2248 2.69534 0.758387
threshold=315.39583333333343 0.85561368268953431 7.2500000000000009 -99.68527930939193 0.40614137006726808 118.55262383314518 973.10000000000014 5.5979166666666682
decision_type=2 2 2 2 2 2 2 2
left_child=1 3 4 -1 7 6 -5 -2
right_child=2 -3 -4 5 -6 -7 -8 -9
leaf_value=0.0095406011697419749 0.010555748041717234 0.013485565969689537 0.0055430160464434485 -0.021935920930024319 0.010708209801781852 0.0063643148791523874 0.0027880300972405125 0.026515102340166356
leaf_weight=3.2364058867096963 3.091684252023696 8.1580182611942273 11.102550983428953 16.180145964026458 10.536282718181608 1.6718457788228978 1.7306272312998761 37.986574210226536
leaf_count=15 7 20 28 167 25 10 7 63
internal_value=0.0113969 -0.00588941 0.0198933 -0.0130915 0.0228161 -0.0171137 -0.0195259 0.0255934
internal_weight=93.6941 30.977 62.7171 22.819 51.6145 19.5826 17.9108 41.0783
internal_count=342 219 123 199 95 184 174 70
is_linear=0
shrinkage=0.02


Tree=57
num_leaves=9
num_cat=0
split_feature=35 13 42 43 33 23 40 15
split_gain=33.1135 9.09565 10.688 8.22854 6.56744 4.92951 2.33372 1.4773
threshold=0.52583933546504591 1.0000000180025095e-35 40.81666666666667 37.145833333333336 -89.952529274015788 9.6208333333333353 22.281250000000004 2.0500000000000016
decision_type=2 2 2 2 2 2 2 2
left_child=3 6 5 -1 -5 -3 -2 -8
right_child=1 2 -4 4 -6 -7 7 -9
leaf_value=0.014325365778766119 0.0028922981611391239 0.0018899003590627311 -0.015876735970561568 0.0073802903203817258 -0.021332122241180893 0.023299367063056291 0.025953200619186951 0.014952573773655595
leaf_weight=3.7097567692399052 2.6082630157470694 7.6092996895313325 5.3644632920622817 3.4762789160013243 14.415306642651554 9.5025136172771436 34.714364789426327 11.707174301147459
leaf_count=15 7 24 22 16 159 17 57 25
internal_value=0.0112524 0.0177539 0.00681223 -0.0101028 -0.015658 0.014409 0.0225334 0.0235527
internal_weight=93.1074 71.5061 22.4763 21.6013 17.8916 17.1118 49.0298 46.4215
internal_count=342 152 63 190 175 41 89 82
is_linear=0
shrinkage=0.02


Tree=58
num_leaves=9
num_cat=0
split_feature=44 35 29 29 12 35 30 16
split_gain=32.9665 10.9385 7.31401 10.9088 6.57237 3.74146 3.72047 3.58058
threshold=315.39583333333343 0.85561368268953431 7.0937500000000009 6.7583333333333346 128.56883283581161 0.73136292505298039 118.55262383314518 17.750000000000004
decision_type=2 2 2 2 2 2 2 2
left_child=1 2 3 -1 -2 7 -4 -6
right_child=4 -3 6 -5 5 -7 -8 -9
leaf_value=-0.017681502874992393 0.0014335603323983412 0.0129985446362504 -0.021990336467525306 0.031284210025683191 0.020073537014939889 0.025274317101080881 0.0062617883513552052 0.0013973607244381866
leaf_weight=2.8451342731714311 7.3658450320363036 8.1597939878702146 15.363000556826593 2.5122304037213326 9.2680827826261538 38.232884049415588 1.6684385314583767 7.1084956750273696
leaf_count=26 22 20 156 7 18 62 10 21
internal_value=0.011108 -0.00577411 -0.0128792 0.00658915 0.0193889 0.0217415 -0.0190289 0.0125138
internal_weight=92.5239 30.5486 22.3888 5.35736 61.9753 54.6095 17.0314 16.3766
internal_count=342 219 199 33 123 101 166 39
is_linear=0
shrinkage=0.02


Tree=59
num_leaves=9
num_cat=0
split_feature=44 35 29 29 12 35 41 30
split_gain=31.8902 10.6115 7.17145 10.5642 6.4189 3.73154 4.3642 3.6727
threshold=315.39583333333343 0.85561368268953431 7.0937500000000009 6.7583333333333346 128.56883283581161 0.73136292505298039 2.8541666666666674 118.55262383314518
decision_type=2 2 2 2 2 2 2 2
left_child=1 2 3 -1 -2 6 -6 -4
right_child=4 -3 7 -5 5 -7 -8 -9
leaf_value=-0.017579161884594179 0.0014082340605312794 0.012758738327175124 -0.021906848518771109 0.030628485194224318 0.021233333650142742 0.025036348516648529 0.00091756196431901473 0.0061714607606338347
leaf_weight=2.8106330111622873 7.3663279190659514 8.1656329780817014 15.119379140436651 2.5358610525727272 8.6813905984163302 37.837841793894768 7.6782542616128913 1.6735854893922795
leaf_count=26 22 20 156 7 15 62 24 10
internal_value=0.0109757 -0.00569788 -0.0127624 0.00650916 0.0191432 0.0214845 0.0123004 -0.018919
internal_weight=91.8689 30.3051 22.1395 5.34649 61.5638 54.1975 16.3596 16.793
internal_count=342 219 199 33 123 101 39 166
is_linear=0
shrinkage=0.02


Tree=60
num_leaves=9
num_cat=0
split_feature=4 35 44 11 21 0 2 26
split_gain=39.5111 12.6993 10.1413 5.53085 4.60288 3.61691 1.22609 1.56686
threshold=208.95833333333334 0.85561368268953431 311.83333333333343 0.13366751245416922 217.54463592209569 8.5125000000000011 968.8416666666667 9.4937500000000039
decision_type=2 2 2 2 2 2 2 2
left_child=2 4 5 -4 -2 -1 7 -5
right_child=1 -3 3 6 -6 -7 -8 -9
leaf_value=-0.015806302173723082 -0.022282744513409631 0.019820134684079324 0.0052014725767272774 0.022819637633227523 0.0087328442779315979 0.0086442727530226977 0.025466198912526293 0.0091337522959511249
leaf_weight=3.9665395244956008 18.027413301169879 3.0815531462430945 9.6212168931961042 7.4334398657083538 1.6020898967981327 3.8212211802601814 29.586420312523842 9.4094550013542158
leaf_count=17 190 7 27 13 10 14 48 21
internal_value=0.00873224 -0.0135111 0.0167318 0.0196614 -0.0194508 -0.00419068 0.0224849 0.0161143
internal_weight=86.5493 22.7111 63.8383 56.0505 19.6295 7.78776 46.4293 16.8429
internal_count=347 207 140 109 200 31 82 34
is_linear=0
shrinkage=0.02


Tree=61
num_leaves=9
num_cat=0
split_feature=4 35 44 11 21 28 2 26
split_gain=38.2285 12.401 9.85682 5.4234 4.54247 3.53961 1.22308 1.5321
threshold=208.95833333333334 0.85561368268953431 311.83333333333343 0.13366751245416922 217.54463592209569 12.57291666666667 968.8416666666667 9.4937500000000039
decision_type=2 2 2 2 2 2 2 2
left_child=2 4 5 -4 -2 -1 7 -5
right_child=1 -3 3 6 -6 -7 -8 -9
leaf_value=-0.014595954664408719 -0.022202662505892735 0.01947433298228176 0.0051058411064051181 0.02253519703622511 0.0085971364065953598 0.0097314925884503713 0.025204513872226629 0.0089878567141250601
leaf_weight=4.4016394317150107 17.737112358212478 3.0912039577960959 9.6240930557250959 7.3897818177938488 1.6105311587452877 3.3781777322292328 29.308906048536301 9.3874060958623868
leaf_count=22 190 7 27 13 10 9 48 21
internal_value=0.00863303 -0.0133922 0.0165042 0.0194073 -0.0193423 -0.00412718 0.022222 0.015887
internal_weight=85.9289 22.4388 63.49 55.7102 19.3476 7.77982 46.0861 16.7772
internal_count=347 207 140 109 200 31 82 34
is_linear=0
shrinkage=0.02


Tree=62
num_leaves=11
num_cat=0
split_feature=4 35 44 11 20 0 33 7 41 41
split_gain=36.9985 12.1104 9.56935 5.31919 4.6986 3.49797 1.23796 0.809839 0.914361 0.135205
threshold=208.95833333333334 0.85561368268953431 311.83333333333343 0.13366751245416922 42.972916666666677 8.5125000000000011 -116.47468499800537 -0.87090549290721297 2.0625000000000004 3.0625000000000004
decision_type=2 2 2 2 2 2 2 2 2 2
left_child=2 4 5 -4 -2 -1 -5 -8 -9 -10
right_child=1 -3 3 6 -6 -7 7 8 9 -11
leaf_value=-0.015530993557392916 -0.022069913201841068 0.019137481287604619 0.0050120373981599091 0.0056480280870258026 0.0099395196443092474 0.0085452694413067701 0.0099920061447992987 0.027441983796393194 0.009715251591117819 0.019563888204448654
leaf_weight=3.9428787603974333 17.602612793445594 3.1002113074064246 9.6268181949853879 2.5610469132661811 1.4671501517295826 3.8162728995084763 3.9096431434154502 21.808091998100281 3.993305757641795 13.468306109309195
leaf_count=17 193 7 27 6 7 14 8 34 9 25
internal_value=0.00853709 -0.0132744 0.0162848 0.0191583 -0.0192347 -0.00406563 0.0219647 0.0227827 0.0237764 0.0179598
internal_weight=85.2963 22.17 63.1264 55.3672 19.0698 7.75915 45.7404 43.1793 39.2697 17.4616
internal_count=347 207 140 109 200 31 82 76 68 34
is_linear=0
shrinkage=0.02


Tree=63
num_leaves=9
num_cat=0
split_feature=4 35 44 3 20 28 2 41
split_gain=35.8095 11.8284 9.3057 5.21997 4.63542 3.4219 1.30944 2.64328
threshold=208.95833333333334 0.85561368268953431 311.83333333333343 6.9979166666666677 42.972916666666677 12.57291666666667 968.03750000000025 1.0208333333333337
decision_type=2 2 2 2 2 2 2 2
left_child=2 4 5 6 -2 -1 7 -4
right_child=1 -3 3 -5 -6 -7 -8 -9
leaf_value=-0.014341367269054961 -0.021993272782131226 0.018809206056686411 0.024741198755829492 0.0049200225421480474 0.0097902882216408822 0.0096043097251494718 0.024546037486150547 0.0071731763093557848
leaf_weight=4.3743493854999533 17.317029640078552 3.1085993945598593 5.7601519078016272 9.6293987333774549 1.4748877286911 3.3765876442193985 30.179430812597275 9.4621152728795987
leaf_count=22 193 7 9 27 7 9 51 22
internal_value=0.00844449 -0.0131587 0.0160686 0.0189168 -0.0191301 -0.0040043 0.0217154 0.0149363
internal_weight=84.6826 21.9005 62.782 55.0311 18.7919 7.75094 45.4017 15.2223
internal_count=347 207 140 109 200 31 82 31
is_linear=0
shrinkage=0.02


Tree=64
num_leaves=10
num_cat=0
split_feature=44 10 22 40 35 20 40 7 27
split_gain=34.6708 10.5663 10.3695 7.12628 4.07475 4.31402 2.948 2.01436 0.358906
threshold=283.58333333333343 0.0015487660119529003 7.4333333333333345 32.397916666666674 0.94066717844141279 46.979166666666679 45.183333333333337 0.26562347827841309 -59.230235395786963
decision_type=2 2 2 2 2 2 2 2 2
left_child=4 2 7 -4 5 -1 -5 -2 -3
right_child=1 8 3 6 -6 -7 -8 -9 -10
leaf_value=-0.021176978857241395 -0.0017150094339174261 0.015688051728255926 0.021601291247750527 -0.011670136680487777 0.0059874325539155853 0.0094908681903825946 0.0089061156994542055 -0.023072144984146521 0.024652295233971753
leaf_weight=15.243326850235468 3.2107205539941814 10.380084484815596 12.938722215592863 4.3275053426623327 2.8495778143405905 1.495168812572955 4.8458110690116882 3.4620739221572876 25.296276912093163
leaf_count=181 13 21 27 18 8 7 12 18 42
internal_value=0.00835227 0.0153925 0.00607068 0.0125902 -0.0144382 -0.018057 -0.000993702 -0.0143587 0.022543
internal_weight=84.0493 64.4612 28.7848 22.112 19.5881 16.7385 9.17332 6.67279 35.6764
internal_count=347 151 88 57 196 188 30 31 63
is_linear=0
shrinkage=0.02


Tree=65
num_leaves=11
num_cat=0
split_feature=35 41 2 21 29 17 32 28 22 1
split_gain=28.5267 11.4278 9.46957 3.14908 2.98734 4.96273 2.2926 1.81595 1.37118 0.757103
threshold=0.24997576770840005 4.9791666666666679 967.6458333333336 104.71509549522146 8.689583333333335 12.995833333333335 17.204166666666669 7.8125000000000009 5.9270833333333348 64.166666666666671
decision_type=2 2 2 2 2 2 2 2 2 2
left_child=6 4 3 -3 5 -2 -1 -6 -9 -10
right_child=1 2 -4 -5 7 -7 -8 8 9 -11
leaf_value=-0.020173679550439846 0.018888250095621024 -0.025460217313435882 0.011715308168213317 0.00064857649658152166 0.0035841265175937816 -0.0068486170604272756 0.00088032140093534741 0.0086682361665707218 0.013201549585071651 0.02517439930826194
leaf_weight=11.049470648169516 5.9875912964344007 4.2760933488607433 10.865142084658144 2.7690588384866714 2.6596364974975577 4.5378022193908691 2.399376153945922 4.3309291154146186 6.2427534013986579 30.016319505870342
leaf_count=145 13 25 29 10 9 17 18 12 13 52
internal_value=0.0092512 0.0142661 0.0003764 -0.0163932 0.0188008 0.00816086 -0.0166165 0.0211473 0.0221842 0.0235227
internal_weight=85.1342 71.6853 17.9103 7.04515 53.775 10.5254 13.4488 43.2496 40.59 36.2591
internal_count=343 180 64 35 116 30 163 86 77 65
is_linear=0
shrinkage=0.02


Tree=66
num_leaves=11
num_cat=0
split_feature=35 41 2 44 12 7 7 7 19 41
split_gain=27.6603 11.105 9.18009 3.70715 3.13689 9.36374 12.856 3.73558 2.56633 0.0625213
threshold=0.24997576770840005 4.9791666666666679 967.6458333333336 178.87500000000003 133.71890413466025 -0.54485778895813264 0.95441727943422039 -0.42490819008772213 27.860416666666669 1.7291666666666667
decision_type=2 2 2 2 2 2 2 2 2 2
left_child=3 4 8 -1 5 -2 -7 -6 -3 -9
right_child=1 2 -4 -5 7 6 -8 9 -10 -11
leaf_value=0.0078165024485976863 0.026189918987285274 -0.025040792860935392 0.011512631796161759 -0.020332362037539485 0.0061395687943206758 -0.019895872654156974 0.020555907375953638 0.027631704021929576 -0.0012455328181140864 0.018301737106327601
leaf_weight=1.6549648419022549 7.8167755156755474 3.981654196977618 10.853018365800379 11.613535486161707 5.7751549780368796 5.879610598087309 4.7898775190114975 18.782964944839481 3.0226368457078934 10.433903872966765
leaf_count=14 15 24 29 149 14 29 8 30 11 20
internal_value=0.00912969 0.0140629 0.000355541 -0.0165196 0.0185495 0.0109334 -0.00153046 0.0221575 -0.0162107 0.0250157
internal_weight=84.6041 71.3356 17.8573 13.2685 53.4783 18.4863 10.6695 34.992 7.00429 29.2169
internal_count=343 180 64 163 116 52 37 64 35 50
is_linear=0
shrinkage=0.02


Tree=67
num_leaves=10
num_cat=0
split_feature=35 41 35 33 44 12 7 7 21
split_gain=26.8304 10.8226 9.02874 11.0845 4.11775 3.08688 9.01627 12.4838 4.45667
threshold=0.24997576770840005 4.9791666666666679 0.93469109537144635 55.209217569048043 175.89583333333337 133.71890413466025 -0.54485778895813264 0.95441727943422039 -33.863484958415846
decision_type=2 2 2 2 2 2 2 2 2
left_child=4 5 3 -3 -1 6 -2 -8 -7
right_child=1 2 -4 -5 -6 8 7 -9 -10
leaf_value=0.010065045582970982 0.025727262439146852 -0.025680034431295597 0.014940226934667516 0.015715664381060056 -0.020288042647792489 0.00060274292468610272 -0.019652897683895897 0.020296235795667045 0.024286395142228853
leaf_weight=1.4632501751184452 7.8161842823028591 6.576827675104143 8.1155304014682752 3.1138488724827766 11.622152756899593 3.5845390111207953 5.845959044992922 4.7671591937541962 31.112407192587852
leaf_count=11 15 39 17 8 152 10 29 8 54
internal_value=0.00902121 0.0138776 0.000333229 -0.0121528 -0.0164203 0.0183272 0.0107737 -0.00150617 0.0219251
internal_weight=84.0179 70.9325 17.8062 9.69068 13.0854 53.1262 18.4293 10.6131 34.6969
internal_count=343 180 64 47 163 116 52 37 64
is_linear=0
shrinkage=0.02


Tree=68
num_leaves=10
num_cat=0
split_feature=0 41 2 44 29 17 21 28 2
split_gain=25.9287 8.36624 7.73105 3.91369 3.6079 5.51268 2.87307 1.14037 1.34183
threshold=13.866666666666669 4.8333333333333348 967.6458333333336 178.87500000000003 8.689583333333335 12.995833333333335 104.71509549522146 11.020833333333334 964.09583333333342
decision_type=2 2 2 2 2 2 2 2 2
left_child=1 4 6 -2 5 -1 -3 -6 -9
right_child=3 2 -4 -5 7 -7 -8 8 -10
leaf_value=0.018238169117568884 0.0089604599444046626 -0.025004278474356642 0.011230472328768188 -0.020359347826697391 0.011733964964547735 -0.0082077592658811142 0.00075453059184643872 0.0094312178657435901 0.02381044951318315
leaf_weight=5.8961005732417089 1.554271850734948 3.4523646123707321 10.796191163361071 11.225325573235748 9.4274789541959745 4.9966941401362419 2.7414937317371368 4.8515089228749266 28.420296616852283
leaf_count=13 13 20 29 146 25 22 10 12 53
internal_value=0.0089207 0.0136707 0.0013325 -0.0164019 0.0174862 0.00643691 -0.015083 0.0200931 0.0220501
internal_weight=83.3617 70.5821 16.99 12.7796 53.5921 10.8928 6.19386 42.6993 33.2718
internal_count=343 184 59 159 125 35 30 90 65
is_linear=0
shrinkage=0.02


Tree=69
num_leaves=10
num_cat=0
split_feature=35 41 35 29 44 12 7 7 21
split_gain=25.2941 10.2035 8.6987 10.4944 3.56086 3.08654 8.64478 12.0566 4.37413
threshold=0.24997576770840005 4.9791666666666679 0.99138911339924218 14.262500000000001 178.87500000000003 133.71890413466025 -0.54485778895813264 0.95441727943422039 -33.863484958415846
decision_type=2 2 2 2 2 2 2 2 2
left_child=4 5 3 -3 -1 6 -2 -8 -7
right_child=1 2 -4 -5 -6 8 7 -9 -10
leaf_value=0.0074613568682680492 0.025002688552280123 -0.026018467261836035 0.023156283274613037 0.0072588626497148267 -0.020148703360369741 0.00041823512598221287 -0.019515275257323703 0.019848525590575622 0.023873415569592705
leaf_weight=1.6768878586590279 7.7998555302619961 5.7055904567241686 3.9734743237495413 7.9726482108235359 11.065039739012716 3.5770085602998725 5.8265593424439412 4.726215660572052 30.544127255678177
leaf_count=14 15 32 6 26 149 10 29 8 54
internal_value=0.00880131 0.013515 0.00031253 -0.00744898 -0.0162366 0.0178674 0.010358 -0.00169355 0.0214965
internal_weight=82.8674 70.1255 17.6517 13.6782 12.7419 52.4738 18.3526 10.5528 34.1211
internal_count=343 180 64 58 163 116 52 37 64
is_linear=0
shrinkage=0.02


Tree=70
num_leaves=11
num_cat=0
split_feature=1 44 41 35 21 44 15 2 16 10
split_gain=19.4114 13.1202 9.46074 8.80718 8.07363 3.57017 3.41413 10.3505 0.663613 1.43856
threshold=47.937500000000007 223.70833333333334 7.5625000000000009 0.93469109537144635 -140.71298495577301 186.79166666666666 3.6500000000000044 970.00416666666695 21.914583333333336 0.0028069561492696502
decision_type=2 2 2 2 2 2 2 2 2 2
left_child=5 -2 6 4 -4 -1 8 -8 -3 -10
right_child=1 2 3 -5 -6 -7 7 -9 9 -11
leaf_value=0.0067596351292248226 -0.020049180568154249 0.025904680042217187 0.015916769340139456 0.016176417905847874 -0.0246575867354808 -0.021374384663601389 -0.0091549377701487817 0.020396720291329745 0.0072408301757979215 0.021604473547355535
leaf_weight=1.7414537556469429 3.8099304921925059 18.637827731668949 1.9753420948982237 6.2999170273542404 5.7242650464177114 8.165792487561701 6.3391375541687038 13.495140857994555 5.949813410639762 8.6715190261602384
leaf_count=15 36 35 5 13 39 112 24 29 16 16
internal_value=0.0088286 0.012512 0.0146283 -2.39878e-05 -0.0136151 -0.0162628 0.0184208 0.0109658 0.0224168 0.0165972
internal_weight=80.8101 70.9029 67.093 13.9995 7.69961 9.90725 53.0934 19.8343 33.2592 14.6213
internal_count=340 213 177 57 44 127 120 53 67 32
is_linear=0
shrinkage=0.02


Tree=71
num_leaves=10
num_cat=0
split_feature=0 33 15 2 29 34 33 27 43
split_gain=19.2016 9.07972 5.76147 20.3684 8.16664 5.18966 3.52545 3.22372 0.192213
threshold=13.866666666666669 -89.952529274015788 2.5000000000000022 967.93541666666681 9.1812500000000004 0.39036257410962039 10.028089530946488 -57.869126591523802 29.416666666666668
decision_type=2 2 2 2 2 2 2 2 2
left_child=2 -2 5 8 -5 7 -6 -1 -4
right_child=1 -3 3 4 6 -7 -8 -9 -10
leaf_value=0.0069326086444018746 0.017524358912936303 -0.020082914713021201 -0.027879458167537563 -0.0050718103979861739 0.0096610380410164474 0.0030567138708284935 0.029934097000147621 0.024772273879742852 -0.011393734939338339
leaf_weight=5.9546778053045299 2.4407259896397582 10.938305690884588 3.632177188992503 5.6396039724350002 7.3380621597170856 7.852864295244216 8.9280583560466749 24.830896645784378 2.6871209442615509
leaf_count=14 11 155 17 22 20 27 14 44 16
internal_value=0.00872228 -0.0124806 0.0130863 0.00591665 0.015021 0.0180422 0.0218776 0.0216483 -0.0233838
internal_weight=80.2425 13.379 66.8635 28.225 21.9057 38.6384 16.2661 30.7856 6.3193
internal_count=340 166 174 89 56 85 34 58 33
is_linear=0
shrinkage=0.02


Tree=72
num_leaves=11
num_cat=0
split_feature=1 44 41 13 44 39 3 29 33 44
split_gain=18.3612 12.6038 9.03478 8.49676 4.06053 3.08269 9.01039 4.5762 1.26665 0.408739
threshold=47.937500000000007 223.70833333333334 7.5625000000000009 1.0000000180025095e-35 183.52083333333334 11.662500000000003 6.9979166666666677 11.741666666666669 -1.0000000180025095e-35 433.56250000000006
decision_type=2 2 2 2 2 2 2 2 2 2
left_child=4 -2 5 -4 -1 -3 8 -8 9 -7
right_child=1 2 3 -5 -6 6 7 -9 -10 -11
leaf_value=0.0094935203078400903 -0.019948311021975928 0.032341302339733626 0.01153254142615247 -0.018537626255967134 -0.021308165989054807 0.014615074165592773 -0.015733319872694485 0.01048046018845733 0.010883931510906577 0.024214685239848276
leaf_weight=1.4958517961204041 3.7414002157747737 5.3663444444537154 8.7074160352349264 5.1337683014571658 8.163785230368374 8.9008227735757774 4.1764132827520353 4.5211916118860245 8.5601306632161194 20.964310243725777
leaf_count=12 36 8 28 29 115 21 20 13 20 38
internal_value=0.00860909 0.0121932 0.0142755 -0.000118207 -0.0160952 0.0180023 0.0157313 -0.00243127 0.0197998 0.0219199
internal_weight=79.7314 70.0718 66.3304 13.8412 9.65964 52.4892 47.1229 8.6976 38.4253 29.8651
internal_count=340 213 177 57 127 120 112 33 79 59
is_linear=0
shrinkage=0.02


Tree=73
num_leaves=11
num_cat=0
split_feature=0 33 5 27 44 10 8 8 8 33
split_gain=18.025 8.83451 7.62651 7.99275 11.5699 2.34062 3.70839 1.51103 0.744317 0.925355
threshold=13.866666666666669 -89.952529274015788 41.708333333333336 -46.855948879280042 440.85416666666674 0.00070693664256595002 -1.0000000180025095e-35 -0.89136468621784626 0.048319602339845509 -8.2797453617476666
decision_type=2 2 2 2 2 2 2 2 2 2
left_child=2 -2 -1 4 -4 6 -5 -7 -9 -10
right_child=1 -3 3 5 -6 7 -8 8 9 -11
leaf_value=-0.0063649642540416201 0.017144742499882838 -0.019979976602709528 -0.016907345632214622 -0.0066987623329870724 0.015925890530953307 0.0036074780599298552 0.020092185595521249 0.027562014283653086 0.021755401034046429 0.010744799931017608
leaf_weight=6.9277700632810584 2.4599826633930197 10.619166273623703 6.2772191241383544 3.4417654201388359 9.5051112025976163 2.2490472197532574 3.077240750193595 13.256797492504125 12.900251328945153 8.4648699462413859
leaf_count=26 11 155 27 21 20 6 10 21 24 19
internal_value=0.00850484 -0.0122756 0.0127383 0.0150435 0.00263758 0.0193949 0.00693793 0.021356 0.0223753 0.0180685
internal_weight=79.1792 13.0791 66.1001 59.1723 15.7823 43.39 6.51901 36.871 34.6219 21.3651
internal_count=340 166 174 148 47 101 31 70 64 43
is_linear=0
shrinkage=0.02


Tree=74
num_leaves=10
num_cat=0
split_feature=0 33 15 2 29 27 33 4 43
split_gain=17.4607 8.65023 5.5416 19.4218 7.76638 3.82546 3.33694 1.79686 0.150282
threshold=13.866666666666669 -89.952529274015788 2.5000000000000022 967.93541666666681 9.1812500000000004 -57.869126591523802 10.028089530946488 109.60748785680723 29.416666666666668
decision_type=2 2 2 2 2 2 2 2 2
left_child=2 -2 5 8 -5 -1 -6 -7 -4
right_child=1 -3 3 4 6 7 -8 -9 -10
leaf_value=0.0057127696792280127 0.016799369677848008 -0.019918823643798125 -0.027581150418398242 -0.0051502078443093685 0.009229210190155426 0.025341853848515436 0.029067627832913303 0.012744049606971888 -0.011368576854170538
leaf_weight=9.4823846817016584 2.4806924685835829 10.443568348884581 3.5953801125288036 5.5954499319195774 7.2024318352341679 17.46656404435635 8.835549980401991 10.911424338817595 2.6444058604538441
leaf_count=25 11 155 17 22 20 30 14 30 16
internal_value=0.0084065 -0.0121708 0.0125741 0.00552251 0.0144755 0.0174898 0.0212231 0.0210966 -0.0232296
internal_weight=78.6579 12.9243 65.7336 27.8732 21.6334 37.8604 16.038 28.378 6.23979
internal_count=340 166 174 89 56 85 34 60 33
is_linear=0
shrinkage=0.02


Tree=75
num_leaves=10
num_cat=0
split_feature=1 35 41 5 26 29 23 9 28
split_gain=17.8511 8.81184 11.995 9.066 6.97128 12.3078 4.85059 3.49442 3.27564
threshold=54.354166666666671 0.92191100909954782 8.2083333333333339 73.958333333333357 8.2500000000000018 12.106250000000001 5.2479166666666677 3024.1568695409014 10.554166666666669
decision_type=2 2 2 2 2 2 2 2 2
left_child=6 2 3 -2 -5 -6 -1 -4 -3
right_child=1 8 7 4 5 -7 -8 -9 -10
leaf_value=0.0075183778284382743 -0.013332344763958295 0.0052896808446382696 -0.024385344071883253 0.026581667591706375 -0.020291842161261685 0.017153239098850605 -0.021278365910163678 0.0048621067384189802 0.022840744052221008
leaf_weight=2.5342080742120734 4.5194991901516941 5.961577624082568 5.1046557314693919 10.986046575009825 4.2233689911663523 9.891323007643221 8.5151694454252702 1.8325137682259081 24.62022365629673
leaf_count=14 21 16 35 21 24 25 128 15 45
internal_value=0.00804248 0.0119281 0.00507913 0.0106417 0.0153037 0.00534776 -0.0145979 -0.0170202 0.0196952
internal_weight=78.1886 67.1392 36.5574 29.6202 25.1007 14.1147 11.0494 6.93717 30.5818
internal_count=344 202 141 91 70 49 142 50 61
is_linear=0
shrinkage=0.02


Tree=76
num_leaves=10
num_cat=0
split_feature=1 15 2 35 34 23 16 18 35
split_gain=17.3094 10.1126 17.7107 13.2978 5.63876 4.77482 2.86422 1.61483 1.34636
threshold=54.354166666666671 1.0000000180025095e-35 967.93541666666681 0.98332250088165762 -0.37447345805034538 5.2479166666666677 24.195833333333336 -42.001276194494459 0.73136292505298039
decision_type=2 2 2 2 2 2 2 2 2
left_child=5 8 3 -3 -4 -1 7 -6 -2
right_child=1 2 4 -5 6 -7 -8 -9 -10
leaf_value=0.0073978242303387462 0.011156228963454267 -0.026478668446028086 -0.0017868458870154025 0.013673644287658224 0.028900920270334494 -0.02121398127053499 0.0061197959216379222 0.013448918099419449 0.025201347810292724
leaf_weight=2.5402298197150222 6.1119969636201885 8.6221180185675603 6.8650884032249442 4.2572520673274985 8.894393667578699 8.3746407851576787 6.6533673256635657 8.1230621524155193 17.215505570173264
leaf_count=14 20 65 26 9 14 128 16 21 31
internal_value=0.00793636 0.0117642 0.00582098 -0.0131775 0.0139979 -0.0144931 0.0184627 0.0226809 0.0221313
internal_weight=77.6577 66.7428 43.4153 12.8794 30.5359 10.9149 23.6708 17.0175 23.3275
internal_count=344 202 151 74 77 142 51 35 51
is_linear=0
shrinkage=0.02


Tree=77
num_leaves=11
num_cat=0
split_feature=1 35 41 5 26 29 23 9 28 22
split_gain=16.8108 8.34048 11.4555 8.65332 6.65364 11.8221 4.70027 3.42248 3.21132 0.011219
threshold=54.354166666666671 0.92191100909954782 8.2083333333333339 73.958333333333357 8.2500000000000018 12.106250000000001 5.2479166666666677 3024.1568695409014 10.554166666666669 10.254166666666668
decision_type=2 2 2 2 2 2 2 2 2 2
left_child=6 2 3 -2 -5 -6 -1 -4 -3 -10
right_child=1 8 7 4 5 -7 -8 -9 9 -11
leaf_value=0.0072793450724302237 -0.013077444271332499 0.0050104927056439106 -0.024159651752233495 0.026005251001667475 -0.02004399954187799 0.016811971136806044 -0.021149656119924969 0.0048862579651248244 0.01665883399478444 0.025357636180986357
leaf_weight=2.5461591593921176 4.4960442334413555 5.9266496747732189 5.0209258571267119 10.916912555694582 4.1800921075046054 9.7894317209720594 8.236539386212824 1.8176269829273222 10.454887479543688 13.710760369896887
leaf_count=14 21 16 35 21 24 25 128 15 21 24
internal_value=0.00784828 0.0116241 0.0049406 0.0103872 0.0149678 0.00518132 -0.0143885 -0.016801 0.0192511 0.0224057
internal_weight=77.096 66.3133 36.221 29.3825 24.8864 13.9695 10.7827 6.83855 30.0923 24.1656
internal_count=344 202 141 91 70 49 142 50 61 45
is_linear=0
shrinkage=0.02


Tree=78
num_leaves=10
num_cat=0
split_feature=35 32 41 13 35 19 25 25 5
split_gain=16.1365 7.51142 9.2111 6.49697 9.69518 5.29376 2.34509 8.08688 1.0225
threshold=0.52583933546504591 13.327083333333334 5.354166666666667 1.0000000180025095e-35 0.92191100909954782 26.985416666666669 8.7104166666666689 10.556250000000002 95.375000000000014
decision_type=2 2 2 2 2 2 2 2 2
left_child=1 -1 -3 6 5 -5 -2 -8 -9
right_child=3 2 -4 4 -6 -7 7 8 -10
leaf_value=-0.019914993824069499 0.024735220561540778 0.019414860598271137 -0.017925434991807734 0.002097860560708258 0.016790816553503372 -0.024958831823652869 -0.0089901351019666467 0.010231373178312528 0.022297749803545725
leaf_weight=9.3698446676135081 13.289740487933157 5.526046156883238 3.4802867695689201 6.5568001195788401 10.140031844377516 3.985384039580822 4.7225582003593471 7.1786144524812725 12.32476720958948
leaf_count=141 23 23 38 20 21 22 15 17 24
internal_value=0.00774942 -0.00826397 0.00463618 0.0128599 0.00361928 -0.00940691 0.017728 0.0130558 0.0185721
internal_weight=76.5741 18.3762 9.00633 58.1979 20.6822 10.5422 37.5157 24.2259 19.5034
internal_count=344 202 61 142 63 42 79 56 41
is_linear=0
shrinkage=0.02


Tree=79
num_leaves=10
num_cat=0
split_feature=1 15 19 0 35 32 22 23 35
split_gain=15.9416 9.62752 14.2253 9.94345 12.853 6.67176 5.4362 4.57507 1.40681
